-1.877196311950683594e+00,-5.160459041595458984e+00,-3.127536475658416748e-01,-1.570539832115173340e+00,-1.173768281936645508e+00,2.204453945159912109e+00,2.204293489456176758e+00,-6.504671573638916016e-01
1.109261870384216309e+00,-6.172483563423156738e-01,5.469943284988403320e-01,-3.447656393051147461e+00,2.741691827774047852e+00,-4.574160277843475342e-01,-4.579925835132598877e-01,-1.952796459197998047e+00
-4.433325767517089844e+00,7.819392085075378418e-01,-3.886345386505126953e+00,6.845635771751403809e-01,1.569946646690368652e+00,-7.162383198738098145e-01,-7.164711952209472656e-01,-6.114679574966430664e-01
-9.967377781867980957e-01,4.181965589523315430e-01,-2.092418193817138672e+00,-1.312644124031066895e+00,-4.115628719329833984e+00,-2.900861978530883789e+00,-2.901449680328369141e+00,-1.429396748542785645e+00
1.555015325546264648e+00,-7.741767764091491699e-01,-6.701703071594238281e-01,5.142168521881103516e+00,9.986999034881591797e-01,5.305970311164855957e-01,5.290899276733398438e-01,-1.284038424491882324e+00
1.828970789909362793e+00,2.612053394317626953e+00,2.677362263202667236e-01,-2.342254400253295898e+00,7.959818840026855469e-01,2.842225551605224609e+00,2.844103574752807617e+00,5.931166172027587891e+00
1.029492497444152832e+00,-1.002624392509460449e+00,2.581589221954345703e+00,1.801793217658996582e+00,1.748075634241104126e-01,-3.103878021240234375e+00,-3.103483676910400391e+00,2.299048900604248047e+00
1.802417874336242676e+00,3.746966838836669922e+00,3.575171947479248047e+00,1.043627738952636719e+00,-9.884684085845947266e-01,1.622995972633361816e+00,1.623633623123168945e+00,-2.269062042236328125e+00
