-3.887550234794616699e-01,-1.392948776483535767e-01,1.609137207269668579e-01,8.737120777368545532e-02,2.327658891677856445e+00,9.492428898811340332e-01,-1.211351990699768066e+00,-1.879691243171691895e+00,-5.206664800643920898e-01,-1.217710614204406738e+00,1.877130568027496338e-01,4.704409539699554443e-01,1.039016366004943848e+00,3.974067270755767822e-01,-1.104825735092163086e-01,6.163172423839569092e-02,3.194054663181304932e-01,-7.447741627693176270e-01,3.232186734676361084e-01,-3.148486018180847168e-01,8.605638742446899414e-01,3.474288880825042725e-01,1.111661549657583237e-02,-1.024420022964477539e+00,6.690775156021118164e-01,2.221203565597534180e+00,-5.337831974029541016e-01,-9.355978369712829590e-01,-6.996804475784301758e-01,4.642994701862335205e-01,6.797596216201782227e-01,-1.027200222015380859e+00,1.479983627796173096e-01,-2.758642196655273438e+00,-1.206982016563415527e+00,1.710483431816101074e-02,-7.912581562995910645e-01,-1.095187291502952576e-01,-1.623285412788391113e-01,-1.052081584930419922e+00,-1.058464422821998596e-01,4.228189885616302490e-01,5.070951581001281738e-01,2.175853252410888672e+00,-3.969312608242034912e-01,-3.458173573017120361e-01,-4.003521502017974854e-01,-2.156086683273315430e+00,-1.352645754814147949e+00,-1.246585696935653687e-01,-8.799151778221130371e-01,-4.013397991657257080e-01,6.072235107421875000e-01,-2.138065338134765625e+00,-9.756848216056823730e-01,-6.465033292770385742e-01,-9.591069817543029785e-01,-3.389264643192291260e-01,-4.764515161514282227e-01,-1.969672679901123047e+00,-1.194287419319152832e+00,7.822159677743911743e-02,-1.462471932172775269e-01,-2.698792219161987305e-01,-2.226717919111251831e-01,-2.413013696670532227e+00,-3.511584699153900146e-01,5.156844481825828552e-02,-3.173708021640777588e-01,5.011603981256484985e-02,-2.570215940475463867e+00,-2.120229750871658325e-01,-9.038484841585159302e-02,1.159095764160156250e+00,-2.276637554168701172e-01,7.003307342529296875e-02,-1.524520814418792725e-01,-3.693751394748687744e-01,-4.474660754203796387e-01,-3.482615053653717041e-01,1.059145092964172363e+00,1.323025207966566086e-03,-9.196740984916687012e-01,9.622238874435424805e-01,5.977612137794494629e-01,-4.249208867549896240e-01,-6.666743159294128418e-01,-1.500080347061157227e+00,3.368375599384307861e-01,-1.752491116523742676e+00,6.381773352622985840e-01,-4.625470042228698730e-01,1.297286003828048706e-01,-2.571526527404785156e+00,7.272321581840515137e-01,-8.189803361892700195e-02,2.548355162143707275e-01,-7.785298228263854980e-01,5.949304103851318359e-01,-1.137207895517349243e-01,6.389377117156982422e-01,-2.278428226709365845e-01,9.199227690696716309e-01,-3.772751092910766602e-01,6.995216012001037598e-02,-1.824539899826049805e+00,5.729721188545227051e-01,-3.405468761920928955e-01,-5.807009935379028320e-01,-1.602285355329513550e-01,5.732105672359466553e-02,-4.492202997207641602e-01,-6.301767379045486450e-02,-9.970117360353469849e-02,-1.288752794265747070e+00,-7.992976903915405273e-01,-3.848797976970672607e-01,3.917005658149719238e-01,-7.379700541496276855e-01,-1.637434720993041992e+00,1.580596446990966797e+00,-2.203917980194091797e+00,-5.157621502876281738e-01,-2.149076946079730988e-02,1.297617912292480469e+00,-6.832250356674194336e-01,1.516692489385604858e-01,-3.237179219722747803e-01,-1.102362871170043945e-01,-1.582319736480712891e+00,-1.770517975091934204e-01,-2.544925808906555176e-01,-6.374970674514770508e-01,-6.122188568115234375e-01,6.551859378814697266e-01,1.465528368949890137e+00,9.071965813636779785e-01,-1.539139002561569214e-01,-9.612720608711242676e-01,8.440832793712615967e-02,-1.443041265010833740e-01,1.718416959047317505e-01,-5.122230648994445801e-01,-8.832398056983947754e-01,-7.481439709663391113e-01,-5.013769268989562988e-01,-4.752485752105712891e-01,-4.657735228538513184e-01,-9.831514954566955566e-01,-1.404028534889221191e-01,-1.208241701126098633e+00,-2.953041791915893555e-01,2.957144260406494141e+00,-7.129379510879516602e-01,-7.779300212860107422e-01,-1.008014753460884094e-01,-1.831838965415954590e+00,-1.065140008926391602e+00,-1.288148283958435059e+00,-9.932912588119506836e-01,-2.473488450050354004e-01,-6.492751836776733398e-01,1.563085019588470459e-01,-1.903111040592193604e-01,-4.139437079429626465e-01,8.816083073616027832e-01,-4.771940410137176514e-01,-1.597842812538146973e+00,-3.030660934746265411e-02,-2.180753201246261597e-01,1.950555324554443359e+00,-9.523738622665405273e-01,2.622857876121997833e-02,-9.024300575256347656e-01,-5.696863532066345215e-01,4.772046804428100586e-01,-3.940130770206451416e-01,-2.173570841550827026e-01,-1.040393039584159851e-01,-1.747527241706848145e+00,-4.059873223304748535e-01,-4.966593906283378601e-02,8.616548180580139160e-01,-2.908207416534423828e+00,-9.481315016746520996e-01,-1.120614409446716309e+00,-7.045134902000427246e-01,-6.968658566474914551e-01,2.232835054397583008e+00,-1.246680468320846558e-01,7.545751929283142090e-01,-2.355027347803115845e-01,5.586451292037963867e-01,-8.772348165512084961e-01,1.285739690065383911e-01,-6.497688293457031250e-01,2.993191182613372803e-01,-1.389140486717224121e-01,-2.915330231189727783e-01,-2.855519354343414307e-01,1.100051164627075195e+00,-6.062246561050415039e-01,7.782170176506042480e-01,-5.361505150794982910e-01,1.092051193118095398e-01,1.368073821067810059e+00,-4.675345867872238159e-02,1.331080123782157898e-02,-2.062876522541046143e-01,-3.530998528003692627e-01,-5.369622111320495605e-01,7.193416953086853027e-01,-1.240123629570007324e+00,-5.544778704643249512e-02,8.516184687614440918e-01,-2.656119585037231445e+00,-4.651422202587127686e-01,-1.165631532669067383e+00,1.262670278549194336e+00,-2.148063182830810547e-01,-5.088434815406799316e-01,-6.856033951044082642e-02,-5.745602846145629883e-01,-9.863344430923461914e-01,-9.767271578311920166e-02,-6.003074645996093750e-01,1.360061049461364746e+00,1.247168779373168945e+00,2.273332327604293823e-01,-7.602940797805786133e-01,7.197197526693344116e-02,-1.177998930215835571e-01,-5.673090815544128418e-01,-4.535494744777679443e-01,-6.638427972793579102e-01,-2.159833908081054688e+00,5.237723886966705322e-02,1.661284118890762329e-01,-1.496724367141723633e+00,-1.889685392379760742e+00,-2.112729400396347046e-01,8.771711587905883789e-01,-1.621906995773315430e+00,2.077923417091369629e-01,-2.356302291154861450e-01,9.913448095321655273e-01,9.021121859550476074e-01,-1.779924184083938599e-01,4.554286897182464600e-01,-4.963700473308563232e-01,-7.967130541801452637e-01,-1.469904184341430664e-01,-5.688189268112182617e-01,1.662121772766113281e+00,-6.345741152763366699e-01,-3.732129335403442383e-01,-4.589025676250457764e-01,-1.125135898590087891e+00,-1.507898092269897461e+00,3.128153383731842041e-01,-1.626067161560058594e-01,-2.152333855628967285e-01,-2.571279406547546387e-01,-1.504797816276550293e+00,4.289233088493347168e-01,-2.841054499149322510e-01,-8.691486716270446777e-02,2.784391641616821289e-01,1.278131008148193359e+00,1.869438171386718750e+00,8.230074048042297363e-01,-4.143941700458526611e-01,-3.630793392658233643e-01,-1.026136755943298340e+00,1.154041960835456848e-01,-4.049757122993469238e-01,3.658459782600402832e-01,1.142413258552551270e+00,9.879624247550964355e-01,-5.067735910415649414e-01,-3.017006218433380127e-01,-7.927080988883972168e-01,-5.137664675712585449e-01,8.477687835693359375e-01,-1.014134526252746582e+00,-2.414063178002834320e-02,-2.147489935159683228e-01,1.802169203758239746e+00,-1.619558334350585938e+00,-1.041974782943725586e+00,5.812598466873168945e-01,1.925441175699234009e-01,6.909681558609008789e-01,-5.829530954360961914e-01,-6.951733827590942383e-01,-7.972183823585510254e-01,-1.422870308160781860e-01,6.028728932142257690e-02,8.765315264463424683e-02,-4.684986472129821777e-01,1.925040930509567261e-01,7.391533255577087402e-02,7.285087555646896362e-02,4.150504469871520996e-01,-4.104828536510467529e-01,-9.191632866859436035e-01,5.060409903526306152e-01,2.197318792343139648e+00,6.540518999099731445e-02,3.167871534824371338e-01,-2.571522593498229980e-01,6.040505766868591309e-01,-3.060727119445800781e-01,-3.225096762180328369e-01,4.940872639417648315e-02,2.929114401340484619e-01,-2.861794829368591309e-01,-8.281596302986145020e-01,-1.365228891372680664e+00,-2.465458661317825317e-01,-4.600526094436645508e-01,-1.188339352607727051e+00,1.720013469457626343e-01,-8.262004256248474121e-01,-1.859625220298767090e+00,-2.591301202774047852e-01,-6.226814985275268555e-01,-1.270520538091659546e-01,-5.136724114418029785e-01,5.823481678962707520e-01,-3.398645401000976562e+00,1.375147700309753418e+00,1.784662246704101562e+00,2.107002735137939453e-01,-6.196581572294235229e-02,-3.045634627342224121e-01,-1.238254830241203308e-01,1.617557525634765625e+00,1.089342236518859863e+00,-3.824202120304107666e-01,8.151649683713912964e-02,-2.325006008148193359e+00,4.210460186004638672e-01,-8.249547481536865234e-01,-9.106778502464294434e-01,-7.889598011970520020e-01,-7.349284887313842773e-01,4.425849020481109619e-01,6.101424694061279297e-01,-2.842676341533660889e-01,-8.125934600830078125e-01,-5.320792794227600098e-01,-7.099960744380950928e-02,1.875209808349609375e-01,-1.070549368858337402e+00,5.428453683853149414e-01,6.284745782613754272e-02,-1.207741871476173401e-01,7.028873562812805176e-01,-8.981682062149047852e-01,-3.675198853015899658e-01,-9.936282038688659668e-01,4.603810906410217285e-01,-1.692491650581359863e+00,-2.639341354370117188e-01,-1.160623431205749512e+00,-3.841051459312438965e-01,-4.215347170829772949e-01,-2.017858982086181641e+00,-1.855888962745666504e+00,-7.150003314018249512e-01,-2.139959931373596191e-01,9.893923997879028320e-01,-3.737909197807312012e-01,-5.817958116531372070e-01,-7.891782522201538086e-01,-3.028661012649536133e-01,-2.068198919296264648e+00,8.728634119033813477e-01,-8.548609018325805664e-01,-7.785910964012145996e-01,4.211089611053466797e-01,-4.487044215202331543e-01,-1.076354146003723145e+00,-6.560701727867126465e-01,8.726320266723632812e-01,-3.813560009002685547e-01,-3.866747021675109863e-01,1.824856251478195190e-01,6.869920492172241211e-01,5.799917578697204590e-01,2.754161059856414795e-01,1.587971597909927368e-01,-2.264101803302764893e-01,3.376587927341461182e-01,1.390482664108276367e+00,5.208618044853210449e-01,-1.489776849746704102e+00,-1.548040360212326050e-01,2.290703535079956055e+00,2.973866164684295654e-01,-1.094546556472778320e+00,-6.142033338546752930e-01,-7.812896966934204102e-01,-1.572783589363098145e-01,-7.493721246719360352e-01,-4.256905913352966309e-01,-3.476777374744415283e-01,-2.492630183696746826e-01,1.727738380432128906e-01,6.377019286155700684e-01,6.917286664247512817e-02,5.351023674011230469e-01,2.340807437896728516e+00,-1.322495460510253906e+00,-8.391392230987548828e-01,-1.386672496795654297e+00,-1.309131860733032227e+00,-1.909322619438171387e+00,1.400583744049072266e+00,-1.585892200469970703e+00,-1.146407485008239746e+00,-1.451257944107055664e+00,-2.790730595588684082e-01,3.279980123043060303e-01,1.004368901252746582e+00,-4.345675110816955566e-01,-7.792783975601196289e-01,-3.989277482032775879e-01,-8.238746523857116699e-01,2.227795422077178955e-01,-1.802858896553516388e-02,7.084615826606750488e-01,1.676355481147766113e+00,-1.425932198762893677e-01,1.769637316465377808e-02,7.612318992614746094e-01,-7.133430242538452148e-01,-1.669260561466217041e-01,5.217813849449157715e-01,-3.600601255893707275e-01,1.203919053077697754e+00,-6.476683616638183594e-01,-7.196367383003234863e-01,-6.874297261238098145e-01,-7.580276131629943848e-01,-1.365411400794982910e+00,-3.793479204177856445e-01,-4.756540060043334961e-01,-5.884876251220703125e-01,2.857748568058013916e-01,-9.192113280296325684e-01,-1.817373745143413544e-02,2.410774230957031250e-01,1.844903469085693359e+00,-4.106020033359527588e-01,4.406735002994537354e-01,-2.435783594846725464e-01,-1.148986965417861938e-01,-1.389570981264114380e-01,-8.733819127082824707e-01,1.981048285961151123e-01,-5.787765383720397949e-01,-4.658270478248596191e-01,-1.870020866394042969e+00,1.166466474533081055e-01,4.888994395732879639e-01,5.734685063362121582e-01,-1.030599713325500488e+00,-2.159544676542282104e-01,1.720353245735168457e+00,-1.784488677978515625e+00,1.014782711863517761e-01,-2.767858207225799561e-01,3.495762869715690613e-02,4.651962220668792725e-01,-2.746696472167968750e-01,-1.284304618835449219e+00,-5.440426468849182129e-01,4.697823524475097656e-01,-1.821466326713562012e+00,2.239244580268859863e-01,-7.008643448352813721e-02,6.758390367031097412e-02,-1.279301047325134277e+00,1.518572688102722168e+00,-2.434267103672027588e-02,-6.752801537513732910e-01,-2.000967025756835938e+00,-2.992766499519348145e-01,-1.437410712242126465e-01,8.235117197036743164e-01,-1.206167578697204590e+00,-2.175136655569076538e-01,1.003327369689941406e+00,-1.351297497749328613e-01,-1.043824195861816406e+00,-7.664672136306762695e-01,-8.889859318733215332e-01,1.503681391477584839e-01,8.646613955497741699e-01,1.058988094329833984e+00,-1.470558941364288330e-01,-3.136000931262969971e-01,-1.809817999601364136e-01,8.165068626403808594e-01,-1.661448240280151367e+00,1.592727184295654297e+00,-2.071802467107772827e-01,2.181737571954727173e-01,-5.743536949157714844e-01,-1.231447383761405945e-01
-6.218738481402397156e-02,5.357284545898437500e-01,-3.552595138549804688e+00,-1.740234613418579102e+00,8.643271923065185547e-01,-9.621118903160095215e-01,2.862294614315032959e-01,-6.180353760719299316e-01,2.694203257560729980e-01,2.461495399475097656e+00,4.553222954273223877e-01,7.246251106262207031e-01,1.194226264953613281e+00,1.733894050121307373e-01,-5.172712206840515137e-01,-5.302817821502685547e-01,-1.631310701370239258e+00,-1.672195941209793091e-01,-7.498431801795959473e-01,7.966122627258300781e-01,-3.421804904937744141e-01,1.581325381994247437e-01,1.652526408433914185e-01,1.741128158755600452e-03,-2.462017297744750977e+00,-8.766151070594787598e-01,-7.447595000267028809e-01,8.001649975776672363e-01,4.888951182365417480e-01,-1.755605936050415039e+00,-2.403997182846069336e+00,5.727842450141906738e-02,7.086058259010314941e-01,5.968548059463500977e-01,-1.144699931144714355e+00,-1.184760965406894684e-02,1.454457342624664307e-01,-1.013062119483947754e+00,7.687582373619079590e-01,-1.481940031051635742e+00,-6.933772563934326172e-01,-1.522648036479949951e-01,-1.905095458030700684e+00,-1.273744344711303711e+00,-2.867578506469726562e+00,-3.450187146663665771e-01,2.722060494124889374e-02,1.273632287979125977e+00,2.357852309942245483e-01,1.111958995461463928e-01,-1.507917046546936035e+00,-3.010579645633697510e-01,1.277311295270919800e-01,-3.362973034381866455e-01,-5.557607412338256836e-01,-1.104424297809600830e-01,-6.931366026401519775e-02,3.018462061882019043e-01,-3.947567045688629150e-01,3.676810562610626221e-01,1.072451472282409668e+00,-1.087409615516662598e+00,-5.364027619361877441e-01,-3.220120072364807129e-01,-1.178830385208129883e+00,6.614359468221664429e-02,-4.386346042156219482e-01,-6.093388050794601440e-02,-1.136263251304626465e+00,-8.406436443328857422e-01,4.626884758472442627e-01,-1.029194951057434082e+00,-1.147124052047729492e+00,2.937072753906250000e+00,5.836274027824401855e-01,-2.074946463108062744e-02,-1.318963646888732910e+00,-1.182113051414489746e+00,8.581741154193878174e-02,1.510560065507888794e-01,6.146524101495742798e-02,-4.579614102840423584e-01,-2.248425960540771484e+00,-8.337817192077636719e-01,-7.192984223365783691e-01,-8.012355118989944458e-02,-6.295938789844512939e-02,-1.568998396396636963e-01,-2.861494719982147217e-01,-7.370700836181640625e-01,1.403927803039550781e+00,-2.292389608919620514e-02,-7.085196375846862793e-01,7.478079199790954590e-01,-1.066959261894226074e+00,1.035998225212097168e+00,-3.065850019454956055e+00,-9.231467843055725098e-01,-7.740594148635864258e-01,-1.619121551513671875e+00,8.498736619949340820e-01,-7.852118015289306641e-01,-8.286951780319213867e-01,-7.418823838233947754e-01,1.692783087491989136e-01,-1.136293292045593262e+00,-7.747713327407836914e-01,7.320068031549453735e-02,-3.067224919795989990e-01,-2.333918213844299316e-02,1.195488348603248596e-01,-1.149392724037170410e+00,7.119950056076049805e-01,-4.476260393857955933e-02,9.431900829076766968e-02,-2.868184149265289307e-01,-1.667256355285644531e+00,-1.344187021255493164e+00,7.446658015251159668e-01,5.747397541999816895e-01,-1.360762678086757660e-02,-6.730216741561889648e-01,2.902681231498718262e-01,-8.077921271324157715e-01,-6.220121383666992188e-01,-2.080649137496948242e-01,-3.855546116828918457e-01,-6.517921090126037598e-01,-6.077330112457275391e-01,3.047024011611938477e-01,-3.291193842887878418e-01,-8.754632472991943359e-01,2.807155251502990723e-02,2.074016332626342773e-01,2.371646910905838013e-01,-1.158843040466308594e+00,2.601021826267242432e-01,-2.227172136306762695e+00,8.966696262359619141e-01,-1.062252670526504517e-01,2.081516385078430176e-01,3.428103327751159668e-01,5.375037193298339844e-01,-1.227828145027160645e+00,-1.086593508720397949e+00,-2.478956878185272217e-01,-4.519606232643127441e-01,-1.087970495223999023e+00,-8.408380150794982910e-01,-2.145375013351440430e+00,-6.346450448036193848e-01,-9.328899383544921875e-01,-1.040425062179565430e+00,-7.858596742153167725e-02,2.193824797868728638e-01,-2.077048420906066895e-01,-8.172039687633514404e-02,-8.226884603500366211e-01,5.559347271919250488e-01,1.188594460487365723e+00,-8.926665186882019043e-01,-1.024618148803710938e+00,1.393765211105346680e-01,-9.151102900505065918e-01,-8.816925883293151855e-01,-1.655900597572326660e+00,-5.272729992866516113e-01,-1.042993664741516113e+00,-2.312476933002471924e-01,-7.298781871795654297e-01,-9.471362456679344177e-03,2.413179725408554077e-01,-2.958612740039825439e-01,1.453997194766998291e-02,3.221442103385925293e-01,-4.243271350860595703e-01,-5.802277326583862305e-01,-2.959729731082916260e-01,1.535469293594360352e-01,1.804172694683074951e-01,-6.761844754219055176e-01,1.346841096878051758e+00,-1.787654638290405273e+00,-1.698734909296035767e-01,-9.961883425712585449e-01,-2.528782486915588379e-01,3.900448381900787354e-01,-3.313458263874053955e-01,-1.563839912414550781e+00,-1.654402613639831543e-01,-9.535453915596008301e-01,7.562049031257629395e-01,-9.163938760757446289e-01,-4.486738443374633789e-01,-2.698383033275604248e-01,-4.387838542461395264e-01,4.645206332206726074e-01,-2.437012493610382080e-01,-2.262586832046508789e+00,-5.543308258056640625e-01,-3.365681886672973633e+00,-9.947723746299743652e-01,3.016109950840473175e-02,-1.960720419883728027e+00,3.258644640445709229e-01,-9.599004685878753662e-02,-8.693492412567138672e-01,-9.085026979446411133e-01,1.017961859703063965e+00,-4.886469244956970215e-01,-8.728443980216979980e-01,-1.450481414794921875e-01,-8.265812993049621582e-01,-5.718223452568054199e-01,2.915265560150146484e-01,-6.218625307083129883e-01,-3.933466672897338867e-01,9.946953654289245605e-01,-3.844469413161277771e-02,-4.457360804080963135e-01,-3.612594008445739746e-01,-6.112131476402282715e-01,-4.781668186187744141e-01,5.500867962837219238e-01,-1.848572939634323120e-01,-1.742826461791992188e+00,1.132631659507751465e+00,-2.963935732841491699e-01,-3.895778954029083252e-01,-2.686437070369720459e-01,7.321524024009704590e-01,2.225116491317749023e-01,6.376844644546508789e-01,-8.256643414497375488e-01,2.453190088272094727e-01,-9.119075536727905273e-01,-2.658924579620361328e+00,-1.618481278419494629e-01,-3.494449257850646973e-01,-2.447577714920043945e-01,-9.448083639144897461e-01,1.463917016983032227e+00,3.890764415264129639e-01,-1.142851948738098145e+00,-2.211077958345413208e-01,-2.884241985157132149e-03,-9.882296323776245117e-01,2.186249047517776489e-01,6.913153082132339478e-02,-1.011678934097290039e+00,-3.434173762798309326e-01,-9.780411720275878906e-01,-2.703940570354461670e-01,-1.973833203315734863e+00,1.009700894355773926e-01,-2.086451292037963867e+00,-9.386993646621704102e-01,-1.955800890922546387e+00,2.969963252544403076e-01,-7.896465063095092773e-01,1.457616567611694336e+00,6.719188094139099121e-01,5.951768159866333008e-01,-9.051814675331115723e-01,1.667512774467468262e+00,-6.408412456512451172e-01,2.398148477077484131e-01,7.612028121948242188e-01,-4.220791757106781006e-01,1.088011190295219421e-01,-1.111280560493469238e+00,-7.486984878778457642e-02,2.734438478946685791e-01,-3.921572268009185791e-01,-4.673273563385009766e-01,-3.887573480606079102e-01,7.468779087066650391e-01,-8.242604732513427734e-01,4.076567590236663818e-01,3.904104828834533691e-01,-5.362053867429494858e-03,-7.490760087966918945e-01,-9.202752113342285156e-01,6.214876770973205566e-01,-2.340386807918548584e-02,-5.545051097869873047e-01,-3.953705728054046631e-02,-6.265977621078491211e-01,-1.340178132057189941e+00,-5.054715275764465332e-01,3.166134357452392578e-01,-6.735314726829528809e-01,2.473365515470504761e-01,-2.403125762939453125e-01,7.915121316909790039e-01,7.009261250495910645e-01,2.707961499691009521e-01,-3.111454546451568604e-01,-2.756953239440917969e-01,1.282947510480880737e-01,-9.730200171470642090e-01,-7.671597599983215332e-01,-8.250153660774230957e-01,1.221410870552062988e+00,1.894877076148986816e+00,-1.095170855522155762e+00,-2.372940778732299805e-01,1.669139266014099121e-01,-8.513546586036682129e-01,-7.194386124610900879e-01,-2.055413007736206055e+00,9.971393942832946777e-01,-1.582155466079711914e+00,4.319141432642936707e-02,7.024949789047241211e-01,-4.519264400005340576e-02,-2.094917446374893188e-01,-1.620039939880371094e+00,4.421264827251434326e-01,-1.914746165275573730e-01,-5.555754303932189941e-01,6.793997883796691895e-01,-1.985343694686889648e+00,-2.011431753635406494e-01,-3.320128619670867920e-01,-1.600900650024414062e+00,3.214476630091667175e-02,-8.370098471641540527e-02,-6.389530897140502930e-01,1.808255910873413086e-01,-1.899200528860092163e-01,-2.590669989585876465e-01,-1.323162019252777100e-01,-7.082368731498718262e-01,-1.321766674518585205e-01,5.904677137732505798e-02,-9.061389565467834473e-01,-1.338834404945373535e+00,-6.267019510269165039e-01,-6.565671563148498535e-01,-2.507826089859008789e-01,-2.430212497711181641e-01,5.576502084732055664e-01,2.312751710414886475e-01,-1.824178695678710938e+00,2.126456946134567261e-01,-8.405296802520751953e-01,-8.285691738128662109e-01,-1.071769222617149353e-01,-5.559633374214172363e-01,-2.141957998275756836e+00,9.356883168220520020e-01,1.517882347106933594e-01,-1.396051168441772461e+00,5.765327811241149902e-01,-3.141525685787200928e-01,-5.001028180122375488e-01,-4.916365742683410645e-01,-5.579327344894409180e-01,6.293988227844238281e-01,-7.871921062469482422e-01,-9.332248568534851074e-01,-2.531036436557769775e-01,-5.271563678979873657e-02,-1.630201786756515503e-01,-7.112895250320434570e-01,3.163646161556243896e-01,5.959327816963195801e-01,-5.399224758148193359e-01,1.151168704032897949e+00,-8.898668885231018066e-01,1.141213774681091309e-01,4.839370548725128174e-01,-1.200193047523498535e+00,-3.447907269001007080e-01,-1.078528761863708496e+00,-1.344583749771118164e+00,1.186749577522277832e+00,-7.169508934020996094e-01,-6.432704925537109375e-01,1.090583577752113342e-01,-2.098589539527893066e-01,-7.726895809173583984e-01,-1.110925078392028809e+00,4.425509572029113770e-01,1.603915691375732422e+00,8.097717911005020142e-02,7.379082441329956055e-01,1.927872449159622192e-01,4.792506694793701172e-01,-4.150634706020355225e-01,-3.635865747928619385e-01,-2.830491960048675537e-01,-4.630417823791503906e-01,-2.313641160726547241e-01,-2.448109388351440430e+00,-1.011628061532974243e-01,1.256322711706161499e-01,-1.730386018753051758e-01,-1.884192228317260742e+00,-1.384940147399902344e+00,6.524311304092407227e-01,-1.843261122703552246e+00,-8.529623150825500488e-01,-2.393010705709457397e-01,-2.011333256959915161e-01,-2.094296067953109741e-01,1.378670185804367065e-01,1.192627787590026855e+00,-5.086813569068908691e-01,-1.069187819957733154e-01,3.860605955123901367e-01,-1.255419492721557617e+00,-5.611866712570190430e-01,7.273485660552978516e-01,-4.603849351406097412e-01,-5.661934614181518555e-01,-1.159807682037353516e+00,-2.309337705373764038e-01,-9.676107764244079590e-01,1.562007069587707520e+00,-7.235279083251953125e-01,2.982203960418701172e+00,-7.531558871269226074e-01,-5.151503086090087891e-01,-9.373625516891479492e-01,-2.513716816902160645e-01,-9.981251955032348633e-01,-4.193764328956604004e-01,7.205129861831665039e-01,4.597881436347961426e-01,-4.847553968429565430e-01,-1.122737765312194824e+00,1.151932954788208008e+00,2.160602360963821411e-01,-7.481318712234497070e-01,5.679181814193725586e-01,-1.493429183959960938e+00,-3.989079594612121582e-01,-3.127740323543548584e-01,4.951662719249725342e-01,-5.610786676406860352e-01,6.068892478942871094e-01,9.197009205818176270e-01,3.279725462198257446e-02,-1.437465071678161621e+00,9.689435362815856934e-02,6.332381367683410645e-01,-7.182805538177490234e-01,-5.377090573310852051e-01,-9.274497628211975098e-01,3.886866271495819092e-01,-1.119091287255287170e-01,-3.035536706447601318e-01,4.995790719985961914e-01,-9.810044765472412109e-01,-3.129984736442565918e-01,3.851205110549926758e-01,-1.562491774559020996e+00,-1.169369220733642578e+00,-1.029272556304931641e+00,-1.462642941623926163e-02,-9.968668222427368164e-01,5.142399668693542480e-01,8.995729088783264160e-01,5.206518769264221191e-01,3.197939097881317139e-01,6.778298020362854004e-01,-1.134124472737312317e-01,5.658193826675415039e-01,-1.461169123649597168e+00,-4.895803928375244141e-01,2.930786013603210449e-01,-6.391816586256027222e-02,-4.371504187583923340e-01,2.398798801004886627e-02,7.878912091255187988e-01,-1.419773936271667480e+00,2.021791458129882812e+00,-4.915178716182708740e-01,1.905689239501953125e-01,-4.278257489204406738e-01,-2.445256561040878296e-01,-1.034013867378234863e+00,-6.236493587493896484e-01,-2.426373660564422607e-01,-1.395697832107543945e+00,4.762386530637741089e-02,6.309987902641296387e-01,-1.774552315473556519e-01,9.255924075841903687e-02,3.003780245780944824e-01,-2.207319587469100952e-01,-1.773516416549682617e+00,-5.147552490234375000e-01,-1.715140819549560547e+00,-8.799316287040710449e-01,-1.674527168273925781e+00,7.723016664385795593e-03,-1.230742335319519043e+00,-2.589649260044097900e-01,-5.023897290229797363e-01,1.168021440505981445e+00,1.381445050239562988e+00,-9.761875271797180176e-01,-1.481547594070434570e+00,-1.566257357597351074e+00,-1.243626475334167480e+00,-1.962877660989761353e-01,1.214631199836730957e-01,3.666478767991065979e-02,5.072442293167114258e-01
-8.298441171646118164e-01,-3.471766412258148193e-01,-1.973265051841735840e+00,3.119654720649123192e-03,-1.675807237625122070e-01,-2.970786690711975098e-01,4.944804906845092773e-01,1.536319971084594727e+00,-8.522398471832275391e-01,1.886369109153747559e+00,-1.545662581920623779e-01,8.950479626655578613e-01,-2.309785842895507812e+00,-2.858556509017944336e+00,-8.293212056159973145e-01,2.080949544906616211e-01,-7.371171712875366211e-01,-2.404941916465759277e-01,9.082832932472229004e-01,-5.357600450515747070e-01,4.185787141323089600e-01,-4.894993901252746582e-01,-7.947494983673095703e-01,-1.696652531623840332e+00,1.048206806182861328e+00,-2.711508274078369141e-01,-1.733772635459899902e+00,-3.566983044147491455e-01,-1.258486390113830566e+00,5.715844035148620605e-01,5.044590830802917480e-01,-1.257751584053039551e+00,-7.098693251609802246e-01,1.379909753799438477e+00,2.669991970062255859e+00,7.458217740058898926e-01,5.250860452651977539e-01,-1.019118666648864746e+00,5.744120478630065918e-01,5.355921387672424316e-01,4.970151782035827637e-01,-6.004682183265686035e-01,-4.955229759216308594e-01,-1.463689088821411133e+00,5.693449974060058594e-01,-6.734883785247802734e-01,2.009924948215484619e-01,2.209390401840209961e-01,-1.810091733932495117e-01,4.016016423702239990e-01,-1.503436207771301270e+00,-1.167798414826393127e-01,1.301271677017211914e+00,-1.497362136840820312e+00,4.625882804393768311e-01,-9.266340732574462891e-02,3.567669391632080078e-01,-1.125476043671369553e-02,-7.232896685600280762e-01,8.141128420829772949e-01,-1.781158745288848877e-01,3.899999260902404785e-01,7.418668270111083984e-01,-1.579815864562988281e+00,-1.615411490201950073e-01,-2.404898852109909058e-01,-1.193608492612838745e-01,-2.736406922340393066e-01,-4.755161404609680176e-01,-9.247007966041564941e-01,-2.469002246856689453e+00,-6.696045398712158203e-01,1.252947330474853516e+00,9.498729705810546875e-01,-5.950083136558532715e-01,-6.589402556419372559e-01,5.229996144771575928e-02,2.075241208076477051e-01,-1.511546969413757324e-02,-2.085969895124435425e-01,7.018253207206726074e-01,-6.522946953773498535e-01,-7.943157553672790527e-01,5.366172790527343750e-01,-2.272869795560836792e-01,-8.621444702148437500e-01,-7.156571149826049805e-01,-8.899546265602111816e-01,-8.247179985046386719e-01,1.327878683805465698e-01,-1.420447230339050293e+00,-2.453708797693252563e-01,-2.093452930450439453e+00,-2.172664552927017212e-02,-5.453811883926391602e-01,-5.265444517135620117e-01,-2.617657423019409180e+00,1.441810011863708496e+00,-1.590510725975036621e+00,5.865087509155273438e-01,-1.351763248443603516e+00,-2.239871770143508911e-01,-1.759310483932495117e+00,2.375586032867431641e-01,-5.643027424812316895e-01,4.920510947704315186e-01,-2.409524768590927124e-01,5.144456773996353149e-02,-1.093834757804870605e+00,2.553390264511108398e-01,-1.024875998497009277e+00,-1.609338521957397461e+00,-9.699749201536178589e-02,-2.121063947677612305e+00,-1.113915085792541504e+00,6.025617718696594238e-01,1.317560434341430664e+00,2.361416518688201904e-01,-3.364538252353668213e-01,-7.043518126010894775e-02,-9.710947275161743164e-01,6.004779934883117676e-01,-6.835588812828063965e-02,2.153108716011047363e-01,4.082598388195037842e-01,1.518453121185302734e+00,3.819408416748046875e-01,1.376073807477951050e-01,-6.246405243873596191e-01,8.351458907127380371e-01,-9.152645468711853027e-01,-6.628957390785217285e-01,-2.974906563758850098e-01,1.656329482793807983e-01,-1.119682431221008301e+00,-1.901112794876098633e+00,-8.792840838432312012e-01,-9.520730376243591309e-01,9.586966633796691895e-01,5.086954236030578613e-01,1.004165530204772949e+00,7.025048732757568359e-01,2.131323516368865967e-02,-7.060890793800354004e-01,-1.044785618782043457e+00,3.521508574485778809e-01,-3.349115550518035889e-01,-6.911576986312866211e-01,-1.375606507062911987e-01,1.999271750450134277e+00,-3.444180786609649658e-01,1.158163920044898987e-01,-1.469238877296447754e+00,-4.802935719490051270e-01,2.611834704875946045e-01,-1.272339463233947754e+00,2.364052534103393555e+00,1.290992140769958496e+00,-5.759729743003845215e-01,-1.475703477859497070e+00,-6.382741928100585938e-01,1.755908429622650146e-01,-2.011835342273116112e-03,1.059524416923522949e-01,1.241217702627182007e-01,-9.119708091020584106e-02,7.655798792839050293e-01,8.143049478530883789e-01,-2.321206480264663696e-01,-1.653783082962036133e+00,9.852379560470581055e-01,-7.128897309303283691e-01,-7.413246035575866699e-01,-2.050848007202148438e-01,-2.306140512228012085e-01,-2.174692600965499878e-01,1.947536468505859375e-01,-9.493108391761779785e-01,-4.072957932949066162e-01,-1.440716028213500977e+00,2.002258300781250000e-01,-1.455831170082092285e+00,-2.921276986598968506e-01,-3.284898400306701660e-01,-3.019739985466003418e-01,-5.035011172294616699e-01,-8.842088282108306885e-02,-8.184337019920349121e-01,-1.142752408981323242e+00,1.296719193458557129e+00,-1.823465585708618164e+00,3.924921751022338867e-01,-4.671323001384735107e-01,-5.950086116790771484e-01,-5.131759047508239746e-01,-4.655108153820037842e-01,-2.678153514862060547e-01,4.257893934845924377e-02,3.723109662532806396e-01,-2.286199294030666351e-02,-1.144751071929931641e+00,1.065122485160827637e+00,1.817747950553894043e+00,-1.204380154609680176e+00,-1.239527583122253418e+00,2.187662124633789062e-01,-3.550163745880126953e+00,-5.164495706558227539e-01,3.773790299892425537e-01,-9.581415057182312012e-01,4.739773869514465332e-01,-8.929888606071472168e-01,-2.994675040245056152e-01,-2.053861916065216064e-01,1.798800975084304810e-01,-5.674678087234497070e-01,-5.113782286643981934e-01,6.213107109069824219e-01,-1.329577445983886719e+00,2.592108845710754395e-01,-1.099353671073913574e+00,-2.897878885269165039e-01,-5.166132450103759766e-01,9.481604695320129395e-01,-7.965634465217590332e-01,8.934230208396911621e-01,3.552345037460327148e-01,2.346993610262870789e-02,8.878403156995773315e-02,-1.119962811470031738e+00,4.091885313391685486e-02,-8.087984323501586914e-01,-5.629836916923522949e-01,-5.649971365928649902e-01,-1.099197506904602051e+00,-5.691372156143188477e-01,1.968793153762817383e+00,3.926368802785873413e-02,-1.279129385948181152e-01,1.436187744140625000e+00,-2.767208814620971680e-01,2.795386314392089844e-02,3.691362738609313965e-01,-7.015959620475769043e-01,-6.851214170455932617e-01,-1.133018851280212402e+00,-1.025562405586242676e+00,4.592960476875305176e-01,2.526988983154296875e-01,1.321662515401840210e-01,-1.009748458862304688e+00,-8.483592867851257324e-01,-9.410483241081237793e-01,9.453762173652648926e-01,-7.666123658418655396e-02,6.893473267555236816e-01,-1.140773415565490723e+00,-2.752942562103271484e+00,-1.427547574043273926e+00,1.495151966810226440e-01,-4.270967245101928711e-01,-6.756931543350219727e-01,-1.447736740112304688e+00,-1.039070010185241699e+00,-1.425148963928222656e+00,-4.045218527317047119e-01,-3.305732309818267822e-01,-2.184387207031250000e+00,-1.377538919448852539e+00,-1.601158976554870605e-01,-3.898211196064949036e-02,-1.222980618476867676e+00,-5.197843313217163086e-01,-1.351452916860580444e-01,-1.502796560525894165e-01,1.226171612739562988e+00,2.700675725936889648e-01,-5.316735804080963135e-02,-5.822573229670524597e-02,-2.829157114028930664e-01,-5.455118417739868164e-01,-8.252403140068054199e-01,1.767853461205959320e-02,2.384248971939086914e+00,1.157716870307922363e+00,-1.459625482559204102e+00,-7.305964827537536621e-01,-8.789635300636291504e-01,-9.526948332786560059e-01,-9.347571134567260742e-01,-1.214609146118164062e+00,-1.457819819450378418e+00,1.343582987785339355e+00,2.645513415336608887e-01,8.571456372737884521e-02,-3.217471539974212646e-01,2.237522453069686890e-01,-7.571534514427185059e-01,2.760852687060832977e-02,-1.456522464752197266e+00,-7.519755512475967407e-02,-2.606019675731658936e-01,-9.854212999343872070e-01,-1.718759164214134216e-02,-2.404573857784271240e-01,-1.350643157958984375e+00,-5.872263312339782715e-01,-1.026521623134613037e-01,2.143086940050125122e-01,-7.734570503234863281e-01,-1.618138194084167480e+00,-2.501960694789886475e-01,3.194681704044342041e-01,-2.636320292949676514e-01,1.672013163566589355e+00,1.329177767038345337e-01,-1.950368434190750122e-01,5.696464180946350098e-01,7.477070093154907227e-01,7.732026576995849609e-01,8.568547964096069336e-01,-5.564202666282653809e-01,2.377106398344039917e-01,-7.316691279411315918e-01,-4.269491732120513916e-01,-9.756540060043334961e-01,-1.683696806430816650e-01,-7.107840180397033691e-01,-7.690738439559936523e-01,-1.165945768356323242e+00,8.328807353973388672e-01,-2.914147265255451202e-02,-9.397409111261367798e-02,-1.074971184134483337e-01,-8.068541288375854492e-01,2.195360183715820312e+00,-1.056253194808959961e+00,4.112922772765159607e-02,-1.670677781105041504e+00,4.860284924507141113e-01,4.662593007087707520e-01,5.319482088088989258e-01,-7.868459820747375488e-01,-1.505464792251586914e+00,-3.356409072875976562e-02,1.148202940821647644e-01,8.831573128700256348e-01,2.987145185470581055e-01,-2.864637672901153564e-01,-1.341833710670471191e+00,-2.042047977447509766e+00,-1.767926216125488281e+00,-1.026922106742858887e+00,-2.036320209503173828e+00,-5.497828125953674316e-01,-7.189286947250366211e-01,2.356571704149246216e-01,8.177245408296585083e-02,1.966457068920135498e-01,-4.373751580715179443e-01,5.564301013946533203e-01,4.898567125201225281e-02,-1.018835544586181641e+00,-8.715345263481140137e-01,-5.636977553367614746e-01,5.808766484260559082e-01,1.649590879678726196e-01,1.493598937988281250e+00,-2.768734455108642578e+00,9.034675955772399902e-01,-5.783666372299194336e-01,-2.456816611811518669e-03,-1.713081300258636475e-01,-4.773622751235961914e-01,-3.019638776779174805e+00,6.953921914100646973e-02,-2.844012975692749023e-01,1.170666098594665527e+00,-1.870976090431213379e+00,1.982482336461544037e-02,1.857651472091674805e-01,-2.100210905075073242e+00,-1.248615264892578125e+00,2.550145685672760010e-01,8.178178668022155762e-01,1.564202457666397095e-01,-4.005081653594970703e-01,7.680411338806152344e-01,-1.016455769538879395e+00,-4.451988339424133301e-01,-8.636497855186462402e-01,-2.587005615234375000e+00,1.167476549744606018e-02,-3.322486877441406250e-01,-7.207028269767761230e-01,-1.341751217842102051e+00,-2.197297811508178711e-01,9.329975247383117676e-01,-5.010200142860412598e-01,9.384742379188537598e-01,3.659260571002960205e-01,3.406715691089630127e-01,1.361791044473648071e-01,-1.043609619140625000e+00,-7.374279946088790894e-02,1.693480730056762695e+00,-5.759049654006958008e-01,-9.735735058784484863e-01,7.802482247352600098e-01,1.979332685470581055e+00,-1.307853817939758301e+00,-6.292841434478759766e-01,7.951369881629943848e-01,-2.531706809997558594e+00,-4.041880965232849121e-01,1.531614542007446289e+00,-2.173120975494384766e+00,1.147391557693481445e+00,-7.471163272857666016e-01,-1.064471960067749023e+00,-9.619686603546142578e-01,-4.446751475334167480e-01,4.968378245830535889e-01,1.986128687858581543e-01,1.193128228187561035e+00,-9.139378070831298828e-01,-6.784479022026062012e-01,1.139282882213592529e-01,1.960346996784210205e-01,-2.321619391441345215e-01,-6.320745348930358887e-01,1.562200933694839478e-01,1.127655982971191406e+00,4.653956294059753418e-01,-1.106306537985801697e-01,-1.570066511631011963e-01,-1.078491449356079102e+00,-1.685866117477416992e+00,7.130300998687744141e-02,-7.877295017242431641e-01,-1.492584466934204102e+00,1.273163914680480957e+00,-1.879282146692276001e-01,1.066377401351928711e+00,-7.268572598695755005e-02,-9.209411591291427612e-02,-3.619951009750366211e-01,2.892664372920989990e-01,-4.147951304912567139e-01,1.236600279808044434e+00,9.728392362594604492e-01,-1.251594185829162598e+00,-2.339035831391811371e-02,2.662168117240071297e-03,-1.994916081428527832e+00,-1.931772828102111816e+00,-5.625184178352355957e-01,5.692506432533264160e-01,7.044156789779663086e-01,-5.027897357940673828e-01,-8.730393052101135254e-01,2.043421030044555664e+00,-6.665327399969100952e-02,4.855684340000152588e-01,1.493107676506042480e+00,3.302534520626068115e-01,-6.853653788566589355e-01,4.221601784229278564e-01,-1.574981570243835449e+00,-5.984674096107482910e-01,-4.121419489383697510e-01,2.496133446693420410e-01,-1.322555065155029297e+00,3.558450341224670410e-01,-1.420912861824035645e+00,1.008283376693725586e+00,-1.212136745452880859e+00,1.566596478223800659e-01,-8.879957795143127441e-01,3.354287445545196533e-01,-9.476590156555175781e-01,-1.050335168838500977e+00,-7.858653068542480469e-01,9.506183266639709473e-01,2.013547271490097046e-01,-4.726614952087402344e-01,-2.143890261650085449e-01,-6.366363912820816040e-02,-1.606285214424133301e+00,-1.001501977443695068e-01,2.383917093276977539e+00,-1.182175040245056152e+00,9.824171066284179688e-01,-1.410481691360473633e+00,-8.805831074714660645e-01,5.268310904502868652e-01,-2.247813940048217773e-01,-8.188229799270629883e-01,-1.170131564140319824e+00,-2.221235990524291992e+00,3.771659135818481445e-01,-2.880868017673492432e-01,-3.284666240215301514e-01,-3.469240069389343262e-01,-7.356845736503601074e-01,-5.910932421684265137e-01,7.040565013885498047e-01,1.099986672401428223e+00,-8.694581985473632812e-01,-4.561268389225006104e-01,6.448573470115661621e-01,3.302052915096282959e-01
3.916991949081420898e-01,-1.551289677619934082e+00,-3.197905719280242920e-01,-5.610474944114685059e-01,-3.859438598155975342e-01,-1.626420497894287109e+00,5.925470590591430664e-01,-7.867603003978729248e-02,1.729974895715713501e-01,-1.109776139259338379e+00,-8.335915803909301758e-01,-2.749662697315216064e-01,1.195131778717041016e+00,-1.256702899932861328e+00,-1.700090914964675903e-01,-7.036118507385253906e-01,3.559662997722625732e-01,-7.400516867637634277e-01,1.152622938156127930e+00,-3.226154148578643799e-01,-1.344347834587097168e+00,4.455069303512573242e-01,-4.422784745693206787e-01,4.619514346122741699e-01,-1.793116569519042969e+00,-1.894282460212707520e+00,-7.157462239265441895e-01,-1.089477181434631348e+00,-9.846764206886291504e-01,-7.406391501426696777e-01,-2.436823397874832153e-02,-5.535717010498046875e-01,-1.942566633224487305e+00,5.160769447684288025e-02,-1.188657164573669434e+00,-1.132092356681823730e+00,5.748189687728881836e-01,-9.578855037689208984e-01,-8.151324391365051270e-01,-9.053667187690734863e-01,-2.120039612054824829e-01,-3.922238945960998535e-01,1.277319669723510742e+00,-2.101032495498657227e+00,1.211135983467102051e+00,2.062720209360122681e-01,-8.605088591575622559e-01,2.132777422666549683e-01,-1.302611947059631348e+00,4.273451566696166992e-01,-1.329692482948303223e+00,-3.019449710845947266e-01,-5.972369313240051270e-01,-9.219423532485961914e-01,-5.897202491760253906e-01,5.725999176502227783e-02,-8.642464876174926758e-01,-1.302938610315322876e-01,3.319370448589324951e-01,1.683805823326110840e+00,-1.441017150878906250e+00,5.085769891738891602e-01,2.641260325908660889e-01,-1.257715582847595215e+00,-1.325578927993774414e+00,-1.595885515213012695e+00,-2.318577915430068970e-01,-7.159180641174316406e-01,-2.213689833879470825e-01,-3.493155539035797119e-01,-1.922451734542846680e+00,-1.161555647850036621e+00,-2.268848657608032227e+00,2.601043879985809326e-01,-6.801120638847351074e-01,6.718958020210266113e-01,1.835028529167175293e+00,-3.801058530807495117e-01,-2.078919887542724609e+00,8.820225596427917480e-01,-2.902530133724212646e-01,-2.277431011199951172e+00,-7.453969866037368774e-02,-4.117627143859863281e-01,-4.676983878016471863e-02,-4.889835715293884277e-01,-8.354848623275756836e-02,-9.907186627388000488e-01,-2.010746002197265625e-01,-5.662159323692321777e-01,-1.718292713165283203e+00,-4.142906665802001953e-01,-5.281486511230468750e-01,-3.052368640899658203e+00,8.352768421173095703e-01,1.875184059143066406e+00,-3.249427974224090576e-01,1.224845886230468750e+00,-5.942716598510742188e-01,-1.677679896354675293e+00,4.702593684196472168e-01,3.945470601320266724e-02,-1.151306629180908203e+00,2.443721145391464233e-01,-9.505434632301330566e-01,-6.687508225440979004e-01,-1.111724019050598145e+00,-8.068805336952209473e-01,4.946386814117431641e-01,4.234803915023803711e-01,9.500296711921691895e-01,1.072349309921264648e+00,-7.197124511003494263e-02,-5.776566267013549805e-01,-2.646442651748657227e-01,-9.323404729366302490e-02,-9.056888818740844727e-01,4.240542650222778320e-01,-1.755557537078857422e+00,1.624528646469116211e+00,-3.886042833328247070e-01,-2.327436208724975586e+00,-4.043776094913482666e-01,-3.147192895412445068e-01,-1.688705325126647949e+00,-1.157120585441589355e+00,-3.252138197422027588e-01,-2.412659376859664917e-01,-3.239783644676208496e-02,7.768210172653198242e-01,2.699554860591888428e-01,-9.159920811653137207e-01,-6.991024017333984375e-01,-6.454417109489440918e-01,-4.198445975780487061e-01,-1.490388512611389160e+00,-8.413251489400863647e-02,1.293712109327316284e-01,2.155209332704544067e-01,-2.412312328815460205e-01,-1.571237564086914062e+00,-5.752146244049072266e-01,-4.599778354167938232e-01,-2.289531528949737549e-01,6.898350715637207031e-01,-5.984023809432983398e-01,2.753173410892486572e-01,-8.462613821029663086e-01,8.592903614044189453e-01,-6.055858135223388672e-01,1.656013876199722290e-01,1.508933454751968384e-01,2.577263116836547852e-01,3.290856182575225830e-01,-9.132977724075317383e-01,4.412840604782104492e-01,-1.828798294067382812e+00,1.715285539627075195e+00,-7.056496143341064453e-01,-5.669728517532348633e-01,-1.849744915962219238e+00,4.354030191898345947e-01,-3.374182060360908508e-02,-1.088187694549560547e+00,1.344589591026306152e-01,-5.695420131087303162e-02,1.644963622093200684e-01,6.890929341316223145e-01,-3.493287861347198486e-01,1.006110385060310364e-01,-1.218425154685974121e+00,-4.185345470905303955e-01,2.441406250000000000e-01,-3.761358857154846191e-01,6.698331562802195549e-04,6.892418861389160156e-01,-5.462022423744201660e-01,-6.115155220031738281e-01,-1.565554857254028320e+00,1.912877798080444336e+00,-3.350444138050079346e-01,-1.345726609230041504e+00,4.639094471931457520e-01,-1.748823761940002441e+00,-5.206647515296936035e-01,-1.224438622593879700e-01,-1.329587578773498535e+00,9.346340298652648926e-01,-1.137049421668052673e-01,-1.840188145637512207e+00,-1.088902473449707031e+00,9.231072664260864258e-01,-4.879679679870605469e-01,4.221089482307434082e-01,3.505875468254089355e-01,-2.205450087785720825e-01,1.125706173479557037e-02,-1.367693692445755005e-01,-6.058650016784667969e-01,-9.518861770629882812e-01,-1.046043038368225098e+00,5.992212891578674316e-02,-1.077861636877059937e-01,3.902921676635742188e-01,2.857382968068122864e-02,-3.704410195350646973e-01,-7.038818001747131348e-01,-8.320418596267700195e-01,-5.130079984664916992e-01,-1.263507008552551270e+00,-9.758803248405456543e-02,-9.985792040824890137e-01,2.077146917581558228e-01,5.436803102493286133e-01,7.086889147758483887e-01,-1.322031736373901367e+00,-4.601378440856933594e-01,-7.803305983543395996e-01,-1.723337054252624512e+00,-9.777371883392333984e-01,-1.137820601463317871e+00,2.401955574750900269e-01,-3.181429207324981689e-01,-4.307327270507812500e-01,-4.067207872867584229e-01,-4.059530794620513916e-01,-1.176514029502868652e+00,-3.653930723667144775e-01,-5.299955606460571289e-01,-3.688671290874481201e-01,-6.230685114860534668e-01,-7.920734882354736328e-01,1.342953145503997803e-01,-2.818891406059265137e-01,-5.369752272963523865e-02,-2.048337221145629883e+00,4.219667315483093262e-01,4.990105628967285156e-01,-1.953033730387687683e-02,-1.517787218093872070e+00,-1.717270135879516602e+00,-1.022030949592590332e+00,-7.081007957458496094e-02,-3.985171020030975342e-01,-4.164740145206451416e-01,-1.148003041744232178e-01,-6.619144678115844727e-01,-1.423520207405090332e+00,-1.158712267875671387e+00,2.457755384966731071e-03,6.689440608024597168e-01,4.995552077889442444e-02,1.035040989518165588e-01,-1.318046212196350098e+00,-3.313231170177459717e-01,8.613167703151702881e-02,-8.267649412155151367e-01,-1.239021658897399902e+00,-4.834379255771636963e-01,-4.902491867542266846e-01,-1.696864843368530273e+00,-8.645836114883422852e-01,-1.415357273072004318e-02,2.632763683795928955e-01,-1.689471364021301270e+00,-5.719309449195861816e-01,-3.246067166328430176e-01,7.117679715156555176e-01,2.709812484681606293e-02,-6.030908226966857910e-01,-2.475897789001464844e+00,-2.337858378887176514e-01,-1.568274259567260742e+00,-6.108006238937377930e-01,-1.002897500991821289e+00,-1.614587903022766113e+00,-4.179381132125854492e-01,-3.128247976303100586e+00,-2.283700227737426758e+00,4.062591493129730225e-02,2.071699202060699463e-01,1.302703738212585449e+00,2.671788930892944336e-01,-1.818228125572204590e+00,-8.797572851181030273e-01,-3.317484557628631592e-01,-1.723925173282623291e-01,-1.998769164085388184e+00,1.350010871887207031e+00,1.115053415298461914e+00,-2.891359627246856689e-01,1.254468113183975220e-01,-7.060717344284057617e-01,1.003495752811431885e-01,5.141253471374511719e-01,-2.448536157608032227e-01,-9.435297250747680664e-01,-4.793135225772857666e-01,-9.236829876899719238e-01,3.029103279113769531e-01,-6.180250644683837891e-01,-8.205653429031372070e-01,-1.120005846023559570e+00,-1.685280442237854004e+00,-4.655021131038665771e-01,1.217946410179138184e+00,-3.329948782920837402e-01,-2.252844333648681641e+00,1.022700443863868713e-01,1.021885156631469727e+00,-1.706476449966430664e+00,-6.025081276893615723e-01,-4.641685187816619873e-01,-1.027698755264282227e+00,1.822628378868103027e-01,-1.230377078056335449e+00,-1.774191856384277344e-01,-5.395949482917785645e-01,-7.484388947486877441e-01,-9.476087689399719238e-01,-1.951344728469848633e+00,9.945241808891296387e-01,-1.508436203002929688e+00,-7.122063040733337402e-01,-7.821590639650821686e-03,-2.155434370040893555e+00,1.701632887125015259e-01,-9.688629508018493652e-01,5.258953198790550232e-02,8.140909671783447266e-01,1.723907709121704102e+00,4.034867882728576660e-01,-4.863415956497192383e-01,-2.799345254898071289e-01,-8.238663077354431152e-01,-6.777294445782899857e-03,-6.225683912634849548e-02,2.910809218883514404e-01,-2.830123901367187500e+00,-3.320356905460357666e-01,-3.240672647953033447e-01,1.236296910792589188e-02,-2.255134582519531250e-01,7.760833501815795898e-01,7.268878817558288574e-01,-1.173593640327453613e+00,8.006395697593688965e-01,-1.368166089057922363e+00,-6.773835420608520508e-01,-2.196598052978515625e-01,2.575614750385284424e-01,-3.711250424385070801e-02,-7.489003539085388184e-01,-1.388470649719238281e+00,-1.241765737533569336e+00,-7.083483338356018066e-01,-4.071223437786102295e-01,-2.147423475980758667e-01,-2.834188565611839294e-02,3.593466579914093018e-01,7.971932888031005859e-01,2.593975961208343506e-01,-1.938345313072204590e+00,-4.384411573410034180e-01,-2.794999480247497559e-01,1.455870717763900757e-01,-1.600498199462890625e+00,8.933679461479187012e-01,7.467991113662719727e-01,-1.790023207664489746e+00,-3.232000470161437988e-01,1.914716958999633789e-01,-3.265580236911773682e-01,-2.238301277160644531e+00,-1.634560525417327881e-01,-5.113708376884460449e-01,-2.707606926560401917e-02,-8.683931082487106323e-02,-1.497201323509216309e+00,-2.695404887199401855e-01,-1.894183516502380371e+00,-5.289273262023925781e-01,-2.902231514453887939e-01,-3.618937134742736816e-01,-1.173617005348205566e+00,-9.979614615440368652e-01,-1.070679426193237305e+00,-1.109532237052917480e+00,3.499101102352142334e-01,4.274877607822418213e-01,-1.343467980623245239e-01,5.269843339920043945e-01,-7.136429548263549805e-01,-4.151820540428161621e-01,-3.904089629650115967e-01,-2.829961776733398438e+00,-1.367227792739868164e+00,1.352797627449035645e+00,-2.460811287164688110e-01,-1.919024944305419922e+00,1.001879125833511353e-01,2.604721672832965851e-02,-7.743327617645263672e-01,-7.090796232223510742e-01,-1.083560362458229065e-01,-2.480701208114624023e+00,-7.263479232788085938e-01,-9.623377919197082520e-01,-6.397350430488586426e-01,-1.902869194746017456e-01,-1.686269521713256836e+00,-9.871888160705566406e-02,-7.207830548286437988e-01,9.298761188983917236e-02,-2.482203245162963867e+00,-1.718225181102752686e-01,6.108339428901672363e-01,-1.623245716094970703e+00,5.938994884490966797e-01,7.121909260749816895e-01,5.572585463523864746e-01,-4.650806784629821777e-01,-1.419748067855834961e-01,-7.367820143699645996e-01,1.178492680191993713e-01,-3.363788127899169922e-01,-3.165310919284820557e-01,-7.040438055992126465e-02,-1.233516693115234375e+00,-2.309570461511611938e-01,-3.308678865432739258e-01,1.575921922922134399e-01,-2.260123729705810547e+00,-2.313188314437866211e+00,-8.309665918350219727e-01,-1.139099359512329102e+00,-1.905546784400939941e-01,1.535345613956451416e-01,3.040627539157867432e-01,-2.688673138618469238e-01,6.930918693542480469e-01,8.321692347526550293e-01,1.621810644865036011e-01,-9.193283319473266602e-01,2.034540623426437378e-01,-3.838299810886383057e-01,-5.022096037864685059e-01,1.079463660717010498e-01,8.261783719062805176e-01,-7.796793580055236816e-01,-3.502610921859741211e-01,1.833056569099426270e+00,-3.357228934764862061e-01,-8.769059777259826660e-01,-2.261440455913543701e-01,1.274958729743957520e+00,-2.243583500385284424e-01,-2.967589497566223145e-01,1.116757869720458984e+00,-1.157678365707397461e+00,-8.662261366844177246e-01,-2.427540540695190430e+00,-4.050268828868865967e-01,-8.247597217559814453e-01,-1.037721872329711914e+00,-2.168553113937377930e+00,-9.604284167289733887e-01,2.183459103107452393e-01,-3.070419728755950928e-01,-1.874750554561614990e-01,-4.450679123401641846e-01,-1.027380824089050293e+00,-1.652693510055541992e+00,-4.181395173072814941e-01,-2.679616808891296387e-01,3.098916709423065186e-01,1.926249861717224121e-01,3.167336583137512207e-01,-2.398849964141845703e+00,-8.829674720764160156e-01,1.012136936187744141e+00,-9.234485030174255371e-01,-4.044375121593475342e-01,-1.067926883697509766e+00,-7.867482304573059082e-01,-9.219092726707458496e-01,-1.222530961036682129e+00,-6.586397290229797363e-01,-1.004278007894754410e-02,-6.796479225158691406e-01,-6.568597555160522461e-01,6.617859601974487305e-01,1.802003085613250732e-01,7.657804489135742188e-01,1.985637307167053223e+00,5.425717681646347046e-03,2.682618200778961182e-01,-1.265407502651214600e-01,-3.081494867801666260e-01,3.688451945781707764e-01,-1.240417361259460449e+00,6.422998905181884766e-01,1.307657361030578613e-01,-1.043360710144042969e+00,-3.443886041641235352e-01,-9.161497950553894043e-01,-5.283260941505432129e-01,5.996988415718078613e-01,-3.244546353816986084e-01,-4.558128118515014648e-01,2.987478971481323242e-01,9.844498634338378906e-01
3.359793722629547119e-01,8.810777217149734497e-02,-9.846437573432922363e-01,-1.190959438681602478e-01,-4.773920774459838867e-01,-2.973939776420593262e-01,3.540432155132293701e-01,-1.021935343742370605e+00,-1.573815703392028809e+00,4.290331900119781494e-01,-7.995808720588684082e-01,-9.708998203277587891e-01,-1.493940591812133789e+00,2.221474170684814453e+00,-1.417220354080200195e+00,-5.607107281684875488e-01,-8.026287555694580078e-01,9.729207158088684082e-01,-4.000017046928405762e-01,-5.786748528480529785e-01,-8.181542158126831055e-01,-9.142590761184692383e-01,-9.301160573959350586e-01,7.065076828002929688e-01,9.199855327606201172e-01,-1.187513709068298340e+00,-7.912698388099670410e-01,1.100820899009704590e+00,-1.626763939857482910e+00,-9.130480885505676270e-02,-2.270666360855102539e+00,5.343863964080810547e-01,1.805912613868713379e+00,-2.197355747222900391e+00,-3.976258933544158936e-01,5.457555055618286133e-01,-6.178497672080993652e-01,5.262277126312255859e-01,-2.368628740310668945e+00,1.068403840065002441e+00,-6.562165915966033936e-02,7.285253405570983887e-01,3.605423569679260254e-01,2.135653018951416016e+00,-6.707435846328735352e-01,-6.614989042282104492e-01,-1.150734901428222656e+00,-1.788428783416748047e+00,4.644181430339813232e-01,-1.109143972396850586e+00,-8.453677296638488770e-01,7.135126739740371704e-02,-4.620037376880645752e-01,-3.512134850025177002e-01,-5.391784906387329102e-01,-1.059236884117126465e+00,-1.010092616081237793e+00,-4.067086875438690186e-01,-5.577128380537033081e-02,-7.913806438446044922e-01,7.759528607130050659e-02,1.691758751869201660e+00,-1.398985743522644043e+00,-3.552181422710418701e-01,-9.195641875267028809e-01,-5.349741578102111816e-01,-2.054892629384994507e-01,-2.809954583644866943e-01,3.870205283164978027e-01,-3.100550770759582520e-01,-4.285195171833038330e-01,3.065015375614166260e-01,-2.391007393598556519e-01,-1.307511210441589355e+00,-5.692456960678100586e-01,-5.406873226165771484e-01,2.297052145004272461e+00,-7.915301918983459473e-01,-2.244228869676589966e-01,3.766566514968872070e-01,-8.029925823211669922e-02,8.128586411476135254e-01,-8.891443610191345215e-01,1.449084002524614334e-02,-1.358897686004638672e+00,1.447548121213912964e-01,-7.454621791839599609e-01,-9.603255987167358398e-01,-8.777966499328613281e-01,4.069316685199737549e-01,-8.693545460700988770e-01,1.633055275306105614e-03,-1.013479661196470261e-02,-6.742860078811645508e-01,7.793650627136230469e-01,-1.526528477668762207e+00,-2.433713674545288086e+00,-1.654200553894042969e+00,-3.330140113830566406e-01,-1.427987575531005859e+00,2.222657352685928345e-01,-2.101664543151855469e+00,-1.484734535217285156e+00,-3.923379778861999512e-01,-1.155605435371398926e+00,-1.549898386001586914e+00,-3.876338601112365723e-01,-3.824979662895202637e-01,-9.888043403625488281e-01,2.893915474414825439e-01,6.116062998771667480e-01,2.105577141046524048e-01,-6.463427543640136719e-01,3.984350338578224182e-02,-1.011461973190307617e+00,6.846818923950195312e-01,-7.310276627540588379e-01,-1.225022196769714355e+00,-7.915651202201843262e-01,-1.138717412948608398e+00,4.316147267818450928e-01,-1.614628434181213379e+00,-4.775944948196411133e-01,-7.280091643333435059e-01,8.079253137111663818e-02,-3.662398457527160645e-01,1.275372207164764404e-01,-1.411303430795669556e-01,-4.856529831886291504e-01,-7.660819292068481445e-01,-6.198518276214599609e-01,-1.715749502182006836e+00,7.312422990798950195e-02,-2.307075560092926025e-01,-3.773872852325439453e-01,-3.327092885971069336e+00,-1.529581189155578613e+00,3.614440858364105225e-01,-9.402694702148437500e-01,-1.002847194671630859e+00,1.134231448173522949e+00,-4.075176715850830078e-01,-9.263749718666076660e-01,-4.600746929645538330e-01,-1.755737781524658203e+00,-3.184113979339599609e+00,6.824656128883361816e-01,1.692726612091064453e-01,-6.181801557540893555e-01,8.996071219444274902e-01,-4.152798354625701904e-01,5.827801227569580078e-01,1.145000100135803223e+00,-1.416441321372985840e+00,2.980106174945831299e-01,-5.105717182159423828e-01,-7.409144639968872070e-01,-1.130693078041076660e+00,-1.290961727499961853e-02,-1.505315184593200684e+00,-2.682828605175018311e-01,1.236375927925109863e+00,-9.570434689521789551e-01,-1.590273976325988770e-01,-2.256640233099460602e-02,-5.242165327072143555e-01,-7.620545625686645508e-01,4.748819768428802490e-01,-6.167808771133422852e-01,-7.645037025213241577e-02,-1.195757865905761719e+00,-2.543224394321441650e-01,-1.412025570869445801e+00,-4.308223426342010498e-01,-3.202732205390930176e-01,-3.122327625751495361e-01,-7.122095227241516113e-01,4.969849586486816406e-01,-1.358630537986755371e+00,-8.257414102554321289e-01,-2.493039667606353760e-01,1.443400502204895020e+00,2.407464236021041870e-01,-1.774707913398742676e+00,-1.769174218177795410e+00,7.688595652580261230e-01,-8.861114382743835449e-01,-1.026809573173522949e+00,-2.176315069198608398e+00,-1.620946824550628662e-01,-1.046896696090698242e+00,-1.205371022224426270e+00,4.282270073890686035e-01,-8.709757924079895020e-01,-1.969724893569946289e+00,-8.276291936635971069e-02,2.808092236518859863e-01,1.331927180290222168e+00,-2.339779853820800781e+00,5.705957412719726562e-01,-2.060361385345458984e+00,1.594330668449401855e-01,-2.749873399734497070e+00,-1.918186783790588379e+00,-5.726180076599121094e-01,-1.692225217819213867e+00,-2.572635412216186523e+00,4.975838363170623779e-01,6.641330122947692871e-01,-1.813396215438842773e+00,-5.132790803909301758e-01,4.248276352882385254e-01,-1.415025949478149414e+00,1.108509421348571777e+00,-3.475384116172790527e-01,8.587765097618103027e-01,1.455758064985275269e-01,-2.424703359603881836e+00,-3.325933516025543213e-01,-5.638619661331176758e-01,-1.234275341033935547e+00,1.598050296306610107e-01,2.418278753757476807e-01,8.490630984306335449e-01,-8.356177061796188354e-02,-2.791706621646881104e-01,-1.819198966026306152e+00,2.203601002693176270e-01,-5.719180703163146973e-01,3.086152672767639160e-01,6.334528923034667969e-01,2.393594086170196533e-01,4.203842580318450928e-01,1.746847182512283325e-01,-2.952959761023521423e-02,-1.920843958854675293e+00,-1.869693875312805176e+00,-8.291839361190795898e-01,-5.994790792465209961e-01,5.516088008880615234e-01,-1.397397875785827637e+00,-1.249230980873107910e+00,1.119116306304931641e+00,-8.821822404861450195e-01,1.136330291628837585e-01,-5.027333498001098633e-01,4.443549215793609619e-01,-1.895065426826477051e+00,-1.124046206474304199e+00,-7.048147320747375488e-01,-1.318540215492248535e+00,-2.535465478897094727e+00,-1.451670169830322266e+00,-4.589252173900604248e-01,-6.122165545821189880e-02,-4.037488698959350586e-01,-1.238664507865905762e+00,-1.234390139579772949e+00,-3.358073234558105469e-01,-1.241096973419189453e+00,-2.477522194385528564e-01,3.434373140335083008e-01,4.035329222679138184e-01,-8.267227411270141602e-01,-5.558138489723205566e-01,-1.142308950424194336e+00,3.489700257778167725e-01,-3.149532318115234375e+00,-5.978253483772277832e-01,6.128556132316589355e-01,-4.525077044963836670e-01,-7.023313641548156738e-01,6.734048724174499512e-01,6.280265450477600098e-01,-6.197034120559692383e-01,-1.235981225967407227e+00,-9.151771664619445801e-01,-6.409789919853210449e-01,1.415165424346923828e+00,-3.430841565132141113e-01,-3.216597810387611389e-02,7.330225110054016113e-01,-1.857085943222045898e+00,6.799027919769287109e-01,-4.356949031352996826e-01,2.712320983409881592e-01,-2.992635071277618408e-01,2.667548954486846924e-01,-1.747429370880126953e+00,-2.014848589897155762e-01,6.632121205329895020e-01,-6.914058923721313477e-01,-2.559147357940673828e+00,-8.361957073211669922e-01,-1.725691676139831543e+00,5.979424715042114258e-01,1.608810722827911377e-01,4.292691946029663086e-01,5.698477625846862793e-01,-5.379939675331115723e-01,-4.535545408725738525e-01,-4.014840722084045410e-01,-2.100120782852172852e-01,1.044221758842468262e+00,2.834053933620452881e-01,1.013295575976371765e-01,2.718003392219543457e-01,-1.934794068336486816e+00,1.011728271842002869e-01,-1.059645533561706543e+00,8.514978736639022827e-02,1.410002231597900391e+00,-8.219047188758850098e-01,-7.942249178886413574e-01,1.036375612020492554e-01,-7.155976295471191406e-01,-8.865218162536621094e-01,-1.565383911132812500e+00,-1.183029055595397949e+00,-3.584254682064056396e-01,-8.939821124076843262e-01,4.657980203628540039e-01,-1.667415738105773926e+00,-3.421856164932250977e-01,-2.715289890766143799e-01,-9.946919679641723633e-01,3.427415192127227783e-01,-2.478644549846649170e-01,1.316061735153198242e+00,3.375402465462684631e-02,-1.379981637001037598e+00,-4.525859951972961426e-01,-4.620469212532043457e-01,-6.410112380981445312e-01,-2.635297775268554688e+00,4.523767530918121338e-02,-1.445432305335998535e+00,-1.621149182319641113e+00,9.789612293243408203e-01,1.210390329360961914e-01,-1.120463252067565918e+00,-1.108669996261596680e+00,1.597412824630737305e-01,1.900009810924530029e-01,-1.661027669906616211e+00,-9.732162356376647949e-01,-2.409230470657348633e+00,5.773839950561523438e-01,-1.100063800811767578e+00,-2.252178668975830078e+00,-2.263040781021118164e+00,-2.607006132602691650e-01,-1.350947499275207520e+00,-1.509239792823791504e+00,-3.746517300605773926e-01,-1.892174333333969116e-01,-6.755399107933044434e-01,-3.408732712268829346e-01,-8.920674324035644531e-01,-1.262068748474121094e-01,1.071958020329475403e-01,-1.082434132695198059e-01,4.875565469264984131e-01,6.219423413276672363e-01,-1.109268784523010254e+00,1.576397657394409180e+00,5.730467289686203003e-02,-3.367202281951904297e-01,-1.803884148597717285e+00,-1.297414898872375488e+00,-7.242996990680694580e-02,-2.491236776113510132e-01,-5.331423878669738770e-01,-1.383499383926391602e+00,7.783047854900360107e-02,-1.070044994354248047e+00,-4.459434747695922852e-02,2.824328541755676270e-01,-9.970040619373321533e-02,1.523270487785339355e+00,-1.201976180076599121e+00,9.397058933973312378e-02,3.729723393917083740e-01,-1.095829367637634277e+00,-9.884864687919616699e-01,3.146659433841705322e-01,-4.331249892711639404e-01,-2.617925405502319336e+00,-5.020503401756286621e-01,-8.256606459617614746e-01,1.818870939314365387e-02,-6.927116513252258301e-01,-4.733201265335083008e-01,-4.906436502933502197e-01,-4.113255739212036133e-01,-1.556656837463378906e+00,-1.007333636283874512e+00,-8.871261477470397949e-01,-1.839727759361267090e-01,-1.529142379760742188e+00,-1.660795211791992188e+00,-9.197967052459716797e-01,2.446086555719375610e-01,-9.702565670013427734e-01,-3.018718063831329346e-01,3.927650451660156250e-01,5.374879240989685059e-01,-9.351964592933654785e-01,-3.404191732406616211e-01,8.269568085670471191e-01,1.261259801685810089e-02,-1.007597088813781738e+00,-8.418719768524169922e-01,-9.655591845512390137e-01,-2.002229928970336914e+00,1.096244215965270996e+00,9.750818610191345215e-01,1.861110776662826538e-01,5.070935487747192383e-01,-3.878937363624572754e-01,6.221844553947448730e-01,4.892364144325256348e-01,-4.422980546951293945e-01,-1.313537001609802246e+00,-1.475371122360229492e+00,-6.573323011398315430e-01,-3.257104456424713135e-01,-2.700179517269134521e-01,-2.011912912130355835e-01,-1.543348670005798340e+00,-5.659890174865722656e-01,-1.124193072319030762e+00,-2.732320427894592285e-01,-1.536965131759643555e+00,1.239327862858772278e-01,9.227530360221862793e-01,-2.048845440149307251e-01,-1.646527498960494995e-01,3.024258464574813843e-02,2.196928980993106961e-04,-2.275574922561645508e+00,-1.068162083625793457e+00,-3.635569512844085693e-01,3.186365664005279541e-01,-1.405412793159484863e+00,-1.254759907722473145e+00,-1.352348566055297852e+00,-7.398501634597778320e-01,-8.628234267234802246e-02,-1.950381636619567871e+00,1.236807227134704590e+00,-5.253332853317260742e-01,-7.818506360054016113e-01,-1.780803501605987549e-01,-1.953844547271728516e+00,-2.611993789672851562e+00,-1.160637885332107544e-01,-5.655620992183685303e-02,-7.627450823783874512e-01,5.931751132011413574e-01,-4.861681163311004639e-01,-2.022425651550292969e+00,-3.235275745391845703e-01,-4.983554780483245850e-01,1.827666282653808594e+00,7.687214016914367676e-02,-9.160527586936950684e-01,-5.669110417366027832e-01,1.167703866958618164e+00,1.202716469764709473e+00,-2.954387187957763672e+00,-1.292638182640075684e+00,6.030146479606628418e-01,-3.956047892570495605e-01,-1.964662671089172363e+00,-2.635276556015014648e+00,7.455996423959732056e-02,4.540422558784484863e-01,5.198007822036743164e-01,5.508758127689361572e-02,2.825772762298583984e-01,1.706230878829956055e+00,-1.059866786003112793e+00,5.053676962852478027e-01,-4.295667409896850586e-01,1.486453115940093994e-01,-9.886310696601867676e-01,-1.088687300682067871e+00,-1.440209746360778809e+00,-8.966522216796875000e-01,-1.105451226234436035e+00,9.376118779182434082e-01,-2.644681036472320557e-01,7.971564531326293945e-01,-2.009707927703857422e+00,-8.270272016525268555e-01,-1.557837605476379395e+00,1.119701743125915527e+00,-1.409219026565551758e+00,9.944526553153991699e-01,3.378152847290039062e-01,6.958998441696166992e-01,-6.020917370915412903e-02,-1.823989868164062500e+00,6.453546285629272461e-01,1.902257800102233887e-01,-7.746621966361999512e-01,-1.098353028297424316e+00,-3.885539770126342773e-01,6.134067196398973465e-03,4.166745394468307495e-02,2.276740670204162598e-01
-2.794120609760284424e-01,2.180978804826736450e-01,-5.100256204605102539e-01,-8.880621194839477539e-01,-9.158882498741149902e-01,-2.633805200457572937e-02,-7.444459795951843262e-01,1.239883542060852051e+00,-2.733151316642761230e-01,2.698946595191955566e-01,-2.262544631958007812e-01,-7.048134207725524902e-01,6.960136294364929199e-01,-2.556079149246215820e+00,-4.423451125621795654e-01,-3.086342215538024902e-01,4.667516946792602539e-01,8.437938988208770752e-02,-1.954153776168823242e+00,-6.448751688003540039e-01,1.201914437115192413e-02,-1.210560351610183716e-01,1.930806189775466919e-01,6.432178020477294922e-01,-2.729007005691528320e-01,-2.056762218475341797e+00,6.232944726943969727e-01,2.091256529092788696e-01,-9.550444483757019043e-01,-9.884495139122009277e-01,-1.241173863410949707e+00,-3.308555781841278076e-01,-1.000272631645202637e+00,-1.446690440177917480e+00,-1.687852382659912109e+00,-8.420761823654174805e-01,5.138465762138366699e-01,-6.086705923080444336e-01,5.094729065895080566e-01,-5.505684614181518555e-01,6.983357667922973633e-01,8.649860024452209473e-01,-4.432843625545501709e-01,1.791092038154602051e+00,1.371379971504211426e+00,-7.982487678527832031e-01,-1.315132975578308105e-01,5.625378489494323730e-01,-3.159677684307098389e-01,-7.738534808158874512e-01,1.795192360877990723e+00,-7.746486663818359375e-01,-2.127870321273803711e+00,-1.772493004798889160e+00,-9.381892085075378418e-01,-3.476598858833312988e-01,-6.819249689579010010e-02,-1.880814135074615479e-01,-1.232429146766662598e+00,4.640223681926727295e-01,-4.534673094749450684e-01,-1.127782344818115234e+00,-9.801618456840515137e-01,3.390711247920989990e-01,-9.239903688430786133e-01,2.645643472671508789e+00,-1.057485640048980713e-01,-2.636121213436126709e-01,4.485515058040618896e-01,1.499572396278381348e-01,5.508322119712829590e-01,5.424427390098571777e-01,-8.233914375305175781e-01,-4.322629272937774658e-01,2.772447168827056885e-01,8.116395026445388794e-02,5.708917379379272461e-01,6.475549936294555664e-01,-1.499162316322326660e+00,-3.266606330871582031e-01,-6.324966549873352051e-01,-8.648168444633483887e-01,4.861637577414512634e-02,-1.405784964561462402e+00,-3.743859231472015381e-01,-4.939824044704437256e-01,-5.285887718200683594e-01,-8.113229870796203613e-01,9.272885322570800781e-01,2.510004341602325439e-01,-5.497233867645263672e-01,-4.262850582599639893e-01,-3.385866582393646240e-01,-1.530269622802734375e+00,4.726187884807586670e-02,-1.060085535049438477e+00,-6.645160913467407227e-02,1.161960601806640625e+00,-4.310940802097320557e-01,-1.444067716598510742e+00,-1.642028242349624634e-01,6.475218534469604492e-01,-6.260205060243606567e-02,-1.253832459449768066e+00,-8.852647542953491211e-01,-1.815486192703247070e+00,-5.486521720886230469e-01,-5.594149827957153320e-01,-2.876628637313842773e-01,4.860457777976989746e-01,-2.666627764701843262e-01,-5.590417981147766113e-01,-2.009940862655639648e+00,-6.288360357284545898e-01,1.972483038902282715e+00,-1.094952464103698730e+00,-1.065868258476257324e+00,3.565663397312164307e-01,-8.354942202568054199e-01,-4.424870014190673828e-01,-2.022748947143554688e+00,1.853554606437683105e+00,2.864761054515838623e-01,-7.539378404617309570e-01,-9.857794046401977539e-01,-1.244979858398437500e+00,-2.347734272480010986e-01,-1.568360179662704468e-01,-8.146702647209167480e-01,-1.646274566650390625e+00,5.171437263488769531e-01,-1.273447394371032715e+00,-2.351763844490051270e-01,-3.436451852321624756e-01,-2.945984303951263428e-01,-8.528724908828735352e-01,-5.314639210700988770e-01,8.991977572441101074e-01,-6.934556365013122559e-01,-1.581724643707275391e+00,-7.667686790227890015e-02,-7.446015477180480957e-01,-6.991382837295532227e-01,2.280442237854003906e+00,-1.456744432449340820e+00,3.855227530002593994e-01,5.595044493675231934e-01,1.449808120727539062e+00,-1.005889415740966797e+00,-2.365610450506210327e-01,-8.949918746948242188e-01,-2.545377425849437714e-02,-2.028700351715087891e+00,-4.922344908118247986e-02,-1.042675495147705078e+00,-1.018825843930244446e-01,2.092860937118530273e+00,-7.434220910072326660e-01,1.577056497335433960e-01,9.004738330841064453e-01,-7.261245250701904297e-01,-5.779456496238708496e-01,4.758436381816864014e-01,-2.608208358287811279e-01,4.217140972614288330e-01,4.919158220291137695e-01,7.854650020599365234e-01,-2.234402179718017578e+00,1.331881582736968994e-01,-1.153120547533035278e-01,2.585372515022754669e-02,-5.757161974906921387e-01,-9.683676958084106445e-01,-1.330054551362991333e-01,-5.481464266777038574e-01,-2.198693752288818359e+00,-1.577509492635726929e-01,-9.220227599143981934e-01,7.668266296386718750e-01,-7.011533379554748535e-01,-2.701191790401935577e-02,1.711494326591491699e-01,-1.136097908020019531e+00,-1.747270941734313965e+00,1.193897277116775513e-01,4.319421648979187012e-01,1.118615388870239258e+00,-1.379405617713928223e+00,-7.635409235954284668e-01,-8.086282610893249512e-01,2.633779346942901611e-01,3.592728972434997559e-01,-7.320748567581176758e-01,-7.505710124969482422e-01,1.221572279930114746e+00,-4.869475066661834717e-01,7.701322436332702637e-01,2.838384211063385010e-01,-1.783154606819152832e+00,-2.423027902841567993e-01,-1.356132507324218750e+00,9.826207160949707031e-01,-7.397907972335815430e-01,-2.066346168518066406e+00,-8.584445118904113770e-01,3.663797974586486816e-01,-3.555765151977539062e-01,-8.237837553024291992e-01,8.805765956640243530e-02,1.056091547012329102e+00,-5.997753739356994629e-01,-2.409719526767730713e-01,1.155254483222961426e+00,8.635324239730834961e-01,-4.941387474536895752e-01,-1.187548756599426270e+00,-8.604761958122253418e-01,-9.371802210807800293e-01,-9.121121168136596680e-01,-7.086907625198364258e-01,-1.171774268150329590e+00,-2.808184027671813965e-01,-1.279844343662261963e-01,-9.584883451461791992e-01,1.047173067927360535e-01,-1.639062285423278809e+00,-6.623653173446655273e-01,-6.691263914108276367e-01,-8.763807415962219238e-01,-1.018959641456604004e+00,-1.889920473098754883e+00,-6.794564425945281982e-02,-8.091232776641845703e-01,-3.722759783267974854e-01,-2.435283660888671875e+00,-1.673822164535522461e+00,1.773219704627990723e-01,-1.008606553077697754e+00,-1.395698189735412598e-01,-5.070660710334777832e-01,-5.908147096633911133e-01,-9.158262610435485840e-01,-8.458980917930603027e-01,-8.176158666610717773e-01,-6.159173250198364258e-01,-3.780161738395690918e-01,-5.344202518463134766e-01,3.425354063510894775e-01,-7.120281457901000977e-01,-1.414718627929687500e+00,-1.049792319536209106e-01,1.534579694271087646e-01,-1.175459742546081543e+00,4.115678966045379639e-01,-6.524166464805603027e-01,-3.596561849117279053e-01,-3.106842637062072754e-01,4.968563020229339600e-01,2.198889255523681641e-01,-6.089946627616882324e-01,-3.420829176902770996e-01,-5.881275534629821777e-01,-1.196100831031799316e+00,1.207127690315246582e+00,-1.618083000183105469e+00,-2.072238028049468994e-01,-1.579621553421020508e+00,1.697161793708801270e+00,-1.835817575454711914e+00,-1.152651786804199219e+00,-1.030180931091308594e+00,1.229183673858642578e+00,-4.927027523517608643e-01,-2.469658106565475464e-01,1.128700226545333862e-01,-9.466038346290588379e-01,3.156577348709106445e+00,7.916346788406372070e-01,-9.436732530593872070e-01,-6.290415525436401367e-01,-9.395291805267333984e-01,-1.326462775468826294e-01,-2.623427212238311768e-01,4.687132313847541809e-02,7.398632764816284180e-01,-2.051097154617309570e+00,-7.270265817642211914e-01,-1.278599381446838379e+00,1.177065372467041016e+00,-5.145393013954162598e-01,2.837608754634857178e-01,-1.101566910743713379e+00,-1.298669815063476562e+00,3.518433570861816406e-01,9.870820045471191406e-01,-1.656485319137573242e+00,-1.113746523857116699e+00,-4.691428542137145996e-01,-7.296647429466247559e-01,5.080293416976928711e-01,2.086487710475921631e-01,-3.181698024272918701e-01,-5.613526701927185059e-02,-2.530783414840698242e+00,-4.696011841297149658e-01,-2.011840343475341797e+00,-1.490652799606323242e+00,-1.505810379981994629e+00,-8.304790258407592773e-01,-9.865495562553405762e-01,-1.096146225929260254e+00,1.322299093008041382e-01,-8.750805854797363281e-01,-4.445326328277587891e-01,-5.151908099651336670e-02,-9.670458436012268066e-01,-4.481626451015472412e-01,-8.208865523338317871e-01,-1.395334005355834961e+00,-7.943543791770935059e-01,-1.025868892669677734e+00,6.392825841903686523e-01,2.823566794395446777e-01,-6.260038018226623535e-01,-1.009441494941711426e+00,2.117348015308380127e-01,6.951314806938171387e-01,-1.866214722394943237e-01,-4.724344015121459961e-01,-4.730187952518463135e-01,-3.553222715854644775e-01,-1.185040116310119629e+00,-2.409314066171646118e-01,-2.470597624778747559e-01,-7.780902981758117676e-01,-2.762978374958038330e-01,-7.133919000625610352e-01,-1.721597552299499512e+00,-8.981857299804687500e-01,-5.572631359100341797e-01,-2.851297259330749512e-01,-7.204201817512512207e-01,-6.766123771667480469e-01,-6.762329936027526855e-01,7.291222810745239258e-01,-1.645315140485763550e-01,-7.603107690811157227e-01,-1.281135797500610352e+00,-7.249110341072082520e-01,3.618045747280120850e-01,7.934746742248535156e-01,-1.267000913619995117e+00,-1.164265871047973633e+00,-1.356655955314636230e+00,1.336850225925445557e-01,-1.304256916046142578e-01,-1.063351407647132874e-01,-3.227548599243164062e-01,-1.951399207115173340e+00,-1.706769704818725586e+00,-9.294233918190002441e-01,-7.846639156341552734e-01,-1.040391921997070312e+00,-1.023720145225524902e+00,4.699662029743194580e-01,7.960470318794250488e-01,-8.574128150939941406e-01,-1.095498681068420410e+00,-2.130967617034912109e+00,3.099405169486999512e-01,-4.395790994167327881e-01,-7.587365508079528809e-01,-1.860741227865219116e-01,-1.441013932228088379e+00,-4.387265443801879883e-01,-7.181264758110046387e-01,9.948211908340454102e-01,-1.508629560470581055e+00,-7.287741899490356445e-01,-1.085116565227508545e-01,-8.806732892990112305e-01,2.366504073143005371e-01,-1.451127678155899048e-01,-5.372809767723083496e-01,5.385845899581909180e-01,-1.642259478569030762e+00,-3.123252689838409424e-01,-2.933963298797607422e+00,-7.081077098846435547e-01,-6.205763816833496094e-01,-7.506361603736877441e-01,6.875336766242980957e-01,-3.341155052185058594e-01,-2.638528048992156982e-01,1.186473011970520020e+00,8.406886458396911621e-01,-1.574467495083808899e-02,-2.141023635864257812e+00,-5.755566954612731934e-01,-1.526968479156494141e+00,1.515979766845703125e+00,-1.616874098777770996e+00,7.744528055191040039e-01,-8.968066573143005371e-01,-1.315183751285076141e-02,-4.388794302940368652e-01,-7.101864218711853027e-01,-1.453456282615661621e+00,-1.268747746944427490e-01,9.907753467559814453e-01,3.003350198268890381e-01,1.529929399490356445e+00,1.086835384368896484e+00,-7.611474394798278809e-01,-7.766552567481994629e-01,-1.143775820732116699e+00,5.626327395439147949e-01,4.195307791233062744e-01,1.189936976879835129e-02,-4.058146774768829346e-01,-1.910159707069396973e+00,6.952698230743408203e-01,-1.394872218370437622e-01,4.575181007385253906e-01,7.972543835639953613e-01,-2.449317932128906250e+00,-9.150102138519287109e-01,-3.248457908630371094e-01,3.466237187385559082e-01,1.778352260589599609e-01,-1.097764015197753906e+00,-8.957878351211547852e-01,-9.843986630439758301e-01,-1.323357343673706055e+00,-8.194203376770019531e-01,-8.955357074737548828e-01,-7.695459723472595215e-01,-7.907125353813171387e-01,2.488661408424377441e-01,1.358231008052825928e-01,3.576374351978302002e-01,-1.420089721679687500e+00,-1.656931042671203613e+00,7.090409398078918457e-01,-1.126406550407409668e+00,-2.329919576644897461e+00,-2.652390897274017334e-01,-8.925121426582336426e-01,1.427405238151550293e+00,1.163479566574096680e+00,1.885537624359130859e+00,-1.751703858375549316e+00,-2.837827205657958984e-01,-7.043856978416442871e-01,1.645105481147766113e-01,1.313887536525726318e-01,-2.074833154678344727e+00,-1.305180639028549194e-01,-1.661304473876953125e+00,3.978772833943367004e-02,-1.024675965309143066e+00,-8.794439435005187988e-01,1.636574149131774902e+00,-2.099262475967407227e-01,-3.497950136661529541e-01,1.162005364894866943e-01,8.912440389394760132e-02,-1.335167765617370605e+00,1.674044013023376465e+00,-6.625550985336303711e-01,3.267089724540710449e-01,1.671742200851440430e-01,-1.100758686661720276e-01,7.262756824493408203e-01,-1.196212619543075562e-01,9.931017160415649414e-01,1.255474209785461426e+00,1.357008337974548340e+00,-1.686767458915710449e+00,-7.359291315078735352e-01,-3.052738189697265625e+00,-1.035668730735778809e+00,-6.893024444580078125e-01,3.725802302360534668e-01,5.718057155609130859e-01,4.771017432212829590e-01,9.345148801803588867e-01,-1.427793502807617188e+00,2.050793170928955078e-01,3.695586919784545898e-01,-5.809794068336486816e-01,1.931167244911193848e-01,4.905576705932617188e-01,-2.469963073730468750e+00,-9.125982522964477539e-01,-2.302534341812133789e+00,-4.060163795948028564e-01,8.216580748558044434e-02,3.508791923522949219e-01,9.979829192161560059e-02,1.745994836091995239e-01,-3.633204996585845947e-01,-3.158942162990570068e-01,4.725246429443359375e-01,-6.338233351707458496e-01,-8.721798658370971680e-01,-1.454019665718078613e+00,4.094679057598114014e-01,-8.518317937850952148e-01,-1.643917918205261230e+00,1.307056069374084473e+00,-1.437761187553405762e+00
2.328766286373138428e-01,-2.918617725372314453e-01,-1.220185756683349609e+00,-1.522213697433471680e+00,1.141207367181777954e-01,1.200747370719909668e+00,-1.978465080261230469e+00,-1.036790490150451660e+00,-1.017325162887573242e+00,-5.333460569381713867e-01,-6.516642570495605469e-01,-9.457732439041137695e-01,-9.395823627710342407e-02,3.717347383499145508e-01,3.763005137443542480e-01,1.026611477136611938e-01,-9.217780828475952148e-01,-1.286370992660522461e+00,-6.586443781852722168e-01,4.747769832611083984e-01,1.219125747680664062e+00,-1.934050619602203369e-01,2.275035381317138672e+00,1.377142786979675293e+00,1.978674530982971191e-01,-3.879459202289581299e-02,4.890869259834289551e-01,-8.044097572565078735e-02,-1.409399867057800293e+00,2.948855459690093994e-01,-7.193873822689056396e-02,-3.472691774368286133e-01,-5.652361512184143066e-01,-1.754625678062438965e+00,-1.725991368293762207e+00,-7.069849222898483276e-02,5.111539959907531738e-01,-8.981654644012451172e-01,-4.415788352489471436e-01,-1.071401834487915039e+00,-1.765476316213607788e-01,-6.860293149948120117e-01,1.750548243522644043e+00,8.516380190849304199e-01,-7.617839574813842773e-01,-1.201060414314270020e+00,-8.681353330612182617e-01,-6.900969147682189941e-01,-1.967581212520599365e-01,-6.226807236671447754e-01,-1.631796002388000488e+00,-9.758595824241638184e-01,3.256370425224304199e-01,-3.945033065974712372e-03,1.871426701545715332e+00,-5.017914623022079468e-02,-1.187760114669799805e+00,-1.067014932632446289e+00,2.042898833751678467e-01,-1.559771776199340820e+00,-1.256132006645202637e+00,-5.649816393852233887e-01,-2.121944427490234375e-01,3.828844726085662842e-01,9.630038142204284668e-01,7.755385637283325195e-01,4.624214172363281250e-01,-1.006079316139221191e+00,-4.292467236518859863e-01,-3.412607610225677490e-01,8.128646612167358398e-01,1.986267976462841034e-02,1.107865929603576660e+00,-1.352963328361511230e+00,1.825844943523406982e-01,1.960526555776596069e-01,-7.046244144439697266e-01,-6.457849144935607910e-01,-3.792697191238403320e-01,-8.389502763748168945e-01,-1.841431736946105957e+00,-1.956486701965332031e+00,8.368922770023345947e-02,-1.288453578948974609e+00,-1.410919904708862305e+00,-4.130829870700836182e-01,-8.312343358993530273e-01,-2.148838043212890625e+00,-2.845506370067596436e-01,-1.396263957023620605e+00,-2.031082868576049805e+00,-2.099891662597656250e+00,4.739423096179962158e-01,-1.611041307449340820e+00,-9.231396317481994629e-01,-7.423378825187683105e-01,-3.444112539291381836e-01,7.908762693405151367e-01,-2.182595491409301758e+00,1.011053681373596191e+00,-7.813813090324401855e-01,9.552564620971679688e-01,-6.902850270271301270e-01,7.865312695503234863e-01,1.618326544761657715e+00,1.463209867477416992e+00,6.349626928567886353e-02,-1.249146938323974609e+00,-1.001333236694335938e+00,1.521107196807861328e+00,-1.443515121936798096e-01,-2.389643713831901550e-02,1.388987898826599121e-01,-5.586557090282440186e-02,3.777296841144561768e-01,-6.182922720909118652e-01,-1.910751819610595703e+00,5.655557513236999512e-01,-5.382280945777893066e-01,-6.667404174804687500e-01,-1.657088041305541992e+00,-1.860513925552368164e+00,7.349812984466552734e-01,-1.565088480710983276e-01,-9.039012193679809570e-01,-6.626925468444824219e-01,-2.138840675354003906e+00,-7.866312265396118164e-01,-1.212466061115264893e-01,-1.746129691600799561e-01,-3.571739494800567627e-01,1.712095290422439575e-01,-3.369040787220001221e-01,-5.536434650421142578e-01,-3.398327529430389404e-01,-7.467973828315734863e-01,-3.207600712776184082e-01,-9.816211462020874023e-01,3.185252845287322998e-01,-8.861531317234039307e-02,-1.353649973869323730e+00,-1.701611429452896118e-01,2.080302983522415161e-01,-1.707091689109802246e+00,2.994841039180755615e-01,-8.268318772315979004e-01,-1.069459199905395508e+00,8.084011673927307129e-01,-8.103514313697814941e-01,3.478298485279083252e-01,-1.042214274406433105e+00,-1.094391107559204102e+00,-3.413873314857482910e-01,-1.852667093276977539e+00,-9.685295224189758301e-01,-1.684440523386001587e-01,-3.429862260818481445e-01,-1.736150264739990234e+00,2.692982256412506104e-01,8.683592677116394043e-01,2.204088121652603149e-01,1.187501940876245499e-03,-8.448537588119506836e-01,-7.560853958129882812e-01,-1.361808419227600098e+00,-4.694958031177520752e-01,-9.108951687812805176e-02,3.092465698719024658e-01,-2.553192079067230225e-01,-7.568520903587341309e-01,-3.347994387149810791e-01,-3.116840124130249023e-01,4.967598915100097656e-01,-3.005947172641754150e-01,-4.006501659750938416e-02,-6.624301671981811523e-01,2.493498325347900391e-01,1.186572194099426270e+00,-1.165346264839172363e+00,6.044712662696838379e-01,5.042123794555664062e-01,-1.611513495445251465e+00,-1.874644398689270020e+00,-4.554682970046997070e-01,-3.689901232719421387e-01,-1.419487237930297852e+00,-7.148580551147460938e-01,-2.268252611160278320e+00,5.976916551589965820e-01,-1.939547419548034668e+00,5.759583115577697754e-01,-3.512220084667205811e-01,-1.451365828514099121e+00,2.226086258888244629e-01,2.132150083780288696e-01,-3.680064678192138672e-01,-1.154557466506958008e+00,-4.634410142898559570e-02,-9.789187312126159668e-01,1.073239222168922424e-01,-1.706273913383483887e+00,-5.070571899414062500e-01,-1.294140100479125977e+00,-1.761749982833862305e-01,-1.090499997138977051e+00,-1.000601887702941895e+00,-2.667141854763031006e-01,-3.298926055431365967e-01,-4.459338188171386719e-01,-3.684810698032379150e-01,-5.070062279701232910e-01,-2.165680378675460815e-02,-7.088565826416015625e-01,4.471311271190643311e-01,-2.387727349996566772e-01,-4.701305925846099854e-01,-1.321340724825859070e-02,-2.629596181213855743e-02,-5.069516897201538086e-01,-8.255929350852966309e-01,1.211760878562927246e+00,-2.644656300544738770e-01,-1.370793223381042480e+00,-1.238909244537353516e+00,-1.897184997797012329e-01,-1.094659924507141113e+00,4.337010383605957031e-01,-1.691426515579223633e+00,-1.035861492156982422e+00,-1.937974095344543457e+00,-3.574995696544647217e-01,-5.043123364448547363e-01,7.844012230634689331e-03,-3.438077270984649658e-01,-5.548064112663269043e-01,9.087978601455688477e-01,-1.120137572288513184e+00,-6.625974178314208984e-02,2.881354093551635742e-01,1.321931779384613037e-01,1.074943169951438904e-01,3.921940922737121582e-01,-7.838757038116455078e-01,-1.594632118940353394e-01,-8.176000118255615234e-01,-3.249926567077636719e-01,-1.271225452423095703e+00,3.839970827102661133e-01,-2.022178411483764648e+00,-6.051211953163146973e-01,-6.916434168815612793e-01,-4.119409322738647461e-01,-4.391511678695678711e-01,-7.724453210830688477e-01,-6.635327935218811035e-01,-1.513086795806884766e+00,5.505710244178771973e-01,8.936247825622558594e-01,-7.277189493179321289e-01,-1.858703732490539551e+00,-5.065967515110969543e-02,-1.574795842170715332e+00,2.249024868011474609e+00,-1.306439638137817383e+00,3.013830780982971191e-01,-1.153075695037841797e-01,3.618916869163513184e-01,-1.399088948965072632e-01,-8.879463076591491699e-01,5.887256935238838196e-02,-4.954333305358886719e-01,-4.859094023704528809e-01,7.696826010942459106e-02,-1.137431025505065918e+00,-2.572808265686035156e-01,-5.286473631858825684e-01,4.269300699234008789e-01,-6.538960337638854980e-01,1.601395457983016968e-01,-5.053098872303962708e-02,9.238002300262451172e-01,2.292783707380294800e-01,8.626769781112670898e-01,-8.954005241394042969e-01,6.429908871650695801e-01,-1.277952641248703003e-01,-1.999108642339706421e-01,1.283610701560974121e+00,2.061689853668212891e+00,-8.288680315017700195e-01,-9.985260963439941406e-01,2.135013490915298462e-01,-1.710644960403442383e+00,-2.083954066038131714e-01,-1.667741417884826660e+00,-7.677971124649047852e-01,-5.087510347366333008e-01,-1.241305947303771973e+00,3.415981531143188477e-01,-1.921640187501907349e-01,-7.385066747665405273e-01,-3.012586534023284912e-01,1.311694383621215820e+00,-1.486525297164916992e+00,-1.792519986629486084e-01,-3.906331956386566162e-01,1.238031029701232910e+00,-5.033189058303833008e-01,-4.103438258171081543e-01,-7.463518381118774414e-01,-1.214321017265319824e+00,-2.491362333297729492e+00,2.260378003120422363e-01,-5.158151984214782715e-01,-1.560814976692199707e+00,-1.673927009105682373e-01,-5.401562899351119995e-02,-2.109106928110122681e-01,-5.798271298408508301e-01,1.067747697234153748e-01,-2.478670835494995117e+00,5.453429222106933594e-01,-1.017422199249267578e+00,-4.280590638518333435e-02,-1.852002620697021484e+00,1.208650588989257812e+00,-3.883797526359558105e-01,-6.128937602043151855e-01,-5.745800733566284180e-01,-1.269599318504333496e+00,-7.825908660888671875e-01,-1.644449234008789062e+00,-3.646673858165740967e-01,-3.721958100795745850e-01,-2.755343616008758545e-01,-6.078884005546569824e-01,-2.307835966348648071e-01,-8.412449955940246582e-01,-1.924688220024108887e+00,5.740861296653747559e-01,3.681575655937194824e-01,7.938827276229858398e-01,-1.885911107063293457e+00,-3.297560214996337891e-01,7.518433928489685059e-01,-2.269075810909271240e-01,-3.679624795913696289e-01,4.742271006107330322e-01,6.764703989028930664e-01,5.886372923851013184e-01,5.601660609245300293e-01,-1.387836933135986328e+00,1.535078287124633789e+00,-2.876209914684295654e-01,-1.587942600250244141e+00,4.942081868648529053e-02,-2.073671072721481323e-01,-9.408892393112182617e-01,-1.067549467086791992e+00,-6.435335278511047363e-01,-2.327355384826660156e+00,-6.888245940208435059e-01,-9.183369278907775879e-01,-9.251356124877929688e-02,-2.032152414321899414e-01,7.175644636154174805e-01,-4.918811023235321045e-01,-1.835114479064941406e+00,-1.501048207283020020e+00,9.607006907463073730e-01,-1.125435948371887207e+00,-5.799272060394287109e-01,-7.834113240242004395e-01,-7.028086185455322266e-01,2.005167156457901001e-01,4.617088437080383301e-01,-1.415387153625488281e+00,2.324598729610443115e-01,-9.786333441734313965e-01,-4.317259490489959717e-01,-3.026289120316505432e-02,-5.892794728279113770e-01,3.723514974117279053e-01,8.804472088813781738e-01,-3.604253232479095459e-01,8.208920806646347046e-02,-5.225514769554138184e-01,1.075214624404907227e+00,-5.918002128601074219e-01,-1.080261588096618652e+00,-3.216629326343536377e-01,6.372146606445312500e-01,-1.881768740713596344e-02,-1.603688150644302368e-01,-4.327512681484222412e-01,-8.826177120208740234e-01,-2.723560035228729248e-01,-7.807944416999816895e-01,-1.057250499725341797e-01,3.641438484191894531e-01,-6.251121163368225098e-01,-7.844563126564025879e-01,-1.069375991821289062e+00,-5.401194691658020020e-01,-1.570523977279663086e-01,1.696890711784362793e+00,5.725355744361877441e-01,1.766447722911834717e-01,5.704025626182556152e-01,-9.440876245498657227e-01,4.765238165855407715e-01,-1.394840836524963379e+00,-1.109684467315673828e+00,1.002205252647399902e+00,-2.388631254434585571e-01,3.828503489494323730e-01,-7.556661367416381836e-01,-7.326129674911499023e-01,-2.317247092723846436e-01,-1.047712922096252441e+00,-6.140245795249938965e-01,2.776338346302509308e-02,-6.459501981735229492e-01,-4.041287302970886230e-01,-1.087323278188705444e-01,-2.109334617853164673e-01,-1.047658920288085938e+00,-4.706650674343109131e-01,1.076973080635070801e+00,-1.071219563484191895e+00,-5.449851155281066895e-01,-1.542297840118408203e+00,-2.506518661975860596e-01,-1.265244245529174805e+00,-7.847838401794433594e-01,1.626217365264892578e-01,-8.695209026336669922e-01,-9.231640100479125977e-01,-2.228149920701980591e-01,4.458033442497253418e-01,-1.155189633369445801e+00,2.403300106525421143e-01,2.503501176834106445e-01,-5.132045745849609375e-01,-2.341758608818054199e-01,8.887936472892761230e-01,-3.382298052310943604e-01,-1.971436738967895508e+00,-1.472132921218872070e+00,3.167168498039245605e-01,9.417459368705749512e-02,-2.001421928405761719e+00,-5.327883362770080566e-01,-1.022152304649353027e+00,-9.839554429054260254e-01,4.205249249935150146e-01,6.902706623077392578e-01,-1.768453978002071381e-02,1.165891885757446289e+00,-2.618339657783508301e-01,1.210957914590835571e-01,2.253231257200241089e-01,-1.142884492874145508e+00,5.956068634986877441e-03,-1.158990979194641113e+00,6.808775663375854492e-01,1.393407285213470459e-01,-1.575430750846862793e+00,2.145038992166519165e-01,-1.369251251220703125e+00,-1.254807263612747192e-01,-6.018400788307189941e-01,-5.916096568107604980e-01,-5.043524503707885742e-01,-5.386993885040283203e-01,-1.016004234552383423e-01,4.520348459482192993e-02,1.043748140335083008e+00,-3.213068246841430664e-01,-2.404554486274719238e-01,1.306901812553405762e+00,-4.452485442161560059e-01,-8.988051861524581909e-02,-1.089959263801574707e+00,-8.251358270645141602e-01,-9.825815260410308838e-02,-8.461620807647705078e-01,1.551700830459594727e+00,-1.405004620552062988e+00,1.455496996641159058e-01,-9.997819066047668457e-01,7.028449773788452148e-01,4.606660604476928711e-01,-2.635215520858764648e-01,-2.722093164920806885e-01,-6.851190328598022461e-02,-1.094654083251953125e+00,-6.084870100021362305e-01,6.187252700328826904e-02,1.717466861009597778e-01,1.323378682136535645e+00,1.904115825891494751e-01,-1.467973351478576660e+00,-9.886088967323303223e-01,1.625658571720123291e-02,-4.817296564579010010e-01,-3.898302614688873291e-01,1.361500263214111328e+00,-1.239430904388427734e+00,-1.469880223274230957e+00,-1.584109425544738770e+00,-9.243419170379638672e-01
