1.515481173992156982e-01,2.375313788652420044e-01,-3.276540040969848633e-01,-7.471761852502822876e-02,2.752874791622161865e-01,4.365227743983268738e-02,1.320857554674148560e-01,8.379798382520675659e-03,1.476293504238128662e-01,1.504242420196533203e-01,3.747857362031936646e-02,-2.006972879171371460e-01,7.166585326194763184e-02,-1.872170567512512207e-01,1.824959553778171539e-02,-1.911851316690444946e-01
-6.251085549592971802e-02,1.943084448575973511e-01,-7.045181095600128174e-02,2.255588397383689880e-02,-5.036776512861251831e-02,1.466974169015884399e-01,1.847854629158973694e-02,-3.241676092147827148e-01,1.907869279384613037e-01,6.598445028066635132e-02,-1.580325420945882797e-03,1.379268360324203968e-03,-2.492404915392398834e-02,4.145031422376632690e-02,-3.425446897745132446e-02,1.695191115140914917e-01
8.572229743003845215e-02,1.418579965829849243e-01,-3.080975450575351715e-02,7.952552288770675659e-02,6.252855062484741211e-02,-1.567280106246471405e-02,-1.590635478496551514e-01,-4.214138165116310120e-02,2.922717928886413574e-01,3.806575760245323181e-02,6.816082447767257690e-02,-6.122180446982383728e-02,1.269345134496688843e-01,3.579187020659446716e-02,-8.678622543811798096e-02,-7.108632475137710571e-02
3.791588917374610901e-02,-1.539747118949890137e-01,-2.057582437992095947e-01,-1.446418017148971558e-01,4.270605370402336121e-02,-3.834630129858851433e-03,1.462465375661849976e-01,1.964349746704101562e-01,9.392231702804565430e-02,4.361215233802795410e-02,-9.422068297863006592e-02,-8.887371420860290527e-02,-4.847086500376462936e-03,-1.339604109525680542e-01,3.503482788801193237e-02,-1.314361020922660828e-02
-7.942136377096176147e-02,2.646523118019104004e-01,-1.987441778182983398e-01,1.891879830509424210e-03,-7.506354153156280518e-02,1.515366733074188232e-01,-8.350624889135360718e-02,2.879390493035316467e-02,7.788092643022537231e-02,1.638817489147186279e-01,-1.372851431369781494e-01,-1.632952690124511719e-01,7.219828665256500244e-02,3.778835758566856384e-02,-1.744113489985466003e-02,-9.928672015666961670e-02
1.062417253851890564e-01,-9.012820571660995483e-02,1.390206515789031982e-01,-8.969395607709884644e-02,-2.685058116912841797e-02,5.220841988921165466e-02,2.145142704248428345e-01,3.481918275356292725e-01,6.957776099443435669e-02,2.389447996392846107e-03,5.294602364301681519e-02,9.579858928918838501e-02,6.068814545869827271e-02,6.068643927574157715e-02,1.813657879829406738e-01,2.562023326754570007e-02
-2.348854579031467438e-02,-1.747473180294036865e-01,-8.684230595827102661e-02,-1.565054804086685181e-01,2.995381355285644531e-01,-2.345889955759048462e-01,-1.116725578904151917e-01,-7.319107651710510254e-02,2.055605947971343994e-01,7.311581075191497803e-02,3.149069845676422119e-01,4.262962341308593750e-01,-2.607059776782989502e-01,-1.492680013179779053e-01,-2.699209451675415039e-01,2.232645303010940552e-01
-1.380034070461988449e-02,4.387706518173217773e-02,9.983423352241516113e-02,1.935026794672012329e-01,4.758267477154731750e-02,1.805601269006729126e-02,-3.252386301755905151e-02,8.856904506683349609e-02,1.265285611152648926e-01,-1.374282836914062500e-01,3.343279659748077393e-02,5.254657268524169922e-01,1.310316175222396851e-01,5.321342498064041138e-02,1.176133528351783752e-01,-1.616648882627487183e-01
1.407189667224884033e-01,-1.551136076450347900e-01,-2.804519832134246826e-01,1.334910863079130650e-03,-9.294137358665466309e-02,-8.835151791572570801e-02,-1.456672847270965576e-01,2.436824440956115723e-01,-2.896484918892383575e-03,-1.936427056789398193e-01,-1.397393792867660522e-01,3.649349808692932129e-01,-1.240308657288551331e-01,-1.314054131507873535e-01,-9.517871588468551636e-02,-8.582507818937301636e-02
-2.315824106335639954e-02,-3.314765989780426025e-01,-3.987459465861320496e-03,1.243269741535186768e-01,2.730828523635864258e-01,2.153786122798919678e-01,-8.900794386863708496e-02,3.721263259649276733e-02,-1.921069473028182983e-01,-1.232861652970314026e-01,-1.450754851102828979e-01,-5.141160637140274048e-02,-4.080810397863388062e-02,1.142033189535140991e-01,2.061686962842941284e-01,2.305442281067371368e-02
-1.248539015650749207e-01,4.961280822753906250e-01,4.136392474174499512e-02,-6.874989718198776245e-02,-4.417847841978073120e-02,-8.437392860651016235e-02,-5.462754890322685242e-02,-2.134199291467666626e-01,8.183699846267700195e-02,-1.420195549726486206e-01,2.822998762130737305e-01,-1.356777735054492950e-02,1.197386253625154495e-02,9.374008327722549438e-02,-1.090490147471427917e-01,-1.781738251447677612e-01
-1.799733191728591919e-01,1.416248083114624023e-01,-9.520032256841659546e-02,2.597716636955738068e-02,1.495163589715957642e-01,-3.231991231441497803e-01,-1.095151528716087341e-01,3.008645474910736084e-01,1.545198857784271240e-01,-2.519614808261394501e-02,2.092743217945098877e-01,-8.221189677715301514e-02,5.298141390085220337e-02,-2.718278467655181885e-01,3.096685409545898438e-01,-4.256705194711685181e-02
2.699761092662811279e-01,1.140151992440223694e-01,-3.127723932266235352e-02,1.539156883955001831e-01,1.538425981998443604e-01,9.350576996803283691e-02,2.281232923269271851e-01,-7.543399184942245483e-02,2.825889587402343750e-01,-2.893739342689514160e-01,2.609000802040100098e-01,1.857461780309677124e-01,-1.254178285598754883e-01,1.060464233160018921e-01,1.362649500370025635e-01,-2.560425400733947754e-01
-1.083863005042076111e-01,9.575689211487770081e-03,-4.048828408122062683e-02,-1.024611443281173706e-01,2.597261071205139160e-01,8.342716842889785767e-02,6.366490572690963745e-02,5.806161090731620789e-03,7.813509553670883179e-02,4.756065830588340759e-02,2.136714607477188110e-01,-1.405689269304275513e-01,-7.211381942033767700e-02,1.104129254817962646e-01,-2.393167018890380859e-01,-4.274293314665555954e-03
-2.387548051774501801e-02,-1.936044842004776001e-01,7.201636582612991333e-02,2.772412449121475220e-02,1.788638159632682800e-02,-5.513620376586914062e-02,5.326158180832862854e-02,-2.742358446121215820e-01,1.500202119350433350e-01,-1.042933296412229538e-02,2.976878285408020020e-01,-2.435519546270370483e-01,4.554875660687685013e-03,5.139548331499099731e-02,3.966752588748931885e-01,-5.900581181049346924e-02
3.316070139408111572e-01,-2.908103354275226593e-02,-7.725103199481964111e-02,8.419877290725708008e-02,-3.248990699648857117e-02,8.881784230470657349e-02,1.248105317354202271e-01,1.431362926959991455e-01,-3.604513034224510193e-02,7.925728708505630493e-02,-4.883938282728195190e-02,-7.793596014380455017e-03,2.312826216220855713e-01,1.997218877077102661e-01,-1.352849509567022324e-02,7.133805751800537109e-02
1.646536886692047119e-01,-1.778110563755035400e-01,-9.763325750827789307e-02,1.230115815997123718e-01,2.886053621768951416e-01,2.424668893218040466e-02,-6.464681029319763184e-02,-3.034386038780212402e-01,9.819288551807403564e-02,-3.349711000919342041e-02,1.964328140020370483e-01,-1.860179454088211060e-01,7.644759118556976318e-02,-1.482650935649871826e-01,1.235952153801918030e-01,8.509939536452293396e-03
1.134559512138366699e-01,4.823596403002738953e-02,2.267144434154033661e-02,1.311198025941848755e-01,9.812443703413009644e-02,1.523997932672500610e-01,-8.600869029760360718e-02,1.379615813493728638e-01,-8.845160156488418579e-02,4.049902781844139099e-02,2.596358954906463623e-01,3.208024054765701294e-02,1.837327629327774048e-01,6.395225971937179565e-02,1.042776405811309814e-01,1.231580451130867004e-01
-2.490008622407913208e-02,3.232726082205772400e-02,1.112160161137580872e-01,2.199708856642246246e-02,-7.172424346208572388e-02,1.958866864442825317e-01,2.619793079793453217e-02,5.126415565609931946e-02,2.756629697978496552e-02,8.984403312206268311e-02,-3.797140419483184814e-01,2.876336276531219482e-01,-9.230592846870422363e-02,3.446493744850158691e-01,-1.912750862538814545e-02,-9.165351092815399170e-02
-5.338685959577560425e-02,1.476043313741683960e-01,-6.963972747325897217e-02,-8.933805674314498901e-02,5.135169625282287598e-02,1.270429044961929321e-01,2.399226278066635132e-02,9.332459419965744019e-02,2.113827876746654510e-02,2.501707077026367188e-01,1.142025366425514221e-01,1.847306638956069946e-02,3.707245290279388428e-01,2.005249708890914917e-01,8.270914852619171143e-02,6.517451256513595581e-02
-1.365835368633270264e-01,2.268452346324920654e-01,1.265074014663696289e-01,-3.571094572544097900e-01,3.469246625900268555e-02,2.880629301071166992e-01,1.099708825349807739e-01,-1.658420078456401825e-02,4.334779977798461914e-01,3.096724674105644226e-02,-3.983685001730918884e-02,-1.395232379436492920e-01,1.012032106518745422e-02,2.199428379535675049e-01,-5.571445822715759277e-02,-1.075034141540527344e-01
1.275330334901809692e-01,-1.594451963901519775e-01,2.816844359040260315e-02,1.991542726755142212e-01,-9.041970223188400269e-02,-4.193909093737602234e-02,-1.274933665990829468e-01,-5.444840341806411743e-02,-4.536231607198715210e-02,-1.321855634450912476e-01,-1.091310679912567139e-01,3.817899897694587708e-02,-2.834998667240142822e-01,-1.664751321077346802e-01,-2.735671103000640869e-01,1.985212974250316620e-02
-3.065736591815948486e-02,-4.000472649931907654e-02,-1.275971382856369019e-01,1.648923754692077637e-01,5.760768428444862366e-02,-7.710395753383636475e-02,-2.130735665559768677e-01,1.722745597362518311e-01,1.004265174269676208e-01,2.594427764415740967e-01,5.007163807749748230e-02,1.281476765871047974e-01,-3.019295632839202881e-01,9.148681908845901489e-02,-2.685699798166751862e-02,-9.221343696117401123e-02
1.341710090637207031e-01,1.705325096845626831e-01,-1.252869069576263428e-01,-2.335446923971176147e-01,5.622572824358940125e-02,5.850579962134361267e-02,-5.166638642549514771e-02,-5.213455557823181152e-01,-2.356368601322174072e-01,1.767216436564922333e-02,1.558306366205215454e-01,1.081393733620643616e-01,-1.411722153425216675e-01,-2.033240199089050293e-01,-1.570850312709808350e-01,7.704044133424758911e-02
-1.432910561561584473e-01,2.737795710563659668e-01,-1.203757226467132568e-01,-2.543593198060989380e-02,-1.335256695747375488e-01,3.372114524245262146e-02,8.089979737997055054e-02,1.172773018479347229e-01,-5.436000972986221313e-02,1.189682260155677795e-01,-1.218533590435981750e-01,-2.136793583631515503e-01,7.999935001134872437e-02,-1.511134803295135498e-01,1.467919945716857910e-01,-1.324315369129180908e-01
-1.824624836444854736e-01,1.556704193353652954e-01,1.200952567160129547e-02,-6.214341893792152405e-02,3.687242865562438965e-01,2.518329583108425140e-02,1.184763088822364807e-01,-2.771424874663352966e-02,-1.632519662380218506e-01,-8.149564266204833984e-02,-2.265307754278182983e-01,1.076534613966941833e-01,-1.685812324285507202e-01,7.588800787925720215e-02,1.403131932020187378e-01,2.261121571063995361e-01
-3.858576342463493347e-02,-4.938460886478424072e-02,-2.157673239707946777e-01,-5.605047196149826050e-02,2.298634946346282959e-01,-2.318034768104553223e-01,7.381814997643232346e-03,-9.757161140441894531e-02,-4.903151392936706543e-01,-2.784863710403442383e-01,4.982036054134368896e-01,-1.763156056404113770e-01,-5.259112641215324402e-02,-9.612938761711120605e-02,1.680355705320835114e-02,-2.465265542268753052e-01
-2.243798971176147461e-02,-3.530466230586171150e-03,-6.648286432027816772e-02,2.181860804557800293e-02,-1.260984092950820923e-01,-3.095089793205261230e-01,2.341669499874114990e-01,-2.254072874784469604e-01,2.668266929686069489e-02,1.640354096889495850e-01,-5.496053025126457214e-02,-1.747192144393920898e-01,1.455815583467483521e-01,-1.822712421417236328e-01,-1.566012054681777954e-01,-4.065700769424438477e-01
1.628367453813552856e-01,-1.778717339038848877e-02,2.678960561752319336e-01,-1.866201162338256836e-01,9.870791435241699219e-02,-1.437489986419677734e-01,1.800039708614349365e-01,-9.800592809915542603e-02,5.498843267560005188e-02,1.932752281427383423e-01,1.212019100785255432e-01,-1.429150998592376709e-01,1.872989535331726074e-01,2.489552646875381470e-01,8.847868442535400391e-02,-3.691948950290679932e-02
-2.264693751931190491e-02,-3.855395317077636719e-02,-2.765549123287200928e-01,-1.009444519877433777e-01,1.041697412729263306e-01,1.455323547124862671e-01,3.691760003566741943e-01,-1.019057035446166992e-01,-1.837272942066192627e-02,-9.163013659417629242e-03,-1.312284916639328003e-01,1.846454292535781860e-01,1.052936092019081116e-01,-8.369781076908111572e-02,-2.139706462621688843e-01,-2.003896385431289673e-01
-3.929359838366508484e-02,-5.759558081626892090e-02,6.428299844264984131e-02,7.471243292093276978e-02,2.164265140891075134e-02,-1.949988454580307007e-01,-1.251093447208404541e-01,1.190967783331871033e-01,2.363886982202529907e-01,1.360698491334915161e-01,-2.212937921285629272e-02,1.332516223192214966e-01,-1.700001358985900879e-01,-3.042939305305480957e-02,-4.382250458002090454e-02,-1.213059425354003906e-01
-1.422155369073152542e-02,1.158195883035659790e-01,5.183934792876243591e-02,-9.075723588466644287e-02,1.016429737210273743e-01,-7.561612129211425781e-02,2.118837386369705200e-01,-1.411635130643844604e-01,-3.282953798770904541e-01,-1.684377156198024750e-02,2.461295425891876221e-01,-7.877556979656219482e-02,-6.781167536973953247e-02,-2.767298519611358643e-01,-3.731626272201538086e-02,2.251296862959861755e-02
-2.132036387920379639e-01,-8.180317282676696777e-02,-3.026101291179656982e-01,4.507959634065628052e-02,2.166791260242462158e-01,-1.095092222094535828e-01,-1.306943744421005249e-01,-6.943167001008987427e-02,3.049946017563343048e-02,1.826350986957550049e-01,7.786648720502853394e-02,1.455871462821960449e-01,-1.222355738282203674e-01,-3.617209196090698242e-01,2.599153816699981689e-01,2.225492522120475769e-02
-7.766795158386230469e-02,-7.974827289581298828e-02,1.297376006841659546e-01,1.148905605077743530e-01,3.553265705704689026e-02,-5.235075205564498901e-02,-5.893512815237045288e-02,-2.592619657516479492e-01,-3.052804805338382721e-02,4.001123830676078796e-02,-4.350497946143150330e-02,1.126765832304954529e-01,4.324666038155555725e-02,1.168462559580802917e-01,2.294945418834686279e-01,8.936778455972671509e-02
-1.472311560064554214e-03,-1.546889822930097580e-02,1.247516125440597534e-01,1.642223447561264038e-01,-2.908172011375427246e-01,1.649603620171546936e-02,-2.624530810862779617e-03,-3.283883929252624512e-01,-1.332583725452423096e-01,-3.060807473957538605e-02,-9.913755953311920166e-02,-1.981105655431747437e-01,-9.991013258695602417e-02,4.890695214271545410e-02,1.563361496664583683e-03,4.639917016029357910e-01
1.568261533975601196e-01,-2.417078763246536255e-01,-6.192351505160331726e-02,-4.005360007286071777e-01,1.083406358957290649e-01,-1.239207535982131958e-01,1.657004505395889282e-01,9.746214747428894043e-02,-9.707169979810714722e-02,-6.243558973073959351e-02,1.250645965337753296e-01,4.716304130852222443e-03,1.010001078248023987e-01,-3.148198723793029785e-01,3.990772962570190430e-01,2.673086524009704590e-01
1.033706665039062500e-01,1.153986714780330658e-02,-1.168122813105583191e-01,1.039440631866455078e-01,2.055462747812271118e-01,9.080344438552856445e-02,-7.766407728195190430e-02,2.986008524894714355e-01,-4.077039659023284912e-02,3.668293654918670654e-01,-1.843306869268417358e-01,-4.603937268257141113e-02,-1.498993188142776489e-01,1.083347499370574951e-01,1.713195294141769409e-01,-3.015315234661102295e-01
1.054398119449615479e-01,6.424840539693832397e-02,-2.736153081059455872e-02,-5.800566449761390686e-02,2.211154401302337646e-01,1.313221901655197144e-01,1.575614809989929199e-01,-2.839264273643493652e-01,-1.273342072963714600e-01,3.243978619575500488e-01,2.683250904083251953e-01,1.072450354695320129e-02,3.191269040107727051e-01,7.698304206132888794e-02,1.407709419727325439e-01,1.235747784376144409e-01
1.241428330540657043e-01,1.303433179855346680e-01,-3.759975731372833252e-02,3.589728474617004395e-02,-1.176598854362964630e-02,1.516021639108657837e-01,-4.858979955315589905e-03,5.021156743168830872e-02,1.981779932975769043e-01,3.019492886960506439e-02,-1.420847177505493164e-01,3.722864389419555664e-02,-1.814536154270172119e-01,-1.316524446010589600e-01,-6.351037323474884033e-02,-7.800301909446716309e-02
-3.772691637277603149e-02,-2.727845609188079834e-01,-3.303727209568023682e-01,2.972978055477142334e-01,-9.700117260217666626e-02,1.889757066965103149e-01,-1.988166198134422302e-02,2.467810809612274170e-01,-2.590480148792266846e-01,1.312372088432312012e-02,2.054070979356765747e-01,-1.926025301218032837e-01,4.665486514568328857e-02,2.536370456218719482e-01,3.398393746465444565e-03,-1.579205133020877838e-02
2.669597268104553223e-01,1.401299834251403809e-01,-3.290215134620666504e-01,4.985629618167877197e-01,1.722812950611114502e-01,-3.644241485744714737e-03,-9.446467272937297821e-03,-2.747718691825866699e-01,2.493547648191452026e-02,1.003913804888725281e-01,-1.024776324629783630e-01,-1.268294081091880798e-02,2.881790697574615479e-02,-5.736722797155380249e-02,-3.302791118621826172e-01,-1.794433593750000000e-01
-7.046791911125183105e-02,2.661927640438079834e-01,-3.421733081340789795e-01,4.981404170393943787e-02,9.398341923952102661e-02,2.928596735000610352e-01,-9.026589244604110718e-02,-1.124488934874534607e-01,-2.373743355274200439e-01,2.981551550328731537e-02,3.899388015270233154e-02,-3.266999125480651855e-02,-1.307545788586139679e-02,2.778170108795166016e-01,-1.137099489569664001e-01,1.982044577598571777e-01
4.194911941885948181e-02,-4.109494015574455261e-02,-4.430543631315231323e-02,3.507337346673011780e-02,-6.786316633224487305e-02,-1.873489767313003540e-01,-1.022885218262672424e-01,-6.654237210750579834e-02,2.365575879812240601e-01,3.129407018423080444e-02,-1.914847195148468018e-01,9.682892262935638428e-02,5.114485975354909897e-03,2.029905319213867188e-01,-2.496678233146667480e-01,7.360731065273284912e-02
-1.594971418380737305e-01,-1.321910470724105835e-01,1.921245753765106201e-01,-3.114107549190521240e-01,-1.979934126138687134e-01,2.771400511264801025e-01,3.010580539703369141e-01,2.073758989572525024e-01,-7.244500517845153809e-02,-2.004946619272232056e-01,-4.978184774518013000e-02,-2.281373441219329834e-01,-1.227618679404258728e-01,2.872672080993652344e-01,2.402688115835189819e-01,4.350462183356285095e-02
-1.145011484622955322e-01,-3.137936443090438843e-02,-1.681355983018875122e-01,-5.271568894386291504e-02,1.222953125834465027e-01,4.897191002964973450e-02,1.818628609180450439e-01,-2.626977395266294479e-03,-9.832917898893356323e-02,2.583709061145782471e-01,-2.368271537125110626e-02,1.850174516439437866e-01,2.219360321760177612e-01,3.713248670101165771e-01,1.188526675105094910e-01,1.494299173355102539e-01
-2.229004055261611938e-01,-9.137672185897827148e-02,2.511654198169708252e-01,-1.355565935373306274e-01,-3.292035311460494995e-02,-1.523361634463071823e-02,1.004935055971145630e-01,-1.481293439865112305e-01,-3.424609601497650146e-01,2.180919051170349121e-01,-2.092064619064331055e-01,2.610895633697509766e-01,2.044053375720977783e-02,3.755921721458435059e-01,-1.051495447754859924e-01,1.311269402503967285e-01
1.421058736741542816e-02,-4.678481072187423706e-02,5.602416023612022400e-02,1.059867069125175476e-01,2.273867430631071329e-04,-1.705397036857903004e-03,-3.638994647189974785e-03,1.369641125202178955e-01,-4.202060028910636902e-02,-6.223489716649055481e-02,3.246111795306205750e-03,9.036560356616973877e-02,-1.518781036138534546e-01,-1.231003776192665100e-01,1.545206606388092041e-01,-3.607935458421707153e-02
3.955429047346115112e-02,-3.395709991455078125e-01,1.457817759364843369e-02,-5.484002176672220230e-03,1.485500037670135498e-01,-2.120439894497394562e-02,-1.471726149320602417e-01,1.507477015256881714e-01,2.862505912780761719e-01,6.007624790072441101e-02,8.309454470872879028e-02,1.349524967372417450e-02,1.020426228642463684e-01,1.439398378133773804e-01,-1.224313154816627502e-01,-1.442265510559082031e-01
2.988103330135345459e-01,1.593612432479858398e-01,-2.879259884357452393e-01,9.618369489908218384e-02,2.549659833312034607e-02,-2.001109719276428223e-02,9.131131321191787720e-02,-5.517951026558876038e-02,-1.220900043845176697e-01,1.588778942823410034e-01,-3.247469663619995117e-01,4.396050423383712769e-02,6.547679007053375244e-02,-1.000024005770683289e-01,7.007244229316711426e-02,4.419651627540588379e-02
6.428943574428558350e-02,2.196601480245590210e-01,-4.459392651915550232e-02,2.803431153297424316e-01,-6.002042442560195923e-02,3.037805855274200439e-01,-5.292792618274688721e-02,-9.845546633005142212e-02,4.510225355625152588e-02,2.367363423109054565e-01,-1.900132745504379272e-02,-4.969228506088256836e-01,-1.678798496723175049e-01,-1.255394220352172852e-01,-8.205021172761917114e-02,-1.828018426895141602e-01
-3.832330182194709778e-02,9.955740720033645630e-02,7.620155066251754761e-02,2.282927483320236206e-01,1.571774184703826904e-01,-6.363705545663833618e-02,-1.135142818093299866e-01,2.148554772138595581e-01,-4.857383668422698975e-02,-2.109771817922592163e-01,-1.027007251977920532e-01,1.685152649879455566e-01,-5.428641662001609802e-02,-2.244128100574016571e-02,-1.019853204488754272e-01,2.185733169317245483e-01
-4.842959716916084290e-02,1.148080900311470032e-01,-8.741674572229385376e-02,1.999536305665969849e-01,8.989788591861724854e-03,-1.249262467026710510e-01,-1.183488890528678894e-01,8.708047866821289062e-02,8.354878425598144531e-02,2.707498371601104736e-01,3.113825432956218719e-02,8.204875141382217407e-02,9.864243865013122559e-02,5.330325290560722351e-02,8.776341378688812256e-02,-3.486971259117126465e-01
-2.058442384004592896e-01,-1.431557834148406982e-01,3.306212648749351501e-02,8.363365381956100464e-02,-1.264257580041885376e-01,-1.486082077026367188e-01,4.765314608812332153e-02,3.450109064579010010e-01,-2.332372590899467468e-03,-2.476413547992706299e-01,-1.238729208707809448e-01,-1.195769309997558594e-01,-8.732903003692626953e-02,-4.059553146362304688e-02,1.056052744388580322e-01,1.124894693493843079e-01
-7.177027314901351929e-02,3.731356188654899597e-02,-1.187792140990495682e-02,-1.508078724145889282e-01,4.014935344457626343e-02,1.734283752739429474e-02,2.310964018106460571e-01,-4.264692962169647217e-02,-3.868258893489837646e-01,9.835401922464370728e-02,7.115437835454940796e-02,-2.337995320558547974e-01,1.295413263142108917e-02,-7.590042054653167725e-02,3.176156058907508850e-02,4.207531735301017761e-02
-7.422646880149841309e-02,9.474899619817733765e-02,-1.342503726482391357e-01,-1.154862865805625916e-01,4.016281366348266602e-01,-1.991205215454101562e-01,2.664439082145690918e-01,-2.461679279804229736e-01,-3.947275280952453613e-01,8.576177060604095459e-02,-1.025403514504432678e-01,-1.575675755739212036e-01,1.382179111242294312e-01,7.475817203521728516e-02,5.871550366282463074e-02,1.843816637992858887e-01
-5.858385562896728516e-02,-2.379591763019561768e-01,1.036534160375595093e-01,-2.376745454967021942e-02,8.607686311006546021e-02,2.141691595315933228e-01,-2.297969907522201538e-01,2.216085344552993774e-01,1.786631643772125244e-01,-2.608170509338378906e-01,-8.985872566699981689e-02,8.690392225980758667e-02,4.797342419624328613e-02,7.266021519899368286e-02,-1.997909694910049438e-01,5.402458459138870239e-02
-8.823712170124053955e-02,-2.649527043104171753e-02,-8.354256302118301392e-02,-7.723879814147949219e-02,1.689262390136718750e-01,1.429864466190338135e-01,1.878467053174972534e-01,1.589831858873367310e-01,-1.390321254730224609e-01,8.441236615180969238e-02,9.326143562793731689e-02,-1.982859373092651367e-01,3.424974977970123291e-01,-1.331956535577774048e-01,2.127685397863388062e-01,1.949145346879959106e-01
3.925357162952423096e-01,-1.060347035527229309e-01,-1.168280616402626038e-01,1.594292670488357544e-01,-1.271688193082809448e-01,8.247514814138412476e-02,-1.906660199165344238e-01,-1.448413450270891190e-02,-2.870786935091018677e-02,1.945985853672027588e-01,-2.696318924427032471e-01,-1.011507492512464523e-02,-1.012741997838020325e-01,1.169616878032684326e-01,-6.225659325718879700e-02,-2.119463384151458740e-01
1.961887031793594360e-01,-2.084310352802276611e-01,-7.077097147703170776e-02,2.343850135803222656e-01,1.038575842976570129e-01,-2.696610614657402039e-02,-4.202190935611724854e-01,9.380886703729629517e-02,-2.336199767887592316e-02,8.682198822498321533e-02,-1.259542107582092285e-01,1.186836957931518555e-01,1.048711687326431274e-01,-2.519010901451110840e-01,-1.452420279383659363e-02,-8.813675493001937866e-03
-7.387395948171615601e-03,-4.990503191947937012e-03,1.361795216798782349e-01,-5.665273591876029968e-02,-8.797773718833923340e-02,4.399246245156973600e-04,1.706101698800921440e-03,7.704126834869384766e-02,-1.036718413233757019e-01,-1.580902189016342163e-01,4.618314653635025024e-02,-1.240026354789733887e-01,9.477793425321578979e-02,-1.014011204242706299e-01,-4.971353337168693542e-02,6.603945046663284302e-02
-2.734998241066932678e-02,-5.703074857592582703e-02,-1.244734972715377808e-01,-6.745830178260803223e-02,-4.459459800273180008e-03,-1.077253967523574829e-01,-7.121384888887405396e-02,-4.166220501065254211e-02,-9.850990027189254761e-02,-1.290864124894142151e-02,-3.811462968587875366e-02,-1.453929692506790161e-01,-9.471441060304641724e-02,-6.758782267570495605e-02,-1.654044985771179199e-01,-1.753140687942504883e-01
-2.186599075794219971e-01,-1.094687655568122864e-01,4.151158928871154785e-01,4.538695141673088074e-02,-2.055291682481765747e-01,2.087588459253311157e-01,-1.841842085123062134e-01,8.865460008382797241e-02,-1.781766675412654877e-02,2.052488550543785095e-02,1.401915401220321655e-01,-1.748418658971786499e-01,-7.337882183492183685e-03,1.196122169494628906e-02,1.114550977945327759e-01,1.015692055225372314e-01
1.417504996061325073e-01,2.928594313561916351e-02,-1.282495856285095215e-01,9.181147813796997070e-02,1.540436744689941406e-01,-6.803458929061889648e-02,4.537057504057884216e-02,-1.321009099483489990e-01,1.183621305972337723e-02,-6.724969297647476196e-02,5.480172578245401382e-03,-1.043360680341720581e-02,9.631654620170593262e-02,1.068567261099815369e-01,-1.402038037776947021e-01,-3.947860375046730042e-02
7.114877458661794662e-03,3.900889754295349121e-01,-1.681450307369232178e-01,-2.559226751327514648e-01,-1.203226484358310699e-02,-8.940536528825759888e-02,1.507112830877304077e-01,-5.174886584281921387e-01,3.621770069003105164e-02,-1.235624961555004120e-02,3.258416429162025452e-02,-2.544628977775573730e-01,8.188675343990325928e-02,8.005032688379287720e-02,-7.740348577499389648e-02,1.803623437881469727e-01
1.679754853248596191e-01,-1.573324576020240784e-02,2.488538995385169983e-02,-5.049875378608703613e-02,-8.479711599647998810e-03,-7.858249545097351074e-02,1.101585850119590759e-02,3.110004365444183350e-01,-1.229811832308769226e-01,-4.302410781383514404e-02,3.234550356864929199e-02,1.919729262590408325e-01,-1.304028928279876709e-01,-1.224305629730224609e-01,-1.076192557811737061e-01,-1.054854094982147217e-01
1.085023023188114166e-02,1.815417110919952393e-01,2.267511337995529175e-01,-3.015057444572448730e-01,-4.816189780831336975e-02,-1.572989821434020996e-01,1.259862035512924194e-01,7.486888766288757324e-02,-1.520970761775970459e-01,-8.276132494211196899e-02,-5.523565411567687988e-02,4.590877145528793335e-02,-2.569749206304550171e-02,-1.403862237930297852e-01,9.042838215827941895e-02,-1.497076451778411865e-02
2.100058645009994507e-01,-1.832021623849868774e-01,5.180249363183975220e-02,6.550261378288269043e-02,-1.468657702207565308e-01,-8.174399286508560181e-02,-1.916281282901763916e-01,-3.424362242221832275e-01,2.341303043067455292e-02,2.405746281147003174e-02,-5.370498821139335632e-02,3.978880122303962708e-03,7.709305733442306519e-02,2.198413759469985962e-02,1.395308673381805420e-01,2.481565475463867188e-01
2.946646511554718018e-01,3.404664248228073120e-02,1.460886001586914062e-01,1.439103037118911743e-01,4.525645822286605835e-02,6.137371063232421875e-02,4.551897197961807251e-02,-2.556766271591186523e-01,-2.741259336471557617e-01,-1.529999822378158569e-01,5.468935891985893250e-02,-7.414293289184570312e-02,-2.519046328961849213e-02,-3.982174769043922424e-02,1.136005446314811707e-01,-2.726444602012634277e-01
-3.703923895955085754e-02,1.063867956399917603e-01,1.120766326785087585e-01,-1.617347598075866699e-01,-2.188414931297302246e-01,4.364860802888870239e-02,-5.974026769399642944e-02,1.048921793699264526e-01,-2.958907932043075562e-02,-9.033928066492080688e-02,1.404503453522920609e-02,4.124680161476135254e-02,-5.281627550721168518e-02,-2.524491548538208008e-01,-9.720627963542938232e-02,1.193778589367866516e-01
-1.028971746563911438e-01,9.447035193443298340e-02,-1.763097010552883148e-02,-1.116614788770675659e-01,-2.199517190456390381e-01,1.307114362716674805e-01,5.172937735915184021e-02,-1.642626971006393433e-01,2.472514510154724121e-01,-1.440144032239913940e-01,2.183030545711517334e-01,-8.181946724653244019e-02,-1.145356446504592896e-01,2.079488039016723633e-01,-2.993653714656829834e-01,2.722271680831909180e-01
1.742633990943431854e-02,-3.507099449634552002e-01,1.270297765731811523e-01,-9.920827299356460571e-02,1.884373873472213745e-01,2.206950485706329346e-01,-2.219918668270111084e-01,2.299859523773193359e-01,-1.491155028343200684e-01,-1.995165944099426270e-01,-1.439147144556045532e-01,1.606514602899551392e-01,-9.377141296863555908e-02,-8.400069177150726318e-02,-6.145404651761054993e-02,3.216926008462905884e-02
-5.461722984910011292e-02,-2.258839607238769531e-01,3.423418104648590088e-01,-1.316321045160293579e-01,-2.192949652671813965e-01,-2.006599307060241699e-01,-2.160055562853813171e-02,-2.996230870485305786e-02,9.213645011186599731e-02,1.313125193119049072e-01,1.698748916387557983e-01,-9.075865149497985840e-02,-1.514568924903869629e-01,-1.663650909904390574e-04,1.188862770795822144e-01,-1.925614625215530396e-01
-7.516159862279891968e-02,6.150291115045547485e-02,-6.198512855917215347e-03,2.402682155370712280e-01,-2.407618612051010132e-01,3.726100549101829529e-02,-1.633722521364688873e-02,4.857304692268371582e-01,2.031399309635162354e-01,-3.195162862539291382e-02,2.963393554091453552e-02,-1.111342459917068481e-01,-3.186071217060089111e-01,7.851995527744293213e-02,1.341313123703002930e-01,4.046441316604614258e-01
-1.296813637018203735e-01,-1.452092826366424561e-01,3.394440934062004089e-02,4.088453948497772217e-02,1.569275557994842529e-01,-2.296099960803985596e-01,-6.311020255088806152e-02,-2.020203769207000732e-01,2.530381083488464355e-01,1.215685382485389709e-01,-5.635570362210273743e-02,-2.318595349788665771e-02,1.492836773395538330e-01,-9.152633138000965118e-03,-4.630016908049583435e-02,4.046339690685272217e-01
1.571068167686462402e-02,1.664566248655319214e-02,-8.533175289630889893e-02,1.649110615253448486e-01,3.970955684781074524e-02,-3.602569177746772766e-02,-8.360753208398818970e-02,-1.982342004776000977e-01,-4.277732223272323608e-02,-1.100737228989601135e-01,9.059279412031173706e-02,-5.244055390357971191e-02,9.352874755859375000e-02,-1.920801848173141479e-01,2.611112594604492188e-01,1.638972759246826172e-01
-2.907675318419933319e-02,3.906020522117614746e-01,-1.095776930451393127e-01,-1.077925041317939758e-01,-2.291777431964874268e-01,1.909589320421218872e-01,2.820767089724540710e-02,1.654368042945861816e-01,4.969131574034690857e-02,-2.694869786500930786e-02,4.349967092275619507e-02,3.155152499675750732e-01,-9.142945706844329834e-02,1.265580803155899048e-01,-7.411500811576843262e-02,-3.182062879204750061e-02
5.196821317076683044e-02,6.594270467758178711e-02,4.854144528508186340e-02,-6.671042740345001221e-02,1.255536973476409912e-01,-2.358111739158630371e-01,7.940507680177688599e-02,-2.503308933228254318e-03,5.998422950506210327e-02,-1.732583642005920410e-01,3.148876726627349854e-01,1.067604050040245056e-01,1.801455616950988770e-01,1.125905588269233704e-01,4.998104646801948547e-02,-2.818149924278259277e-01
-1.843952387571334839e-01,1.490553915500640869e-01,1.596577316522598267e-01,-1.591356247663497925e-01,-1.128716394305229187e-01,1.286486070603132248e-02,2.402012348175048828e-01,1.642572581768035889e-01,-6.814870983362197876e-02,1.089325621724128723e-01,9.709197282791137695e-02,-6.375399976968765259e-02,-2.128259539604187012e-01,2.156193256378173828e-01,-8.546969294548034668e-02,-9.342699497938156128e-02
-1.323658972978591919e-01,7.766165584325790405e-02,-1.136267110705375671e-01,-9.255565702915191650e-02,1.324850171804428101e-01,-1.510307192802429199e-02,-2.227216809988021851e-01,8.957568556070327759e-02,3.335604369640350342e-01,1.584992744028568268e-02,-1.429600920528173447e-02,-1.475404351949691772e-01,1.011655032634735107e-01,-1.194714102894067764e-02,-7.534934580326080322e-02,1.598149985074996948e-01
1.313140392303466797e-01,2.208739705383777618e-02,7.848664186894893646e-03,-3.091271035373210907e-02,-5.869595333933830261e-03,3.043787777423858643e-01,9.286846034228801727e-03,2.983343973755836487e-02,-3.740552663803100586e-01,1.550892144441604614e-01,-1.362798828631639481e-02,2.124401032924652100e-01,-1.214300282299518585e-02,1.499481312930583954e-02,1.527869701385498047e-01,1.288619786500930786e-01
-1.292302161455154419e-01,7.261827588081359863e-02,2.015111148357391357e-01,1.357078701257705688e-01,-5.708291381597518921e-02,-9.123335592448711395e-03,7.046855241060256958e-02,1.952607035636901855e-01,2.244150936603546143e-01,1.009688824415206909e-01,1.741540879011154175e-01,1.845871359109878540e-01,-2.034784853458404541e-02,-1.653471738100051880e-01,-5.270289722830057144e-03,-2.404654622077941895e-01
1.556888073682785034e-01,1.463975608348846436e-01,-4.376200214028358459e-02,-2.294494509696960449e-01,-1.060072928667068481e-01,2.328269630670547485e-01,-8.487576246261596680e-02,-5.051105841994285583e-02,-3.143949806690216064e-02,1.827514618635177612e-01,2.335169762372970581e-01,-2.037193626165390015e-03,-1.563978567719459534e-02,2.340524643659591675e-02,-5.905311927199363708e-02,3.971998021006584167e-02
-2.392954629613086581e-04,1.731233894824981689e-01,-1.929878145456314087e-01,1.611784547567367554e-01,-7.611700892448425293e-02,-2.482844442129135132e-01,-1.825204342603683472e-01,9.278929978609085083e-02,2.248259633779525757e-02,-9.153095632791519165e-02,2.177579328417778015e-02,-2.919354140758514404e-01,-3.951354324817657471e-01,1.784349083900451660e-01,-1.595067232847213745e-01,7.115138322114944458e-02
1.929739266633987427e-01,-1.405849605798721313e-01,-1.886387914419174194e-02,2.406904846429824829e-01,2.222108691930770874e-01,1.336985379457473755e-01,-2.435661107301712036e-01,2.402886152267456055e-01,1.239614039659500122e-01,-5.982201546430587769e-02,-5.542699247598648071e-02,1.383974552154541016e-01,5.627547204494476318e-02,-2.428553253412246704e-01,5.265969038009643555e-02,-9.998287260532379150e-02
6.722094118595123291e-02,3.211779892444610596e-02,1.900418400764465332e-01,-1.661509424448013306e-01,1.514967083930969238e-01,-8.619587868452072144e-02,2.299175709486007690e-01,-1.839779615402221680e-01,-1.900486275553703308e-02,-1.036326140165328979e-01,-2.574509382247924805e-01,-1.170353218913078308e-02,2.601352035999298096e-01,1.593239903450012207e-01,4.117166623473167419e-02,1.736016273498535156e-01
4.679407179355621338e-02,1.169351711869239807e-01,-2.883153259754180908e-01,3.066893853247165680e-02,-4.627466201782226562e-01,-2.919231951236724854e-01,-3.822613060474395752e-01,-1.775351166725158691e-02,1.834919005632400513e-01,1.756603568792343140e-01,1.805059462785720825e-01,-2.057474851608276367e-01,-2.411785572767257690e-01,-6.029303371906280518e-02,7.738476991653442383e-02,1.889636814594268799e-01
1.928841769695281982e-01,4.357089996337890625e-01,-1.690530776977539062e-01,1.519024372100830078e-01,3.376198187470436096e-02,8.175887912511825562e-02,-1.634636819362640381e-01,1.519229076802730560e-02,1.362985819578170776e-01,7.875701785087585449e-02,-3.063846826553344727e-01,-6.082941964268684387e-02,2.706743963062763214e-02,1.508869528770446777e-01,4.918787181377410889e-01,7.934574037790298462e-02
-9.856940060853958130e-02,3.545926511287689209e-02,-1.030471473932266235e-01,-7.392141968011856079e-02,9.383395314216613770e-02,1.557404734194278717e-02,4.404104501008987427e-02,2.634783275425434113e-02,9.704153053462505341e-03,1.654489524662494659e-02,3.081585280597209930e-02,7.188812643289566040e-02,-4.068250209093093872e-02,-4.296194389462471008e-02,-1.204304173588752747e-01,-1.783433407545089722e-01
9.958646446466445923e-02,-1.729819923639297485e-01,-5.249970778822898865e-02,1.192009449005126953e-01,2.510994076728820801e-01,-2.903085574507713318e-02,-3.982906229794025421e-03,6.456428766250610352e-02,4.379964992403984070e-02,3.697938099503517151e-02,-1.301567256450653076e-01,-9.728153795003890991e-02,9.888719767332077026e-03,-7.291369885206222534e-02,8.927511423826217651e-02,-4.597935825586318970e-02
-1.452680975198745728e-01,-1.075116824358701706e-02,-3.650306025519967079e-03,1.560260653495788574e-01,-4.582607746124267578e-02,2.242239862680435181e-01,-1.525404751300811768e-01,5.145561695098876953e-01,-3.179265186190605164e-02,-1.060933545231819153e-01,3.901892527937889099e-02,1.686588376760482788e-01,-5.513573996722698212e-03,1.060685589909553528e-01,9.468539804220199585e-02,-2.111324667930603027e-02
-1.417966634035110474e-01,3.293974399566650391e-01,-2.054412150755524635e-03,-5.792268738150596619e-02,-1.949810236692428589e-02,4.341910183429718018e-01,-1.414614021778106689e-01,-5.040774866938591003e-02,-3.173028826713562012e-01,-1.615793853998184204e-01,1.112645957618951797e-02,1.651189923286437988e-01,-8.942641317844390869e-02,-2.434596568346023560e-01,7.426004856824874878e-02,1.114210635423660278e-01
-2.308106273412704468e-01,1.161949113011360168e-01,-1.193134263157844543e-01,3.001224435865879059e-02,-5.146855860948562622e-02,-8.455307036638259888e-02,1.473731845617294312e-01,-1.206950321793556213e-01,1.766134500503540039e-01,-5.691852048039436340e-02,-7.383017987012863159e-02,4.193424060940742493e-02,-3.781443536281585693e-01,-1.843848377466201782e-01,-1.136257350444793701e-01,3.054841235280036926e-02
1.581347733736038208e-01,6.284821033477783203e-02,-6.533056497573852539e-02,2.764309346675872803e-01,5.353001132607460022e-02,-1.010253429412841797e-01,1.997541077435016632e-02,-9.079493582248687744e-02,-3.261761367321014404e-01,-2.542663365602493286e-02,5.874568969011306763e-02,1.484375000000000000e-01,-1.853760518133640289e-02,-1.277922838926315308e-01,1.729978471994400024e-01,-2.117062918841838837e-02
-2.346608340740203857e-01,7.703258097171783447e-02,1.691248118877410889e-01,-1.371310651302337646e-01,-1.211783364415168762e-01,3.851635158061981201e-01,-7.251269370317459106e-02,-7.239783555269241333e-02,-4.998227059841156006e-01,4.175758734345436096e-02,8.749820291996002197e-03,1.040966995060443878e-02,-2.014547884464263916e-01,3.100988864898681641e-01,-8.239428699016571045e-02,1.547706574201583862e-01
4.731798544526100159e-02,-6.871728692203760147e-03,1.068633198738098145e-01,-9.497224539518356323e-02,6.402059644460678101e-02,-2.186360359191894531e-01,7.523555308580398560e-02,-3.285805881023406982e-02,4.701753705739974976e-02,-1.524759531021118164e-01,-1.751111447811126709e-01,-1.327621191740036011e-01,5.278932675719261169e-02,-2.620896697044372559e-01,-2.679716050624847412e-01,-3.850146755576133728e-02
-3.184927105903625488e-01,-2.588403411209583282e-02,9.631871432065963745e-02,-1.924055367708206177e-01,1.526130735874176025e-01,-2.419503927230834961e-01,9.032770991325378418e-03,-1.953869462013244629e-01,1.323883384466171265e-01,-1.015122681856155396e-01,-2.597188949584960938e-01,-6.787193566560745239e-02,-4.962583258748054504e-02,1.438813805580139160e-01,-2.592597156763076782e-02,-6.963818520307540894e-02
1.282541304826736450e-01,1.564044654369354248e-01,-2.488447278738021851e-01,-1.031438186764717102e-01,9.237121045589447021e-02,-1.263157464563846588e-02,-7.750311400741338730e-03,-1.910335868597030640e-01,7.970716059207916260e-02,1.859302632510662079e-02,9.548677504062652588e-02,1.678225696086883545e-01,-1.313239187002182007e-01,9.136389009654521942e-03,-6.740599870681762695e-02,-2.418874949216842651e-01
-6.185451522469520569e-02,-3.107624650001525879e-01,-3.891259729862213135e-01,1.803538352251052856e-01,1.979341804981231689e-01,-5.086546018719673157e-02,-1.909074559807777405e-02,2.592847496271133423e-02,1.043816730380058289e-01,-1.489546149969100952e-01,-1.651982367038726807e-01,-2.797242701053619385e-01,-5.329394713044166565e-03,-1.215530484914779663e-01,-1.012415885925292969e-01,-7.219396531581878662e-02
1.189779862761497498e-01,3.790635168552398682e-01,-5.344613268971443176e-02,-6.743250042200088501e-02,-1.149790808558464050e-01,1.797098666429519653e-02,1.595286279916763306e-01,-1.249178871512413025e-01,-1.863574236631393433e-02,-2.821746282279491425e-02,-5.397618934512138367e-02,-2.795411273837089539e-03,-1.017206721007823944e-02,-1.717713177204132080e-01,-9.042395651340484619e-02,-9.510358422994613647e-02
1.360412407666444778e-02,2.219957262277603149e-01,1.510380655527114868e-01,1.845830827951431274e-01,-2.387696802616119385e-01,1.959486166015267372e-03,-1.281212419271469116e-01,2.772324979305267334e-01,4.223067313432693481e-02,-2.549771964550018311e-01,-7.193237543106079102e-02,6.324296444654464722e-02,2.570788189768791199e-02,-3.301379084587097168e-02,-7.670081406831741333e-02,-6.391778588294982910e-02
-1.185095533728599548e-01,-3.188882172107696533e-01,4.571818187832832336e-02,3.357592597603797913e-02,-1.714317360892891884e-03,-1.767205446958541870e-01,-2.820075256749987602e-03,-1.310932189226150513e-01,-5.813329666852951050e-02,2.143059372901916504e-01,-1.561674326658248901e-01,-1.917290836572647095e-01,3.601589426398277283e-02,4.291002824902534485e-02,2.279821038246154785e-01,1.029049232602119446e-01
-1.515942513942718506e-01,-1.265108436346054077e-01,3.719880478456616402e-03,3.357131779193878174e-01,8.271446079015731812e-02,-1.219563484191894531e-01,-9.559278190135955811e-02,-8.261139504611492157e-03,-8.962477743625640869e-02,2.840631008148193359e-01,-1.841007322072982788e-01,-1.202648803591728210e-01,-2.593446522951126099e-02,1.885411292314529419e-01,7.445632480084896088e-03,2.287155538797378540e-01
2.755834162235260010e-01,5.237215012311935425e-02,1.199892982840538025e-01,-4.474996402859687805e-02,-4.730565100908279419e-02,1.076059043407440186e-01,-2.692740038037300110e-02,2.218222618103027344e-01,3.678316473960876465e-01,6.892904057167470455e-04,-6.591365486383438110e-02,-1.322983205318450928e-01,-8.358477801084518433e-02,-1.174107119441032410e-01,1.922739744186401367e-01,-1.954979300498962402e-01
-2.821524739265441895e-01,-2.871005237102508545e-01,-1.937498003244400024e-01,2.917516417801380157e-02,9.904108196496963501e-02,-1.878384128212928772e-02,-6.694157421588897705e-02,-4.750766232609748840e-02,2.396830543875694275e-02,-1.275019943714141846e-01,-2.586786150932312012e-01,-4.897993430495262146e-02,3.463585078716278076e-01,1.081102192401885986e-01,-8.803148567676544189e-02,-1.075893342494964600e-01
-1.757739633321762085e-01,-1.646307259798049927e-01,3.713478147983551025e-01,6.759656220674514771e-02,-7.272171229124069214e-02,-3.050025366246700287e-02,-7.303752005100250244e-02,6.780671328306198120e-02,-3.340340852737426758e-01,-2.289122194051742554e-01,-1.366716325283050537e-01,-6.953592598438262939e-02,-1.648048609495162964e-01,-3.018125295639038086e-01,1.073283515870571136e-02,-1.023462414741516113e-02
-5.107710883021354675e-02,-1.344533562660217285e-01,1.466381922364234924e-02,-3.574834764003753662e-01,1.255453079938888550e-01,1.037491410970687866e-01,2.062234878540039062e-01,4.105532541871070862e-02,-2.327460944652557373e-01,-1.661723852157592773e-01,1.608764678239822388e-01,-1.401064638048410416e-02,-1.142402514815330505e-01,1.590850055217742920e-01,-5.735578387975692749e-02,-1.430497877299785614e-02
-7.463169097900390625e-02,1.706657111644744873e-01,-3.461242914199829102e-01,-2.543520331382751465e-01,4.364432692527770996e-01,-3.940978273749351501e-02,2.323310822248458862e-01,3.081386089324951172e-01,-4.705686867237091064e-02,-8.427584916353225708e-02,-2.080802470445632935e-01,4.532796144485473633e-02,3.932558000087738037e-02,1.644797772169113159e-01,-1.991675943136215210e-01,-1.255664825439453125e-01
3.856969624757766724e-02,7.746493816375732422e-02,1.482735723257064819e-01,-2.520528249442577362e-02,9.776796400547027588e-02,2.451893687248229980e-01,-5.387968197464942932e-02,-2.928771376609802246e-01,-2.049630507826805115e-02,-2.402329742908477783e-01,-6.464891880750656128e-02,-2.816232740879058838e-01,-2.565213739871978760e-01,2.443896420300006866e-02,-3.053573668003082275e-01,-1.165506765246391296e-01
-7.560711354017257690e-02,7.351543009281158447e-02,8.615087717771530151e-02,-2.747047841548919678e-01,6.189560052007436752e-03,1.251168400049209595e-01,-1.226999983191490173e-01,9.319332987070083618e-02,-9.778674691915512085e-02,2.532159388065338135e-01,-9.562096744775772095e-02,-1.727603226900100708e-01,5.911252461373806000e-03,-5.969032272696495056e-02,1.247602179646492004e-01,6.228614598512649536e-02
1.631044149398803711e-01,1.613163389265537262e-02,-1.113437935709953308e-01,1.946100890636444092e-01,2.489574626088142395e-02,-2.790164649486541748e-01,6.452331691980361938e-02,-2.158241868019104004e-01,-4.452669527381658554e-03,1.188988164067268372e-01,1.116269081830978394e-02,1.827605664730072021e-01,-1.204751580953598022e-01,-6.461572647094726562e-02,1.492276415228843689e-02,-1.576199531555175781e-01
-3.144204616546630859e-01,4.698748886585235596e-02,-8.307066746056079865e-03,-9.254629164934158325e-02,2.343333363533020020e-01,-2.235012874007225037e-02,1.134732924401760101e-02,1.724050045013427734e-01,1.030601486563682556e-01,2.285031415522098541e-02,6.690889596939086914e-02,-8.504753559827804565e-02,1.615960448980331421e-01,8.026854693889617920e-02,7.962136715650558472e-02,-1.567585170269012451e-01
3.268554061651229858e-02,-6.545005738735198975e-02,6.430814415216445923e-02,5.255991593003273010e-02,3.359442353248596191e-01,-1.327509526163339615e-03,-4.486756026744842529e-02,-9.809615090489387512e-03,-8.037921190261840820e-01,2.345247566699981689e-02,4.682514350861310959e-03,1.815253347158432007e-01,-1.431933045387268066e-02,3.484744578599929810e-02,1.506549566984176636e-01,-1.488901525735855103e-01
-2.186652421951293945e-01,4.661908897105604410e-04,2.447736561298370361e-01,-4.996830597519874573e-02,8.918687701225280762e-02,-5.498212948441505432e-02,-2.046787887811660767e-01,1.346418708562850952e-01,-2.877494096755981445e-01,1.276035457849502563e-01,-5.801063776016235352e-02,2.077700346708297729e-01,-1.535964608192443848e-01,3.661803007125854492e-01,-3.014141917228698730e-01,7.432513684034347534e-02
-5.315147712826728821e-02,-1.192068913951516151e-03,1.254705786705017090e-01,2.813167273998260498e-01,-1.525280475616455078e-01,-4.509273171424865723e-02,-1.628330200910568237e-01,-4.373606741428375244e-01,3.650246560573577881e-02,-1.676208376884460449e-01,-1.857975423336029053e-01,2.443594299256801605e-02,5.863100290298461914e-02,-2.092415541410446167e-01,-1.172873601317405701e-01,-3.535363674163818359e-01
-6.003235280513763428e-02,1.657467037439346313e-01,1.665820330381393433e-01,2.056948691606521606e-01,7.494454830884933472e-02,-1.510820239782333374e-01,-1.609285324811935425e-01,1.100196018815040588e-01,9.567604213953018188e-02,-2.669775858521461487e-02,2.592674493789672852e-01,1.244473904371261597e-01,-5.708280205726623535e-02,6.606055796146392822e-02,-1.374322324991226196e-01,7.147437334060668945e-02
2.322382181882858276e-01,-1.824169009923934937e-01,1.048213243484497070e-02,6.828187406063079834e-02,1.831875145435333252e-01,9.545395523309707642e-02,8.137745410203933716e-02,1.480910181999206543e-01,-1.958740651607513428e-01,1.833592206239700317e-01,-6.402043998241424561e-02,-1.364059001207351685e-01,-3.548300266265869141e-02,-1.753435879945755005e-01,3.701342269778251648e-02,-4.159561917185783386e-02
-4.033331573009490967e-01,-1.657525300979614258e-01,-1.845624595880508423e-01,-1.936383694410324097e-01,1.255286484956741333e-01,4.115171905141323805e-04,-1.174077615141868591e-01,2.062451392412185669e-01,3.239464759826660156e-01,2.493028640747070312e-01,-5.119312182068824768e-02,-1.622003614902496338e-01,-6.457168608903884888e-02,-2.361097559332847595e-02,-1.423227638006210327e-01,-2.018951475620269775e-01
-3.541174530982971191e-02,-1.704592257738113403e-01,-1.772657036781311035e-01,1.714376360177993774e-01,9.670116752386093140e-02,4.930974915623664856e-02,9.273899346590042114e-02,-1.349141448736190796e-01,-7.724211551249027252e-03,-2.608342468738555908e-02,-5.279156938195228577e-02,-1.542001497000455856e-02,4.929418116807937622e-02,3.077967464923858643e-01,2.095267362892627716e-02,-4.382789507508277893e-02
-5.329252406954765320e-02,1.357913017272949219e-01,1.761303395032882690e-01,2.364635765552520752e-01,-2.417989969253540039e-01,6.057297438383102417e-02,-3.566794469952583313e-02,-1.590121090412139893e-01,3.100440837442874908e-02,1.805787831544876099e-01,-1.839082986116409302e-01,9.455056488513946533e-02,1.035204976797103882e-01,2.863580286502838135e-01,2.433919608592987061e-01,1.027059629559516907e-01
-1.200635582208633423e-01,2.023757398128509521e-01,-1.747057586908340454e-01,-2.192468047142028809e-01,-2.149870246648788452e-01,-1.568180769681930542e-01,-9.557832777500152588e-02,3.205218166112899780e-02,2.389051616191864014e-01,-5.136718973517417908e-02,-5.770631507039070129e-02,9.049163758754730225e-02,-9.383460134267807007e-02,-1.791062392294406891e-02,2.245118618011474609e-01,2.274928689002990723e-01
-1.383684575557708740e-01,-3.266742825508117676e-02,-2.671623826026916504e-01,6.183142960071563721e-02,-1.169665306806564331e-01,-9.552348405122756958e-02,-8.936467021703720093e-02,-3.465471565723419189e-01,2.416398376226425171e-01,1.091871857643127441e-01,1.611399352550506592e-01,2.988621890544891357e-01,-3.288228064775466919e-02,3.051904141902923584e-01,-2.145692259073257446e-01,7.401735335588455200e-02
2.441903762519359589e-02,-1.179433614015579224e-01,-4.204697161912918091e-02,2.787809446454048157e-02,-1.779655516147613525e-01,2.794013321399688721e-01,-1.988444179296493530e-01,3.568640351295471191e-02,4.200542718172073364e-02,7.230480015277862549e-02,-2.333955913782119751e-01,1.793475151062011719e-01,2.679670155048370361e-01,9.866303205490112305e-02,1.771008362993597984e-03,-6.682378053665161133e-02
-1.484097391366958618e-01,9.910016320645809174e-03,-2.055282294750213623e-01,-1.286844909191131592e-01,5.916231311857700348e-03,-8.116754144430160522e-02,2.570501565933227539e-01,2.491209357976913452e-01,1.776322126388549805e-01,8.272273093461990356e-02,-3.003115393221378326e-02,-2.777937650680541992e-01,-4.273397922515869141e-01,4.049181565642356873e-02,1.538554131984710693e-01,-3.317678347229957581e-02
-2.977460026741027832e-01,-4.784074425697326660e-02,9.193596243858337402e-02,-3.675409257411956787e-01,1.189792305231094360e-01,3.010499775409698486e-01,1.746954470872879028e-01,3.591198623180389404e-01,1.302072498947381973e-02,-5.519271641969680786e-02,5.848938971757888794e-02,-2.901348471641540527e-02,1.426181644201278687e-01,7.872536778450012207e-02,1.659402064979076385e-02,2.137828618288040161e-01
6.727989763021469116e-02,-1.724824309349060059e-01,2.223251014947891235e-01,-1.431481689214706421e-01,8.963133394718170166e-02,-1.122015118598937988e-01,1.240394562482833862e-01,-1.826302409172058105e-01,-9.758478403091430664e-02,1.722588203847408295e-02,2.105538696050643921e-01,-4.680753219872713089e-03,8.023262768983840942e-02,1.441961899399757385e-02,-6.685344874858856201e-02,3.379586040973663330e-01
1.256002634763717651e-01,-4.596213996410369873e-02,-1.223508045077323914e-01,-9.674910455942153931e-02,2.323633059859275818e-02,2.723770439624786377e-01,1.432344615459442139e-01,5.399052426218986511e-02,1.099103987216949463e-01,9.589000791311264038e-02,-6.721112877130508423e-02,2.593524158000946045e-01,-1.162899509072303772e-01,2.399147003889083862e-01,-3.169912993907928467e-01,-1.127786263823509216e-01
3.421221673488616943e-02,-8.793679624795913696e-02,-1.701185256242752075e-01,-2.676028199493885040e-02,9.037399291992187500e-02,9.867332410067319870e-04,-4.935365635901689529e-03,-2.276065051555633545e-01,8.570891618728637695e-02,1.005890965461730957e-02,4.647712036967277527e-02,-3.486071713268756866e-03,2.313339561223983765e-01,2.670715935528278351e-02,7.252137362957000732e-02,9.096716344356536865e-02
-2.861523814499378204e-02,1.439354382455348969e-02,-1.320384144783020020e-01,6.352323293685913086e-02,1.433331072330474854e-01,2.183715403079986572e-01,-4.780642688274383545e-02,-2.223197966814041138e-01,-1.239957287907600403e-02,2.132232040166854858e-01,1.636376082897186279e-01,-1.269812732934951782e-01,-7.215645164251327515e-02,1.477274745702743530e-01,-9.220913797616958618e-02,4.423075541853904724e-02
1.541101932525634766e-01,2.856975197792053223e-01,-6.137936562299728394e-02,1.134050544351339340e-02,-1.982640661299228668e-02,-1.162615343928337097e-01,9.634596109390258789e-02,2.335223555564880371e-01,6.392320990562438965e-02,-4.889934360980987549e-01,-2.872031331062316895e-01,2.050307542085647583e-01,-1.815078854560852051e-01,-5.141797289252281189e-02,-8.994193375110626221e-02,-1.780868470668792725e-01
8.912303298711776733e-02,5.801969021558761597e-02,-9.812391549348831177e-02,9.717427194118499756e-02,5.813618004322052002e-02,-1.533298641443252563e-01,3.667103825137019157e-03,1.842630207538604736e-01,4.547457993030548096e-01,-1.259488239884376526e-02,1.772122457623481750e-02,2.929123342037200928e-01,-2.195647954940795898e-01,-2.371024042367935181e-01,6.290427595376968384e-02,-2.140883505344390869e-01
-3.052220344543457031e-01,1.225422602146863937e-02,1.573847047984600067e-02,1.916293650865554810e-01,9.322035312652587891e-02,5.878945440053939819e-02,4.702458903193473816e-02,-5.480539798736572266e-02,-4.090366959571838379e-01,2.348986119031906128e-01,2.282909601926803589e-01,1.287109404802322388e-01,-8.842201530933380127e-02,1.932511925697326660e-01,8.807170391082763672e-02,5.957175046205520630e-02
1.139775384217500687e-02,-2.285510599613189697e-01,8.673186413943767548e-03,-1.116320583969354630e-02,5.987699702382087708e-02,1.881362311542034149e-02,-1.238787025213241577e-01,5.530137568712234497e-02,-5.404185131192207336e-02,-1.756516993045806885e-01,-5.587239935994148254e-02,1.072586923837661743e-01,2.509882450103759766e-01,1.176509410142898560e-01,-1.357119381427764893e-01,1.485085040330886841e-01
-3.637639880180358887e-01,2.178932428359985352e-01,9.271451272070407867e-03,1.700517684221267700e-01,-2.365724742412567139e-01,1.217971891164779663e-01,3.599314764142036438e-02,-2.845025360584259033e-01,-6.387203186750411987e-02,-1.534844487905502319e-01,-2.286489866673946381e-02,-1.388222128152847290e-01,-2.749496996402740479e-01,2.628453671932220459e-01,2.699513919651508331e-02,-8.650778234004974365e-02
1.475443542003631592e-01,5.059830844402313232e-02,1.753031313419342041e-01,1.014786064624786377e-01,-2.908413112163543701e-02,-3.952386975288391113e-02,5.954967439174652100e-02,1.644125580787658691e-01,1.918466761708259583e-02,6.285616755485534668e-02,6.036172807216644287e-02,-1.406413409858942032e-02,1.081682592630386353e-01,-6.765786558389663696e-02,2.023317813873291016e-01,3.679473698139190674e-02
-1.642713397741317749e-01,-6.234343722462654114e-02,1.631885617971420288e-01,-8.168976008892059326e-02,-1.882307380437850952e-01,5.893071740865707397e-02,-1.577087305486202240e-02,7.428943365812301636e-02,1.426007878035306931e-02,-2.066583931446075439e-01,-1.984021514654159546e-01,-8.449183404445648193e-02,-1.901985704898834229e-01,-4.642501473426818848e-02,-9.845788776874542236e-02,-8.950866013765335083e-02
9.935042262077331543e-02,-4.136122297495603561e-03,2.562310360372066498e-02,-2.919061481952667236e-01,9.410525113344192505e-02,-8.397297002375125885e-03,-3.576384857296943665e-02,-1.867342367768287659e-02,-5.178370699286460876e-02,-5.032826662063598633e-01,1.823531389236450195e-01,-7.174988836050033569e-02,-8.768406510353088379e-02,-4.514286220073699951e-01,2.124268859624862671e-01,-3.343849675729870796e-04
-1.033993363380432129e-01,1.410924345254898071e-01,-1.848277002573013306e-01,5.790559202432632446e-02,1.712290197610855103e-01,1.101065147668123245e-02,-6.184787303209304810e-02,-4.066462814807891846e-02,-1.268998831510543823e-01,1.170347929000854492e-01,2.823317982256412506e-02,1.508161332458257675e-02,1.177837401628494263e-01,6.443013902753591537e-03,1.939050257205963135e-01,-3.131159394979476929e-02
2.598031982779502869e-02,-1.248508393764495850e-01,1.266691833734512329e-01,1.571336090564727783e-01,-3.424590453505516052e-02,1.842843741178512573e-01,-1.524257212877273560e-01,6.480941176414489746e-02,5.331760272383689880e-02,-1.817304790019989014e-01,4.745267331600189209e-02,-4.202846437692642212e-02,-9.268496930599212646e-02,8.162561804056167603e-02,6.370735913515090942e-02,2.061011344194412231e-01
1.182374581694602966e-01,7.667884230613708496e-02,-1.659955233335494995e-01,1.722471863031387329e-01,2.905497327446937561e-02,-7.421867549419403076e-02,3.546242788434028625e-02,-1.864778995513916016e-01,-3.124753832817077637e-01,1.528338640928268433e-01,-2.561195939779281616e-02,-8.206208050251007080e-02,6.806324422359466553e-02,-9.883898496627807617e-02,7.272060215473175049e-02,-2.144697010517120361e-01
-3.280435204505920410e-01,-1.696437224745750427e-02,4.369504377245903015e-02,-9.912271052598953247e-02,2.733299694955348969e-02,1.074899286031723022e-01,-7.341091334819793701e-02,4.598054289817810059e-02,1.468729674816131592e-01,8.934997022151947021e-02,-6.488522887229919434e-02,-2.783868089318275452e-02,-2.136831432580947876e-01,1.457024812698364258e-01,2.676903270184993744e-02,5.473443493247032166e-02
6.557476520538330078e-02,8.203258365392684937e-02,4.304710030555725098e-02,-2.601808309555053711e-01,3.183383494615554810e-02,1.772830784320831299e-01,8.422792702913284302e-02,-2.714506089687347412e-01,-2.573187351226806641e-01,-1.798300258815288544e-02,1.674100160598754883e-01,2.252260148525238037e-01,-2.796101570129394531e-01,3.508603274822235107e-01,1.383350491523742676e-01,1.829528659582138062e-01
1.984523087739944458e-01,9.930565953254699707e-02,-5.378090217709541321e-02,-5.513730272650718689e-02,5.143773555755615234e-02,1.492562294006347656e-01,-4.238060209900140762e-03,1.179116889834403992e-01,8.808634430170059204e-02,5.409139022231101990e-02,-6.991425901651382446e-02,-8.416286855936050415e-02,-2.663101255893707275e-02,-2.361835241317749023e-01,-3.447280451655387878e-02,-1.433021128177642822e-01
3.424226772040128708e-03,-9.616920351982116699e-02,1.636353582143783569e-01,5.971475690603256226e-02,-9.751026332378387451e-02,3.154275007545948029e-03,-2.039439678192138672e-01,-5.428072810173034668e-02,2.150087803602218628e-02,-7.115945965051651001e-02,7.687123864889144897e-02,1.629585772752761841e-01,2.083802036941051483e-02,4.476758465170860291e-02,2.065315842628479004e-01,1.095234006643295288e-01
-6.963139027357101440e-02,-8.280817419290542603e-02,-1.233325526118278503e-01,-5.717043764889240265e-03,-2.737930510193109512e-03,-1.256129443645477295e-01,-1.845578551292419434e-01,-4.616571590304374695e-02,-1.524380594491958618e-01,-1.222620829939842224e-01,-1.489330232143402100e-01,-8.106851577758789062e-02,-2.592374756932258606e-02,-6.087227165699005127e-02,4.645193368196487427e-02,-1.219435110688209534e-01
-2.345196902751922607e-01,4.370272532105445862e-02,7.589742541313171387e-02,1.065486520528793335e-01,1.501737385988235474e-01,-7.860463857650756836e-02,-2.240666598081588745e-01,1.137517988681793213e-01,7.295310497283935547e-02,2.494637966156005859e-01,1.494691241532564163e-02,-7.819597423076629639e-02,9.237705916166305542e-02,-1.133093163371086121e-01,-6.340985000133514404e-02,7.242671214044094086e-03
1.924648135900497437e-01,-2.350816726684570312e-01,-8.902394026517868042e-02,1.440453529357910156e-01,1.702742278575897217e-01,-3.722097352147102356e-02,-5.652406811714172363e-02,-1.548018604516983032e-01,-1.806977987289428711e-01,-1.670911461114883423e-01,-1.342995613813400269e-01,2.204717993736267090e-01,-9.244643151760101318e-02,5.048971250653266907e-02,-9.277755767107009888e-02,-9.278172254562377930e-02
-3.065838813781738281e-01,3.105739504098892212e-02,-7.168713212013244629e-02,-1.081849932670593262e-01,7.829178869724273682e-02,3.422274067997932434e-02,3.335406482219696045e-01,-2.692106366157531738e-01,-3.113537132740020752e-01,3.115590810775756836e-01,-5.402587354183197021e-02,-3.282980620861053467e-02,3.529911339282989502e-01,-2.682247385382652283e-02,2.348407171666622162e-02,-8.538436144590377808e-02
-1.970810582861304283e-03,2.401821017265319824e-01,-4.790405333042144775e-01,2.035496197640895844e-02,-5.765730515122413635e-02,-1.305871456861495972e-01,9.149643778800964355e-02,-9.191332012414932251e-02,2.240113019943237305e-01,2.052767723798751831e-01,-2.522351443767547607e-01,4.612432327121496201e-03,-1.333357840776443481e-01,2.154823988676071167e-01,-1.486307978630065918e-01,1.680757105350494385e-02
7.673205435276031494e-02,7.850345224142074585e-02,-3.544513881206512451e-01,-1.098122745752334595e-01,1.028742864727973938e-01,-2.792611122131347656e-01,-1.772494316101074219e-01,-2.966133952140808105e-01,-8.464386314153671265e-02,-6.633335351943969727e-02,-4.008211567997932434e-02,6.790737807750701904e-02,1.164647415280342102e-01,3.943207487463951111e-02,-1.824381351470947266e-01,1.859468466136604548e-04
7.951219379901885986e-02,-1.033584848046302795e-01,4.227650761604309082e-01,-1.484223753213882446e-01,-2.265481464564800262e-02,1.414536684751510620e-02,-8.622845262289047241e-02,-1.678745448589324951e-01,1.245506033301353455e-01,4.229923784732818604e-01,1.435251384973526001e-01,1.363318860530853271e-01,1.735432744026184082e-01,9.894469380378723145e-02,-1.141643226146697998e-01,-2.711334265768527985e-02
-5.514839291572570801e-02,1.800963282585144043e-01,-1.385345458984375000e-01,-6.918904930353164673e-02,-3.454821407794952393e-01,4.605433940887451172e-01,-8.222115784883499146e-02,3.202290460467338562e-02,1.392256468534469604e-01,-1.031911745667457581e-02,-2.362910360097885132e-01,-3.366391733288764954e-02,-1.780723035335540771e-01,2.287254109978675842e-02,-1.404924243688583374e-01,-6.818334758281707764e-02
2.913778088986873627e-02,1.749445684254169464e-02,-9.436683356761932373e-02,-1.257453709840774536e-01,-1.419639098457992077e-03,-1.175996735692024231e-01,1.576336771249771118e-01,1.693214178085327148e-01,-1.133061423897743225e-01,-2.114039212465286255e-01,6.112656742334365845e-02,2.947221696376800537e-01,1.132573839277029037e-02,8.910550922155380249e-02,-1.989573836326599121e-01,-8.587019518017768860e-03
-6.612102687358856201e-02,1.845569908618927002e-01,-6.052736937999725342e-02,1.666802316904067993e-01,-7.527894526720046997e-02,-1.141098067164421082e-01,1.813777685165405273e-01,-2.890538871288299561e-01,2.577160485088825226e-02,-1.470395475625991821e-01,-1.035014167428016663e-01,-9.309309720993041992e-02,-1.449485495686531067e-02,6.809064070694148540e-04,3.898557648062705994e-02,1.054302696138620377e-02
1.908921748399734497e-01,-9.300418943166732788e-02,-8.477451279759407043e-03,7.715147733688354492e-02,-2.931512147188186646e-02,9.134752303361892700e-02,-5.368436500430107117e-02,9.789442270994186401e-02,2.212420254945755005e-01,1.821348518133163452e-01,-3.146044164896011353e-02,2.756852507591247559e-01,-8.506435900926589966e-02,8.169651776552200317e-02,-1.903891414403915405e-01,-5.124697834253311157e-02
-4.025815427303314209e-02,1.078744977712631226e-01,3.315237816423177719e-03,-4.233205690979957581e-02,-1.573720723390579224e-01,-2.897119820117950439e-01,-1.137116327881813049e-01,-2.219064682722091675e-01,5.848520621657371521e-02,-7.737789303064346313e-02,-6.719493865966796875e-02,1.350165307521820068e-01,-6.453725695610046387e-02,1.309347301721572876e-01,-1.929095387458801270e-01,-1.243803277611732483e-02
-3.118134438991546631e-01,-3.461997509002685547e-01,-6.502086520195007324e-01,3.224221244454383850e-02,1.364032626152038574e-01,-5.417574569582939148e-02,-6.459994241595268250e-03,-2.033592462539672852e-01,-1.171373724937438965e-01,-1.653075516223907471e-01,2.772593684494495392e-02,1.189231779426336288e-02,-1.466401666402816772e-01,6.832696497440338135e-02,2.236084789037704468e-01,4.257457554340362549e-01
-1.463515460491180420e-01,2.117982879281044006e-02,-9.880875796079635620e-02,-7.905285805463790894e-02,2.220734357833862305e-01,-5.952826887369155884e-02,-3.125851228833198547e-02,1.662625819444656372e-01,-8.857819437980651855e-02,1.480330079793930054e-01,-1.436445862054824829e-01,3.152123093605041504e-02,-3.253773972392082214e-02,-8.864963799715042114e-02,-3.599484562873840332e-01,1.373089663684368134e-02
-1.234317272901535034e-01,4.156161472201347351e-02,-8.590973168611526489e-02,-2.017419226467609406e-02,-1.169918626546859741e-01,-1.051658466458320618e-01,-8.660162985324859619e-02,9.429547190666198730e-02,-2.178376615047454834e-01,-7.722062058746814728e-03,-4.338435828685760498e-02,1.608960479497909546e-01,1.000619530677795410e-01,6.543632596731185913e-02,1.196264475584030151e-01,2.413850724697113037e-01
-1.004582419991493225e-01,1.814660429954528809e-01,2.074506282806396484e-01,3.707323223352432251e-02,8.506556623615324497e-04,-5.498785153031349182e-02,3.040800988674163818e-01,3.978075683116912842e-01,-1.680931746959686279e-01,-9.996720403432846069e-02,6.457918137311935425e-02,-1.209680661559104919e-01,1.470085605978965759e-02,2.196993678808212280e-02,-2.362884879112243652e-01,-1.067830249667167664e-02
-2.604651637375354767e-02,-1.635344624519348145e-01,-3.773297667503356934e-01,-1.948027461767196655e-01,-2.267947494983673096e-01,1.039600446820259094e-01,3.206882774829864502e-01,-1.575504839420318604e-01,-3.330285102128982544e-02,1.755168884992599487e-01,-8.678267151117324829e-02,-4.999751225113868713e-02,-6.188504770398139954e-02,-2.620615437626838684e-02,8.379360288381576538e-02,-7.539682835340499878e-02
1.708257645368576050e-01,-9.965498000383377075e-02,1.619576811790466309e-01,2.047081440687179565e-01,2.663206681609153748e-02,1.489525884389877319e-01,-2.866821587085723877e-01,-8.659696578979492188e-02,2.967469692230224609e-01,1.786609888076782227e-01,1.326485723257064819e-01,-1.755670756101608276e-01,4.027990158647298813e-03,-2.686726450920104980e-01,1.214802041649818420e-01,1.366783082485198975e-01
-2.248015850782394409e-01,7.985705137252807617e-02,-1.381635069847106934e-01,-4.474849626421928406e-02,-4.814755544066429138e-02,-1.239624246954917908e-01,1.722189225256443024e-02,-3.492319211363792419e-02,2.177648693323135376e-01,3.876950591802597046e-03,1.346755452686920762e-04,1.569162011146545410e-01,-9.406215511262416840e-03,1.025003269314765930e-01,-1.022510882467031479e-02,-3.444325327873229980e-01
7.676912844181060791e-02,4.221604764461517334e-02,9.057796001434326172e-02,-1.444119215011596680e-01,-3.666663542389869690e-02,5.868142470717430115e-02,1.643892526626586914e-01,1.271822303533554077e-01,-1.194570288062095642e-01,-4.547352194786071777e-01,1.158203035593032837e-01,-8.966193348169326782e-02,1.799675822257995605e-01,2.004734426736831665e-01,-1.569953262805938721e-01,1.628027558326721191e-01
-1.935510784387588501e-01,-7.832764089107513428e-02,2.242042869329452515e-01,-8.765383809804916382e-02,-2.216575890779495239e-01,7.827880233526229858e-02,2.325457483530044556e-01,-8.715058118104934692e-02,1.795722544193267822e-02,1.180505100637674332e-02,-6.506996601819992065e-02,-2.139809131622314453e-01,-2.532924413681030273e-01,-1.171727105975151062e-01,1.642576903104782104e-01,1.015621125698089600e-01
4.297133907675743103e-02,-2.932636439800262451e-01,-5.781922116875648499e-02,-2.177232205867767334e-01,-2.128570079803466797e-01,9.732168167829513550e-02,1.950155198574066162e-02,2.081952691078186035e-01,1.716446727514266968e-01,3.033421039581298828e-01,1.438373327255249023e-01,2.239246964454650879e-01,3.234869539737701416e-01,-5.168114975094795227e-02,-2.981754206120967865e-02,1.710387468338012695e-01
-9.176407940685749054e-03,-1.659020781517028809e-01,-9.725843556225299835e-03,-2.120124399662017822e-01,-5.726280063390731812e-02,9.096837788820266724e-02,5.947646871209144592e-02,-4.647324681282043457e-01,8.648231625556945801e-02,-2.462709508836269379e-02,3.078081645071506500e-02,-1.406574100255966187e-01,-1.326681822538375854e-01,8.541046828031539917e-02,6.142398342490196228e-03,6.224066764116287231e-02
-4.859566316008567810e-02,1.127068623900413513e-01,2.228275984525680542e-01,-9.119906276464462280e-02,3.166217729449272156e-02,-2.502231895923614502e-01,1.114082038402557373e-01,6.450384110212326050e-02,-2.255515903234481812e-01,-4.851352795958518982e-02,2.317687124013900757e-01,-2.182995826005935669e-01,1.434633731842041016e-01,-3.113618791103363037e-01,3.067323379218578339e-02,1.748095154762268066e-01
5.087190121412277222e-02,-1.183381229639053345e-01,-4.180138409137725830e-01,1.241145804524421692e-01,-6.258075684309005737e-02,3.208450675010681152e-01,-1.709136366844177246e-01,-4.811447113752365112e-02,-4.846365749835968018e-01,3.391820564866065979e-02,-1.727136410772800446e-02,9.187110513448715210e-02,4.830030351877212524e-02,7.889351993799209595e-02,-1.221051588654518127e-01,-1.657070219516754150e-01
2.467599064111709595e-01,2.263572812080383301e-01,-5.335329473018646240e-02,1.088042627088725567e-03,2.294045127928256989e-02,-4.802875220775604248e-03,-2.423553764820098877e-01,-2.416674196720123291e-01,1.157820969820022583e-01,4.386499896645545959e-02,2.629239112138748169e-02,-1.186446323990821838e-01,3.093315660953521729e-01,-1.651292294263839722e-01,-1.409278959035873413e-01,7.426213473081588745e-02
9.284709393978118896e-02,9.537620097398757935e-02,1.733170002698898315e-01,-4.762202128767967224e-02,-5.149646475911140442e-02,9.349619597196578979e-02,1.086610332131385803e-01,4.205412417650222778e-02,-3.284283280372619629e-01,5.978355649858713150e-03,4.877753183245658875e-02,-3.059501945972442627e-02,-1.936093121767044067e-01,2.451167255640029907e-02,1.408278346061706543e-01,-3.828695788979530334e-02
5.807622149586677551e-02,9.865287691354751587e-02,-2.858337461948394775e-01,1.928208470344543457e-01,1.207368746399879456e-01,1.918578147888183594e-02,1.280031204223632812e-01,1.538237091153860092e-02,-1.990985870361328125e-01,3.036558814346790314e-02,8.599603176116943359e-02,2.989254593849182129e-01,-1.187051460146903992e-01,-2.942861616611480713e-01,-3.600727394223213196e-02,-1.179255321621894836e-01
6.990265846252441406e-02,-1.510082334280014038e-01,-1.169677600264549255e-01,7.587143778800964355e-02,4.444650113582611084e-01,5.154885351657867432e-02,3.078429028391838074e-02,1.039874926209449768e-01,-1.339963227510452271e-01,-1.657228320837020874e-01,-1.199318934231996536e-02,-8.649591356515884399e-02,2.148857265710830688e-01,-1.342592835426330566e-01,3.797447085380554199e-01,2.075547128915786743e-01
-2.999335899949073792e-02,3.061444163322448730e-01,7.751522213220596313e-02,-6.446086615324020386e-02,-1.668210625648498535e-01,2.074773460626602173e-01,-1.279330402612686157e-01,2.035840600728988647e-01,2.820678353309631348e-01,-1.232949793338775635e-01,1.541875004768371582e-01,1.945730112493038177e-02,-8.894052356481552124e-02,-5.700076371431350708e-02,-5.632556602358818054e-02,-1.705656945705413818e-01
-6.696551293134689331e-02,7.755099236965179443e-02,1.030104607343673706e-01,-4.266542941331863403e-02,2.878912985324859619e-01,1.005142554640769958e-01,-3.588612377643585205e-01,1.544588953256607056e-01,1.972844265401363373e-02,-1.734019443392753601e-02,7.276777178049087524e-02,-3.465001285076141357e-02,1.755405515432357788e-01,6.719179451465606689e-02,2.181971669197082520e-01,-9.387564659118652344e-02
-8.449956029653549194e-02,9.361794590950012207e-02,1.217824444174766541e-01,-2.749116122722625732e-01,4.872288182377815247e-02,-4.758612439036369324e-02,1.256947685033082962e-02,1.802761554718017578e-01,-5.488368868827819824e-02,-3.231467679142951965e-02,1.652264851145446301e-03,-1.245669499039649963e-01,7.194474339485168457e-02,-1.853768676519393921e-01,5.136301741003990173e-02,-4.570030048489570618e-02
-1.274574548006057739e-01,-1.261703222990036011e-01,4.261798411607742310e-02,9.362679719924926758e-02,2.384292148053646088e-02,-8.023808896541595459e-02,-1.258423030376434326e-01,2.160167694091796875e-02,8.632806688547134399e-02,1.510365009307861328e-01,3.587324172258377075e-02,5.665795877575874329e-02,2.379269748926162720e-01,-1.345807164907455444e-01,9.123177826404571533e-02,-1.304073482751846313e-01
1.649604886770248413e-01,2.024852037429809570e-01,-3.815262615680694580e-01,1.850773394107818604e-01,-1.486452072858810425e-01,-1.210366096347570419e-02,2.247847057878971100e-02,2.218988388776779175e-01,-3.313257917761802673e-02,-5.493031814694404602e-02,4.917686432600021362e-02,5.353134498000144958e-02,7.650680094957351685e-02,3.542280569672584534e-02,-6.082190200686454773e-02,-1.441736817359924316e-01
-3.817530721426010132e-02,-3.203802704811096191e-01,-5.868040397763252258e-02,-4.190808162093162537e-02,2.227299511432647705e-01,1.044246926903724670e-01,4.592204838991165161e-02,-1.040094252675771713e-02,6.581046432256698608e-02,-1.224424913525581360e-01,2.683246135711669922e-01,1.377159263938665390e-02,-2.058145552873611450e-01,-8.646938949823379517e-02,9.914405643939971924e-02,1.623144447803497314e-01
-4.915379360318183899e-02,2.534137368202209473e-01,4.358987137675285339e-02,9.205124527215957642e-02,6.972914934158325195e-02,-2.102972194552421570e-02,-4.513088613748550415e-03,-1.444271653890609741e-01,1.692556142807006836e-01,3.039011061191558838e-01,-7.409362494945526123e-02,-6.027115136384963989e-02,-5.642199143767356873e-02,9.309083223342895508e-03,7.454376667737960815e-02,-3.032573461532592773e-01
-1.394857168197631836e-01,9.931457042694091797e-02,3.322992622852325439e-01,-1.581415086984634399e-01,9.382808208465576172e-02,-2.502864301204681396e-01,-1.829754374921321869e-02,2.425590157508850098e-01,-2.964791096746921539e-02,2.791350185871124268e-01,4.840679094195365906e-02,5.002568289637565613e-02,-6.447251886129379272e-02,3.659604350104928017e-03,-4.936950653791427612e-02,-3.279220461845397949e-01
1.263415217399597168e-01,-4.030018672347068787e-02,-5.247822403907775879e-02,-1.406142413616180420e-01,-1.951545774936676025e-01,2.460796982049942017e-01,-3.286065533757209778e-02,-4.736638069152832031e-02,-7.280667126178741455e-02,-1.984283328056335449e-02,-2.329336293041706085e-02,-5.883171409368515015e-02,-1.736006001010537148e-03,-2.198947966098785400e-01,-7.809003815054893494e-03,7.089424878358840942e-02
-5.297913774847984314e-02,-1.832785457372665405e-01,-9.928844869136810303e-02,9.634443558752536774e-03,1.142563000321388245e-01,1.023152619600296021e-01,-8.267197012901306152e-02,-7.071677595376968384e-02,-7.416282594203948975e-02,5.957879498600959778e-02,1.008321195840835571e-01,2.721911370754241943e-01,-8.331202715635299683e-02,-1.585747152566909790e-01,2.811511754989624023e-01,1.927132606506347656e-01
1.601714640855789185e-01,-7.555745542049407959e-02,3.384727053344249725e-03,3.000427782535552979e-01,-8.955664187669754028e-02,-1.607013866305351257e-02,-2.352943867444992065e-01,2.242815122008323669e-02,-6.072759628295898438e-02,1.181596145033836365e-01,5.673524364829063416e-02,4.459664225578308105e-02,-4.939575120806694031e-02,-4.572175070643424988e-02,-2.850567400455474854e-01,-1.292703896760940552e-01
7.942807860672473907e-03,-7.533220201730728149e-02,-2.903073430061340332e-01,2.335491627454757690e-01,7.699829339981079102e-02,-4.464346170425415039e-02,-4.700592160224914551e-02,3.033511042594909668e-01,-2.578595280647277832e-01,-7.965718954801559448e-02,2.135605514049530029e-01,-6.921584904193878174e-02,8.494219183921813965e-02,-1.948995292186737061e-01,1.722312718629837036e-02,2.697101533412933350e-01
-2.460068464279174805e-01,1.053924933075904846e-01,-6.177442613989114761e-03,3.646266087889671326e-02,1.282180100679397583e-01,-7.261607795953750610e-02,-9.282433241605758667e-02,-6.155686825513839722e-02,6.505529582500457764e-02,-2.766810655593872070e-01,-2.259619534015655518e-01,-7.738534361124038696e-02,-8.724135160446166992e-02,3.313107490539550781e-01,-4.865411296486854553e-02,-1.536153852939605713e-01
-1.195204406976699829e-01,-1.865980476140975952e-01,1.722600162029266357e-01,1.848650425672531128e-01,-7.240455597639083862e-02,8.715591579675674438e-02,-2.432721257209777832e-01,-9.351650252938270569e-03,2.563629671931266785e-02,-2.745732292532920837e-02,-1.414817869663238525e-01,-1.096043176949024200e-02,-2.968103624880313873e-02,-7.522945851087570190e-02,1.044792830944061279e-01,-4.803309962153434753e-02
2.932257354259490967e-01,1.585089787840843201e-02,2.844766080379486084e-01,1.363684795796871185e-02,-2.180231511592864990e-01,7.736199349164962769e-02,-1.212918087840080261e-01,-9.307557344436645508e-02,-1.249022334814071655e-01,-3.133967816829681396e-01,1.968977600336074829e-01,1.229597851634025574e-01,1.593945771455764771e-01,3.491963818669319153e-02,3.107788264751434326e-01,2.851331233978271484e-01
1.110423821955919266e-02,8.781181275844573975e-02,-9.377049654722213745e-02,6.685192883014678955e-02,3.036003373563289642e-02,-1.291227489709854126e-01,-3.115770518779754639e-01,-6.100486591458320618e-02,9.875091910362243652e-02,-1.841807216405868530e-01,-1.543792784214019775e-01,1.035364493727684021e-01,-1.258234679698944092e-01,-1.409398391842842102e-03,-4.148130714893341064e-01,-1.596819162368774414e-01
3.726752847433090210e-02,-3.287528827786445618e-02,1.085312291979789734e-01,-2.132005244493484497e-02,-3.429542779922485352e-01,-4.321502149105072021e-02,2.705544419586658478e-02,8.685285598039627075e-02,-9.850211441516876221e-02,-3.836884349584579468e-02,-3.545439988374710083e-02,7.906961441040039062e-02,9.155850857496261597e-02,-6.020498275756835938e-02,-1.718358881771564484e-02,2.536320388317108154e-01
-1.349224001169204712e-01,-1.940363198518753052e-01,1.699472218751907349e-01,6.703460216522216797e-02,-1.683387309312820435e-01,4.056179150938987732e-02,4.717978537082672119e-01,1.692111790180206299e-01,-1.067105904221534729e-01,-6.336834281682968140e-02,-1.158220972865819931e-02,2.588676214218139648e-01,-6.495755910873413086e-02,9.478031843900680542e-02,1.211289837956428528e-01,-1.083791255950927734e-01
-2.168255392462015152e-03,-5.454472079873085022e-02,-9.645210951566696167e-02,-9.814488142728805542e-02,-4.102791100740432739e-02,-2.583324536681175232e-02,7.522048428654670715e-03,7.563439011573791504e-02,7.449373602867126465e-02,-1.376009136438369751e-01,-1.587918251752853394e-01,7.961105555295944214e-02,-1.196602359414100647e-01,7.910250872373580933e-02,1.922214031219482422e-01,-9.987760335206985474e-03
2.455302923917770386e-01,1.731943786144256592e-01,-4.571761190891265869e-02,9.926392696797847748e-03,-1.432027816772460938e-01,-2.998268604278564453e-01,6.259720772504806519e-02,-3.542410954833030701e-02,9.068851359188556671e-03,-9.299799799919128418e-02,-4.621320590376853943e-02,1.883360743522644043e-01,5.314457695931196213e-03,-2.157718092203140259e-01,-1.075594946742057800e-01,1.348179765045642853e-03
6.298758555203676224e-03,4.471416771411895752e-02,-1.167406365275382996e-01,-1.997804492712020874e-01,1.012040451169013977e-01,1.059364452958106995e-01,5.347686260938644409e-02,2.002899497747421265e-01,-1.720284298062324524e-02,-3.155769407749176025e-02,-9.835217893123626709e-02,6.919585168361663818e-02,4.809573665261268616e-02,-2.506197392940521240e-01,1.796031743288040161e-01,-6.963942199945449829e-02
-2.554599009454250336e-02,4.442821815609931946e-02,1.381032019853591919e-01,1.117465570569038391e-01,2.552556991577148438e-01,1.630008369684219360e-01,-7.853500545024871826e-02,2.900222241878509521e-01,-2.287486791610717773e-01,1.761036179959774017e-02,9.293350577354431152e-02,5.049654468894004822e-02,-1.887994818389415741e-02,-4.155171290040016174e-02,1.018785834312438965e-01,2.537057362496852875e-02
-2.548453211784362793e-01,5.369570106267929077e-03,-4.781608656048774719e-02,3.650579228997230530e-02,-1.469968259334564209e-01,-1.817630380392074585e-01,5.507480353116989136e-03,-9.077482670545578003e-02,-2.582166790962219238e-01,7.564481347799301147e-02,-8.778759837150573730e-02,-1.992195397615432739e-01,8.703579753637313843e-02,1.108281128108501434e-02,-4.899553582072257996e-02,3.128066286444664001e-02
3.424449637532234192e-02,9.685363620519638062e-02,2.601057887077331543e-01,-1.418802291154861450e-01,-2.603471465408802032e-02,1.633705198764801025e-01,1.028388291597366333e-01,-1.428333111107349396e-03,-4.136012867093086243e-02,1.426523327827453613e-01,-2.459792494773864746e-01,-3.087167441844940186e-01,8.625952899456024170e-02,4.778871312737464905e-02,-3.343717008829116821e-02,1.070198863744735718e-01
3.312119096517562866e-02,-2.233180701732635498e-01,9.122701734304428101e-02,-1.162803545594215393e-01,1.616342961788177490e-01,-1.733985692262649536e-01,1.943448036909103394e-01,4.157236590981483459e-02,1.418321430683135986e-01,-7.362473756074905396e-02,1.540234237909317017e-01,-1.053520664572715759e-01,-9.349388629198074341e-02,2.902667596936225891e-02,-2.125236690044403076e-01,8.634840697050094604e-02
-2.435297518968582153e-02,-2.599690295755863190e-02,1.536843646317720413e-02,3.454637527465820312e-02,-2.285110503435134888e-01,-1.662731374381110072e-04,-7.049475610256195068e-02,-4.133916795253753662e-01,3.696263730525970459e-01,-2.778993546962738037e-02,7.829480618238449097e-02,-1.255564540624618530e-01,-2.672419324517250061e-02,5.860107764601707458e-02,2.159833610057830811e-01,7.632938027381896973e-02
2.033356428146362305e-01,1.897107660770416260e-01,1.783324778079986572e-02,-7.139974832534790039e-02,-1.543945521116256714e-01,-2.123467251658439636e-02,2.912897616624832153e-02,-7.057099044322967529e-02,1.549420654773712158e-01,-7.383991032838821411e-02,1.503884047269821167e-01,8.386486768722534180e-02,-3.334585428237915039e-01,-1.141114607453346252e-01,-1.147497296333312988e-01,2.908693812787532806e-02
-2.170703411102294922e-01,-8.439002931118011475e-02,1.189614385366439819e-01,-7.241600751876831055e-02,-7.069457322359085083e-02,-1.271088421344757080e-01,-1.678848266601562500e-02,1.628641784191131592e-02,1.682217419147491455e-01,-6.724554300308227539e-02,-4.928780347108840942e-02,-2.597782313823699951e-01,1.615031361579895020e-01,1.789957284927368164e-01,-1.537571698427200317e-01,-1.833922713994979858e-01
4.073365628719329834e-01,-1.779890954494476318e-01,4.954839497804641724e-02,1.092013716697692871e-01,5.058121681213378906e-02,8.617486455477774143e-04,-2.450809441506862640e-02,-4.009290039539337158e-02,-2.189918905496597290e-01,-2.169908881187438965e-01,2.932734787464141846e-02,7.213137298822402954e-02,-7.388204336166381836e-01,-2.455123811960220337e-01,-1.156312078237533569e-01,-3.482775986194610596e-01
-3.366841375827789307e-01,1.191223636269569397e-01,1.618409752845764160e-01,-3.028071224689483643e-01,-1.500631719827651978e-01,-1.828539669513702393e-01,-9.274717420339584351e-02,-1.941312663257122040e-02,2.269885241985321045e-01,-2.692821063101291656e-02,-8.522509038448333740e-02,4.407064616680145264e-02,-4.125291854143142700e-02,-8.763536810874938965e-02,-8.426317945122718811e-03,-3.043592162430286407e-02
-1.468259096145629883e-01,2.207505404949188232e-01,3.983215615153312683e-02,-5.398263409733772278e-02,3.156058490276336670e-03,1.302867103368043900e-02,-2.542852759361267090e-01,-1.366193294525146484e-01,1.784978993237018585e-02,9.450797736644744873e-02,7.698445767164230347e-02,6.651306897401809692e-02,-7.540730386972427368e-02,-2.362501919269561768e-01,9.957126528024673462e-02,-1.459022890776395798e-02
9.833081066608428955e-02,-1.900320202112197876e-01,1.002629473805427551e-02,-4.357468336820602417e-02,5.393169820308685303e-02,-8.569728583097457886e-02,6.285631097853183746e-03,-4.202123731374740601e-02,5.820453166961669922e-02,-1.703832000494003296e-01,1.689981669187545776e-01,5.102556571364402771e-02,2.396002598106861115e-02,-1.879297792911529541e-01,8.428362756967544556e-02,2.958191633224487305e-01
-5.107350274920463562e-02,-1.495148986577987671e-01,1.042503416538238525e-01,-1.686627268791198730e-01,3.269930928945541382e-02,-2.310314476490020752e-01,4.427399113774299622e-02,-1.390495598316192627e-01,-3.048007190227508545e-02,8.615756779909133911e-02,1.571743786334991455e-01,-6.008461490273475647e-02,4.780865833163261414e-02,-2.508042156696319580e-01,1.839759945869445801e-02,4.652938619256019592e-02
4.965610504150390625e-01,-4.249799996614456177e-02,1.127154286950826645e-02,-9.015278518199920654e-02,1.289892196655273438e-01,2.331610955297946930e-02,4.377971589565277100e-02,2.856991291046142578e-01,1.534673571586608887e-02,2.921273931860923767e-02,-1.354974061250686646e-01,-4.278868902474641800e-03,2.291223593056201935e-02,-4.082455039024353027e-01,-2.211563289165496826e-01,1.142686754465103149e-01
2.088593393564224243e-01,3.464378044009208679e-02,-1.236025542020797729e-01,9.087470173835754395e-02,-2.037366926670074463e-01,4.305919632315635681e-02,-4.266706481575965881e-02,1.699690967798233032e-01,-1.611206829547882080e-01,-3.352325037121772766e-02,1.222282089293003082e-02,9.382769465446472168e-02,-1.469382345676422119e-01,-2.096217721700668335e-01,-3.127186000347137451e-01,-1.639662086963653564e-01
6.719742435961961746e-03,3.518003597855567932e-02,1.739704310894012451e-01,2.890874147415161133e-01,-2.599051296710968018e-01,-4.896377399563789368e-02,-1.491889823228120804e-02,-8.165145665407180786e-02,-2.670076675713062286e-03,2.765794098377227783e-01,-1.158440038561820984e-01,-5.940220435149967670e-04,-2.909070551395416260e-01,8.710797131061553955e-02,1.462967097759246826e-01,-2.400139160454273224e-02
-4.713678732514381409e-02,6.360516697168350220e-02,1.325752437114715576e-01,-4.638108238577842712e-02,1.447073966264724731e-01,-2.177483886480331421e-01,-1.101955771446228027e-01,2.058193460106849670e-02,-9.627175331115722656e-02,1.745223402976989746e-01,9.167052060365676880e-02,-6.445977091789245605e-02,-2.032922767102718353e-02,3.728379728272557259e-03,2.433576285839080811e-01,-9.175062924623489380e-02
-2.365845590829849243e-01,1.291457861661911011e-01,2.652571499347686768e-01,7.114228606224060059e-02,9.216741472482681274e-02,2.229586243629455566e-01,-1.826837211847305298e-01,-9.374991990625858307e-03,-5.277131795883178711e-01,-9.334912151098251343e-02,-1.006633788347244263e-01,-2.336177825927734375e-01,-1.541722379624843597e-02,-3.010947704315185547e-01,-1.409293338656425476e-02,6.074728816747665405e-02
1.036695092916488647e-01,1.770002990961074829e-01,-4.196645691990852356e-02,2.847346961498260498e-01,3.772784769535064697e-02,2.235891520977020264e-01,5.399195104837417603e-02,1.578290015459060669e-01,-3.032631576061248779e-01,1.965014822781085968e-02,-1.460189087083563209e-04,2.137320786714553833e-01,-3.058283217251300812e-02,1.858935803174972534e-01,-4.652657732367515564e-02,1.388182956725358963e-02
-1.971556693315505981e-01,8.769833296537399292e-02,2.287365123629570007e-02,-1.618164628744125366e-01,2.852465398609638214e-02,1.384461671113967896e-01,1.061086803674697876e-01,-1.085109338164329529e-01,-9.995959699153900146e-02,1.487213373184204102e-01,1.181404888629913330e-01,-1.586114466190338135e-01,4.411368817090988159e-02,5.276761576533317566e-02,1.785911768674850464e-01,3.297372460365295410e-01
3.989277034997940063e-02,-8.470893651247024536e-02,5.290134623646736145e-02,5.958963930606842041e-02,6.965094059705734253e-02,8.920084685087203979e-02,-3.784489631652832031e-02,-6.822389364242553711e-02,2.509339153766632080e-01,-2.301470935344696045e-02,9.749937057495117188e-02,-1.330164968967437744e-01,7.243975996971130371e-02,-1.769842579960823059e-02,1.692169718444347382e-02,-9.201281704008579254e-03
-1.239377632737159729e-01,-2.382940798997879028e-01,-3.321091234683990479e-01,2.224744111299514771e-01,1.893735378980636597e-01,-1.027344074100255966e-02,4.990060627460479736e-02,7.822161167860031128e-02,5.913440510630607605e-02,1.084407418966293335e-01,-1.062837317585945129e-01,2.620504423975944519e-02,-2.111933082342147827e-01,-8.679124526679515839e-03,1.338135451078414917e-01,-2.362697124481201172e-01
1.844893544912338257e-01,-1.345274690538644791e-02,-1.215229481458663940e-01,-9.131982922554016113e-02,1.530723720788955688e-01,8.907543495297431946e-03,2.935766475275158882e-03,-2.086924463510513306e-01,-1.196152195334434509e-01,-1.620099246501922607e-01,-2.289668619632720947e-01,7.550398260354995728e-02,2.349431961774826050e-01,1.759454905986785889e-01,4.362840056419372559e-01,6.594426929950714111e-02
-3.596896771341562271e-03,-3.151448965072631836e-01,2.233788222074508667e-01,1.970071047544479370e-01,6.730324029922485352e-02,-1.289370954036712646e-01,-1.022110059857368469e-01,-6.568933278322219849e-02,-1.785255521535873413e-01,1.115407645702362061e-01,-3.633299469947814941e-02,-3.217198327183723450e-02,1.298405677080154419e-01,-1.005048379302024841e-01,1.303272098302841187e-01,1.446916759014129639e-01
-8.789662271738052368e-03,-1.337469071149826050e-01,-6.624872982501983643e-02,-2.789233922958374023e-01,4.339681938290596008e-03,-1.947407796978950500e-02,2.509040236473083496e-01,1.474613696336746216e-01,4.983910173177719116e-02,1.463842019438743591e-02,1.504447311162948608e-01,1.077318787574768066e-01,7.517324388027191162e-02,5.604620277881622314e-02,-1.778478771448135376e-01,6.181021034717559814e-02
2.228472195565700531e-02,-2.476046979427337646e-01,-1.483358442783355713e-02,-2.062695920467376709e-01,-1.019676551222801208e-01,-2.954965829849243164e-01,-1.611503213644027710e-02,-1.246755346655845642e-01,1.676241755485534668e-01,1.673693060874938965e-01,1.819910854101181030e-01,3.257620930671691895e-01,-4.554778337478637695e-02,2.786536514759063721e-01,-9.008482098579406738e-02,1.800448149442672729e-01
2.233020216226577759e-01,3.752799704670906067e-02,-1.352380216121673584e-01,1.687908917665481567e-01,-8.916012942790985107e-02,4.716342687606811523e-02,9.865742176771163940e-02,1.762647181749343872e-01,-2.615261673927307129e-01,1.129105240106582642e-01,-5.375051405280828476e-03,7.333893328905105591e-02,-2.200147360563278198e-01,-3.764466643333435059e-01,-3.284278884530067444e-02,-1.096262037754058838e-01
2.090982198715209961e-01,-1.754847466945648193e-01,-2.358459383249282837e-01,-1.639341413974761963e-01,2.147308737039566040e-01,-5.667581781744956970e-02,-4.578058049082756042e-02,-1.698663979768753052e-01,-3.003649413585662842e-03,-7.721854001283645630e-02,-1.292553637176752090e-02,2.693709731101989746e-02,4.613180831074714661e-02,-2.435251921415328979e-01,-9.526007808744907379e-03,1.353868097066879272e-01
-1.408694088459014893e-01,1.334833949804306030e-01,1.534192413091659546e-01,6.030939891934394836e-02,-3.062788248062133789e-01,1.005913130939006805e-02,1.304142028093338013e-01,-5.620835721492767334e-02,1.371908234432339668e-03,-5.727709829807281494e-02,3.183979913592338562e-02,-1.236836016178131104e-01,-9.381671249866485596e-02,6.921219825744628906e-02,3.260996043682098389e-01,1.107734739780426025e-01
1.617079377174377441e-01,-1.551593393087387085e-01,-6.630808860063552856e-02,1.363292150199413300e-02,2.057862579822540283e-01,1.537629403173923492e-02,1.163117066025733948e-01,2.122142165899276733e-01,1.070983111858367920e-01,-1.564247161149978638e-01,1.003043055534362793e-01,-6.698173284530639648e-02,-4.096250981092453003e-02,-3.073082864284515381e-01,1.756417565047740936e-02,1.174887120723724365e-01
4.490608349442481995e-02,1.739788353443145752e-01,1.206770315766334534e-01,-8.366985246539115906e-03,-4.174204915761947632e-02,7.256857305765151978e-02,2.678197920322418213e-01,-9.258923679590225220e-02,-2.388810068368911743e-01,5.514789372682571411e-02,1.025545001029968262e-01,6.863729655742645264e-02,-8.094792813062667847e-02,-3.690814226865768433e-02,-1.388946454972028732e-02,1.666390307946130633e-04
-1.875623501837253571e-02,3.150336816906929016e-02,1.871079951524734497e-02,-1.610930263996124268e-01,-4.503786563873291016e-02,5.986234545707702637e-02,-1.175022590905427933e-02,-2.193316118791699409e-03,-5.811784043908119202e-02,1.121840178966522217e-01,-2.090182304382324219e-01,-2.937026880681514740e-02,1.314463317394256592e-01,1.019886881113052368e-01,1.329141706228256226e-01,-2.212898284196853638e-01
-1.108172833919525146e-01,-9.877181053161621094e-02,-3.295394778251647949e-02,-9.101260453462600708e-02,-2.011070549488067627e-01,1.175541989505290985e-02,3.851699531078338623e-01,-1.132228299975395203e-01,3.163655102252960205e-01,-7.706931233406066895e-02,4.665074348449707031e-01,-1.706205755472183228e-01,7.730434834957122803e-02,-2.391194254159927368e-01,-1.197078898549079895e-01,6.435906398110091686e-04
5.073731765151023865e-02,4.261722043156623840e-02,3.262265771627426147e-02,7.699459791183471680e-02,-5.395423248410224915e-02,-2.031159549951553345e-01,5.233708769083023071e-02,-1.034093052148818970e-01,1.194199696183204651e-01,-2.140418291091918945e-01,-7.677760720252990723e-02,-4.623042047023773193e-02,1.587145924568176270e-01,-2.197026908397674561e-01,7.088164985179901123e-02,-3.587710484862327576e-02
2.774952352046966553e-01,-2.834586501121520996e-01,1.228690594434738159e-01,-2.315403968095779419e-01,-3.293426707386970520e-02,-1.862386316061019897e-01,-1.498020738363265991e-01,2.057398408651351929e-01,-2.123830020427703857e-01,2.971816062927246094e-01,-1.238039433956146240e-01,3.778216242790222168e-01,1.436400115489959717e-01,-6.175244227051734924e-02,-7.759024202823638916e-02,-1.607208102941513062e-01
1.557437032461166382e-01,-2.279743254184722900e-01,1.015663146972656250e-01,-7.556758075952529907e-02,2.548371441662311554e-02,-1.859734058380126953e-01,1.514409929513931274e-01,-6.074079871177673340e-02,-3.257296085357666016e-01,-5.171496421098709106e-02,6.902201473712921143e-02,-1.182797774672508240e-01,-2.090658619999885559e-02,-4.009411036968231201e-01,-2.148745767772197723e-02,2.473177947103977203e-02
-2.230023592710494995e-01,-3.050122782588005066e-02,-6.324944645166397095e-02,-6.486815959215164185e-02,1.975087821483612061e-01,-6.863677501678466797e-02,-2.462680637836456299e-02,2.558726444840431213e-02,-1.459848415106534958e-02,-1.141168773174285889e-01,5.669502541422843933e-02,2.586746215820312500e-01,5.538437515497207642e-02,2.968081235885620117e-01,-1.310946140438318253e-02,-2.213075906038284302e-01
2.171686738729476929e-01,-1.642513722181320190e-01,1.634893715381622314e-01,1.004576683044433594e-01,-3.221434950828552246e-01,-1.865004152059555054e-01,-9.253885596990585327e-02,1.033851131796836853e-01,2.201700061559677124e-01,-4.270764440298080444e-02,-3.547703623771667480e-01,-6.761723011732101440e-02,2.509598433971405029e-01,4.750714451074600220e-02,-1.213486492633819580e-01,1.255186051130294800e-01
3.336359560489654541e-01,2.727086655795574188e-02,-8.656198531389236450e-02,-3.216389194130897522e-02,9.088302403688430786e-02,8.214519917964935303e-02,2.688673138618469238e-01,2.693870067596435547e-01,-3.460530936717987061e-02,-9.468790143728256226e-02,1.484537497162818909e-02,1.759759932756423950e-01,-1.497117429971694946e-01,-1.287703216075897217e-01,-2.714690566062927246e-01,1.084789633750915527e-01
3.149987012147903442e-02,1.647466272115707397e-01,-2.078183740377426147e-02,-1.666108369827270508e-01,-1.625687927007675171e-01,-2.070315629243850708e-01,-1.793888807296752930e-01,-2.061490416526794434e-01,-2.703863978385925293e-01,-9.838871657848358154e-02,-2.146037854254245758e-02,1.398948207497596741e-02,8.355693519115447998e-02,-3.760214447975158691e-01,5.169050022959709167e-02,6.219295039772987366e-02
-9.913451224565505981e-02,2.842596545815467834e-02,-1.058516800403594971e-01,1.632273942232131958e-02,9.894030541181564331e-02,8.741769939661026001e-02,1.017970070242881775e-01,-2.741315364837646484e-01,-3.219297528266906738e-01,2.803667187690734863e-01,3.230336606502532959e-01,5.639662966132164001e-02,-1.404086649417877197e-01,5.540623515844345093e-02,3.006945848464965820e-01,-2.083631008863449097e-01
1.175321340560913086e-01,3.772135376930236816e-01,6.466347724199295044e-02,-5.940843001008033752e-02,5.756853148341178894e-02,1.589533239603042603e-01,1.101653128862380981e-01,-4.594178497791290283e-01,-5.015192031860351562e-01,-1.824177503585815430e-01,4.573255404829978943e-02,-1.715839654207229614e-01,-2.865865267813205719e-02,-8.365193754434585571e-02,1.021124646067619324e-01,-1.386130601167678833e-02
1.070834845304489136e-01,-1.327977925539016724e-01,5.562799051403999329e-02,2.058428674936294556e-01,1.481900643557310104e-02,-1.637549884617328644e-02,8.387789130210876465e-03,1.440553665161132812e-01,-1.194937620311975479e-02,3.272929489612579346e-01,-2.150025591254234314e-02,1.361331045627593994e-01,-4.666310548782348633e-02,-9.451513737440109253e-02,2.172343991696834564e-02,-3.481441410258412361e-03
-4.569528624415397644e-02,-3.567868098616600037e-02,7.290649414062500000e-02,-5.322948098182678223e-02,1.239080205559730530e-01,2.824480235576629639e-01,1.670090667903423309e-02,-8.459758758544921875e-02,-4.085486829280853271e-01,-9.712735773064196110e-04,-1.716863177716732025e-02,-1.222639083862304688e-01,-1.974186748266220093e-01,2.418361306190490723e-01,9.154651314020156860e-02,-1.148226559162139893e-01
7.230464369058609009e-03,-1.840216070413589478e-01,-9.191640466451644897e-02,7.782435417175292969e-02,9.371414780616760254e-02,1.159493401646614075e-01,-1.915167272090911865e-01,1.608796268701553345e-01,-2.854170799255371094e-01,-2.717532217502593994e-02,2.758893556892871857e-02,1.866370588541030884e-01,2.125429213047027588e-01,7.901345938444137573e-02,-2.759686410427093506e-01,-4.177086427807807922e-02
-4.758777469396591187e-02,-8.325381577014923096e-02,9.971348196268081665e-02,-2.332316013053059578e-03,-4.033683985471725464e-02,-2.019886076450347900e-01,1.355973072350025177e-02,-7.117917388677597046e-02,1.977629512548446655e-01,-1.671411991119384766e-01,2.258644402027130127e-01,-3.244659677147865295e-02,4.333712905645370483e-02,-1.169628575444221497e-01,2.075583785772323608e-01,1.566056609153747559e-01
-2.748820781707763672e-01,-2.904181480407714844e-01,-8.360131084918975830e-02,2.777788974344730377e-02,-8.607170730829238892e-02,-2.585083246231079102e-01,1.396331489086151123e-01,3.666132092475891113e-01,-6.341229379177093506e-02,-1.835256069898605347e-01,-2.170359492301940918e-01,-4.922294989228248596e-02,-4.187469184398651123e-02,-3.785728290677070618e-02,1.234716325998306274e-01,1.147545501589775085e-01
2.702969312667846680e-01,-2.068397551774978638e-01,6.387433409690856934e-02,2.349777817726135254e-01,-1.363736987113952637e-01,-1.060020253062248230e-01,2.818344905972480774e-02,-4.229239374399185181e-02,1.241071820259094238e-01,4.227836802601814270e-02,-1.842620074748992920e-01,-1.681410223245620728e-01,-3.579717129468917847e-02,-9.025461226701736450e-02,4.741960763931274414e-02,8.001523464918136597e-02
-1.348416358232498169e-01,1.152229309082031250e-01,-1.432949900627136230e-01,1.891019940376281738e-02,-2.578092813491821289e-01,-6.119527667760848999e-02,1.276092231273651123e-01,-6.306489557027816772e-02,3.984067216515541077e-02,1.971051692962646484e-01,-8.346874266862869263e-02,3.136808425188064575e-02,-1.826986819505691528e-01,-1.237487792968750000e-01,-2.138202935457229614e-01,-1.149086132645606995e-01
-1.296104043722152710e-01,-6.340393424034118652e-02,-2.411489188671112061e-01,7.922389358282089233e-02,-2.226434350013732910e-01,-1.472565829753875732e-01,-1.661817729473114014e-01,-1.959682628512382507e-02,8.832665532827377319e-02,3.444332182407379150e-01,1.720869541168212891e-01,3.965422511100769043e-01,1.775056123733520508e-01,2.435824722051620483e-01,-1.149627938866615295e-01,5.902964994311332703e-02
1.968156397342681885e-01,-8.206358551979064941e-02,4.190358147025108337e-02,3.432842716574668884e-02,9.091534651815891266e-03,1.206953674554824829e-01,1.854082010686397552e-02,-2.532632835209369659e-02,-2.262534759938716888e-02,1.941149234771728516e-01,2.685862965881824493e-02,-2.599453926086425781e-01,-1.111073046922683716e-01,-8.375300467014312744e-02,2.664051353931427002e-01,-1.034004334360361099e-02
1.090873777866363525e-01,5.810384452342987061e-02,1.667357087135314941e-01,3.328001126646995544e-02,3.929880261421203613e-02,-7.408127933740615845e-02,1.294166445732116699e-01,7.934728264808654785e-02,-2.015069425106048584e-01,-3.397777304053306580e-02,-3.992304950952529907e-02,-2.064165771007537842e-01,1.131374239921569824e-01,1.228987611830234528e-02,-2.227981537580490112e-01,-1.101458743214607239e-01
-6.934016197919845581e-02,1.531331390142440796e-01,5.406025052070617676e-02,2.173514217138290405e-01,-1.345102041959762573e-01,1.214830353856086731e-01,2.156698107719421387e-01,1.928398609161376953e-01,-1.405970603227615356e-01,8.023851364850997925e-02,2.731879651546478271e-01,-2.344765812158584595e-01,2.430777251720428467e-01,1.522201597690582275e-01,-2.917470932006835938e-01,-2.573592364788055420e-01
